<?xml version="1.0" encoding="ISO-8859-1"?>
<smile version="1.0" id="Network1" numsamples="1000" discsamples="10000">
	<nodes>
		<cpt id="attentionContext">
			<state id="Neutral" />
			<state id="Concentrating" />
			<state id="Sleepy" />
			<state id="Social" />
			<probabilities>0.138550951331541 0.1385581435089572 0.1385515163866185 0.5843393887728834</probabilities>
		</cpt>
		<cpt id="audioNoise">
			<state id="None" />
			<state id="Low" />
			<state id="Medium" />
			<state id="High" />
			<probabilities>0.6248770907957847 0.1250409697347385 0.1250409697347385 0.1250409697347385</probabilities>
		</cpt>
		<cpt id="robotMotionSpeed" dynamic="plate">
			<state id="Low" />
			<state id="Medium" />
			<state id="High" />
			<probabilities>0.6666666666666666 0.1666666666666667 0.1666666666666667</probabilities>
		</cpt>
		<cpt id="robotPose" dynamic="plate">
			<state id="Far" />
			<state id="Medium" />
			<state id="Close" />
			<probabilities>0.6666666666666666 0.1666666666666667 0.1666666666666667</probabilities>
		</cpt>
		<cpt id="robotSoundVolume" dynamic="plate">
			<state id="Low" />
			<state id="Medium" />
			<state id="High" />
			<parents>audioNoise</parents>
			<probabilities>0.6666256918957517 0.1666871540521241 0.1666871540521242 0.3333879551706335 0.3333060224146832 0.3333060224146833 0.3333879551706335 0.3333060224146832 0.3333060224146833 0.3333879551706335 0.3333060224146832 0.3333060224146833</probabilities>
		</cpt>
		<cpt id="attentionLevel" dynamic="plate">
			<state id="Neglect" />
			<state id="Contingency" />
			<state id="AttentionHigh" />
			<parents>attentionContext audioNoise robotMotionSpeed robotPose robotSoundVolume</parents>
			<probabilities>0.3509029898438069 0.3245485050780969 0.3245485050780964 0.3333333333333335 0.3333333333333335 0.333333333333333 0.3333333333333335 0.3333333333333335 0.333333333333333 0.3333333333333335 0.3333333333333335 0.333333333333333 0.3333333333333335 0.3333333333333335 0.333333333333333 0.3333333333333335 0.3333333333333335 0.333333333333333 0.3333333333333335 0.3333333333333335 0.333333333333333 0.3333333333333335 0.3333333333333335 0.333333333333333 0.3333333333333335 0.3333333333333335 0.333333333333333 0.3333333333333335 0.3333333333333335 0.333333333333333 0.3333333333333335 0.3333333333333335 0.333333333333333 0.3333333333333335 0.3333333333333335 0.333333333333333 0.3333333333333335 0.3333333333333335 0.333333333333333 0.3333333333333335 0.3333333333333335 0.333333333333333 0.3333333333333335 0.3333333333333335 0.333333333333333 0.3333333333333335 0.3333333333333335 0.333333333333333 0.3333333333333335 0.3333333333333335 0.333333333333333 0.3333333333333335 0.3333333333333335 0.333333333333333 0.3333333333333335 0.3333333333333335 0.333333333333333 0.3333333333333335 0.3333333333333335 0.333333333333333 0.3333333333333335 0.3333333333333335 0.333333333333333 0.3333333333333335 0.3333333333333335 0.333333333333333 0.3333333333333335 0.3333333333333335 0.333333333333333 0.3333333333333335 0.3333333333333335 0.333333333333333 0.3333333333333335 0.3333333333333335 0.333333333333333 0.3333333333333335 0.3333333333333335 0.333333333333333 0.3333333333333335 0.3333333333333335 0.333333333333333 0.3333409018738853 0.3333295490630576 0.3333295490630571 0.3333333333333335 0.3333333333333335 0.333333333333333 0.3333333333333335 0.3333333333333335 0.333333333333333 0.3333333333333335 0.3333333333333335 0.333333333333333 0.3333333333333335 0.3333333333333335 0.333333333333333 0.3333333333333335 0.3333333333333335 0.333333333333333 0.3333333333333335 0.3333333333333335 0.333333333333333 0.3333333333333335 0.3333333333333335 0.333333333333333 0.3333333333333335 0.3333333333333335 0.333333333333333 0.3333333333333335 0.3333333333333335 0.333333333333333 0.3333333333333335 0.3333333333333335 0.333333333333333 0.3333333333333335 0.3333333333333335 0.333333333333333 0.3333333333333335 0.3333333333333335 0.333333333333333 0.3333333333333335 0.3333333333333335 0.333333333333333 0.3333333333333335 0.3333333333333335 0.333333333333333 0.3333333333333335 0.3333333333333335 0.333333333333333 0.3333333333333335 0.3333333333333335 0.333333333333333 0.3333333333333335 0.3333333333333335 0.333333333333333 0.3333333333333335 0.3333333333333335 0.333333333333333 0.3333333333333335 0.3333333333333335 0.333333333333333 0.3333333333333335 0.3333333333333335 0.333333333333333 0.3333333333333335 0.3333333333333335 0.333333333333333 0.3333333333333335 0.3333333333333335 0.333333333333333 0.3333333333333335 0.3333333333333335 0.333333333333333 0.3333333333333335 0.3333333333333335 0.333333333333333 0.3333333333333335 0.3333333333333335 0.333333333333333 0.3333333333333335 0.3333333333333335 0.333333333333333 0.3333409018738853 0.3333295490630576 0.3333295490630571 0.3333333333333335 0.3333333333333335 0.333333333333333 0.3333333333333335 0.3333333333333335 0.333333333333333 0.3333333333333335 0.3333333333333335 0.333333333333333 0.3333333333333335 0.3333333333333335 0.333333333333333 0.3333333333333335 0.3333333333333335 0.333333333333333 0.3333333333333335 0.3333333333333335 0.333333333333333 0.3333333333333335 0.3333333333333335 0.333333333333333 0.3333333333333335 0.3333333333333335 0.333333333333333 0.3333333333333335 0.3333333333333335 0.333333333333333 0.3333333333333335 0.3333333333333335 0.333333333333333 0.3333333333333335 0.3333333333333335 0.333333333333333 0.3333333333333335 0.3333333333333335 0.333333333333333 0.3333333333333335 0.3333333333333335 0.333333333333333 0.3333333333333335 0.3333333333333335 0.333333333333333 0.3333333333333335 0.3333333333333335 0.333333333333333 0.3333333333333335 0.3333333333333335 0.333333333333333 0.3333333333333335 0.3333333333333335 0.333333333333333 0.3333333333333335 0.3333333333333335 0.333333333333333 0.3333333333333335 0.3333333333333335 0.333333333333333 0.3333333333333335 0.3333333333333335 0.333333333333333 0.3333333333333335 0.3333333333333335 0.333333333333333 0.3333333333333335 0.3333333333333335 0.333333333333333 0.3333333333333335 0.3333333333333335 0.333333333333333 0.3333333333333335 0.3333333333333335 0.333333333333333 0.3333333333333335 0.3333333333333335 0.333333333333333 0.3333333333333335 0.3333333333333335 0.333333333333333 0.3333409018738853 0.3333295490630576 0.3333295490630571 0.3333333333333335 0.3333333333333335 0.333333333333333 0.3333333333333335 0.3333333333333335 0.333333333333333 0.3333333333333335 0.3333333333333335 0.333333333333333 0.3333333333333335 0.3333333333333335 0.333333333333333 0.3333333333333335 0.3333333333333335 0.333333333333333 0.3333333333333335 0.3333333333333335 0.333333333333333 0.3333333333333335 0.3333333333333335 0.333333333333333 0.3333333333333335 0.3333333333333335 0.333333333333333 0.3333333333333335 0.3333333333333335 0.333333333333333 0.3333333333333335 0.3333333333333335 0.333333333333333 0.3333333333333335 0.3333333333333335 0.333333333333333 0.3333333333333335 0.3333333333333335 0.333333333333333 0.3333333333333335 0.3333333333333335 0.333333333333333 0.3333333333333335 0.3333333333333335 0.333333333333333 0.3333333333333335 0.3333333333333335 0.333333333333333 0.3333333333333335 0.3333333333333335 0.333333333333333 0.3333333333333335 0.3333333333333335 0.333333333333333 0.3333333333333335 0.3333333333333335 0.333333333333333 0.3333333333333335 0.3333333333333335 0.333333333333333 0.3333333333333335 0.3333333333333335 0.333333333333333 0.3333333333333335 0.3333333333333335 0.333333333333333 0.3333333333333335 0.3333333333333335 0.333333333333333 0.3333333333333335 0.3333333333333335 0.333333333333333 0.3333333333333335 0.3333333333333335 0.333333333333333 0.3333333333333335 0.3333333333333335 0.333333333333333 0.3333333333333335 0.3333333333333335 0.333333333333333 0.3509120770322561 0.3245439614838722 0.3245439614838717 0.3333333333333335 0.3333333333333335 0.333333333333333 0.3333333333333335 0.3333333333333335 0.333333333333333 0.3333333333333335 0.3333333333333335 0.333333333333333 0.3333333333333335 0.3333333333333335 0.333333333333333 0.3333333333333335 0.3333333333333335 0.333333333333333 0.3333333333333335 0.3333333333333335 0.333333333333333 0.3333333333333335 0.3333333333333335 0.333333333333333 0.3333333333333335 0.3333333333333335 0.333333333333333 0.3333333333333335 0.3333333333333335 0.333333333333333 0.3333333333333335 0.3333333333333335 0.333333333333333 0.3333333333333335 0.3333333333333335 0.333333333333333 0.3333333333333335 0.3333333333333335 0.333333333333333 0.3333333333333335 0.3333333333333335 0.333333333333333 0.3333333333333335 0.3333333333333335 0.333333333333333 0.3333333333333335 0.3333333333333335 0.333333333333333 0.3333333333333335 0.3333333333333335 0.333333333333333 0.3333333333333335 0.3333333333333335 0.333333333333333 0.3333333333333335 0.3333333333333335 0.333333333333333 0.3333333333333335 0.3333333333333335 0.333333333333333 0.3333333333333335 0.3333333333333335 0.333333333333333 0.3333333333333335 0.3333333333333335 0.333333333333333 0.3333333333333335 0.3333333333333335 0.333333333333333 0.3333333333333335 0.3333333333333335 0.333333333333333 0.3333333333333335 0.3333333333333335 0.333333333333333 0.3333333333333335 0.3333333333333335 0.333333333333333 0.3333333333333335 0.3333333333333335 0.333333333333333 0.3333409030899073 0.3333295484550466 0.3333295484550461 0.3333333333333335 0.3333333333333335 0.333333333333333 0.3333333333333335 0.3333333333333335 0.333333333333333 0.3333333333333335 0.3333333333333335 0.333333333333333 0.3333333333333335 0.3333333333333335 0.333333333333333 0.3333333333333335 0.3333333333333335 0.333333333333333 0.3333333333333335 0.3333333333333335 0.333333333333333 0.3333333333333335 0.3333333333333335 0.333333333333333 0.3333333333333335 0.3333333333333335 0.333333333333333 0.3333333333333335 0.3333333333333335 0.333333333333333 0.3333333333333335 0.3333333333333335 0.333333333333333 0.3333333333333335 0.3333333333333335 0.333333333333333 0.3333333333333335 0.3333333333333335 0.333333333333333 0.3333333333333335 0.3333333333333335 0.333333333333333 0.3333333333333335 0.3333333333333335 0.333333333333333 0.3333333333333335 0.3333333333333335 0.333333333333333 0.3333333333333335 0.3333333333333335 0.333333333333333 0.3333333333333335 0.3333333333333335 0.333333333333333 0.3333333333333335 0.3333333333333335 0.333333333333333 0.3333333333333335 0.3333333333333335 0.333333333333333 0.3333333333333335 0.3333333333333335 0.333333333333333 0.3333333333333335 0.3333333333333335 0.333333333333333 0.3333333333333335 0.3333333333333335 0.333333333333333 0.3333333333333335 0.3333333333333335 0.333333333333333 0.3333333333333335 0.3333333333333335 0.333333333333333 0.3333333333333335 0.3333333333333335 0.333333333333333 0.3333333333333335 0.3333333333333335 0.333333333333333 0.3333409030899073 0.3333295484550466 0.3333295484550461 0.3333333333333335 0.3333333333333335 0.333333333333333 0.3333333333333335 0.3333333333333335 0.333333333333333 0.3333333333333335 0.3333333333333335 0.333333333333333 0.3333333333333335 0.3333333333333335 0.333333333333333 0.3333333333333335 0.3333333333333335 0.333333333333333 0.3333333333333335 0.3333333333333335 0.333333333333333 0.3333333333333335 0.3333333333333335 0.333333333333333 0.3333333333333335 0.3333333333333335 0.333333333333333 0.3333333333333335 0.3333333333333335 0.333333333333333 0.3333333333333335 0.3333333333333335 0.333333333333333 0.3333333333333335 0.3333333333333335 0.333333333333333 0.3333333333333335 0.3333333333333335 0.333333333333333 0.3333333333333335 0.3333333333333335 0.333333333333333 0.3333333333333335 0.3333333333333335 0.333333333333333 0.3333333333333335 0.3333333333333335 0.333333333333333 0.3333333333333335 0.3333333333333335 0.333333333333333 0.3333333333333335 0.3333333333333335 0.333333333333333 0.3333333333333335 0.3333333333333335 0.333333333333333 0.3333333333333335 0.3333333333333335 0.333333333333333 0.3333333333333335 0.3333333333333335 0.333333333333333 0.3333333333333335 0.3333333333333335 0.333333333333333 0.3333333333333335 0.3333333333333335 0.333333333333333 0.3333333333333335 0.3333333333333335 0.333333333333333 0.3333333333333335 0.3333333333333335 0.333333333333333 0.3333333333333335 0.3333333333333335 0.333333333333333 0.3333333333333335 0.3333333333333335 0.333333333333333 0.3333409030899073 0.3333295484550466 0.3333295484550461 0.3333333333333335 0.3333333333333335 0.333333333333333 0.3333333333333335 0.3333333333333335 0.333333333333333 0.3333333333333335 0.3333333333333335 0.333333333333333 0.3333333333333335 0.3333333333333335 0.333333333333333 0.3333333333333335 0.3333333333333335 0.333333333333333 0.3333333333333335 0.3333333333333335 0.333333333333333 0.3333333333333335 0.3333333333333335 0.333333333333333 0.3333333333333335 0.3333333333333335 0.333333333333333 0.3333333333333335 0.3333333333333335 0.333333333333333 0.3333333333333335 0.3333333333333335 0.333333333333333 0.3333333333333335 0.3333333333333335 0.333333333333333 0.3333333333333335 0.3333333333333335 0.333333333333333 0.3333333333333335 0.3333333333333335 0.333333333333333 0.3333333333333335 0.3333333333333335 0.333333333333333 0.3333333333333335 0.3333333333333335 0.333333333333333 0.3333333333333335 0.3333333333333335 0.333333333333333 0.3333333333333335 0.3333333333333335 0.333333333333333 0.3333333333333335 0.3333333333333335 0.333333333333333 0.3333333333333335 0.3333333333333335 0.333333333333333 0.3333333333333335 0.3333333333333335 0.333333333333333 0.3333333333333335 0.3333333333333335 0.333333333333333 0.3333333333333335 0.3333333333333335 0.333333333333333 0.3333333333333335 0.3333333333333335 0.333333333333333 0.3333333333333335 0.3333333333333335 0.333333333333333 0.3333333333333335 0.3333333333333335 0.333333333333333 0.3333333333333335 0.3333333333333335 0.333333333333333 0.3509037037900372 0.3245481481049816 0.3245481481049812 0.3333333333333335 0.3333333333333335 0.333333333333333 0.3333333333333335 0.3333333333333335 0.333333333333333 0.3333333333333335 0.3333333333333335 0.333333333333333 0.3333333333333335 0.3333333333333335 0.333333333333333 0.3333333333333335 0.3333333333333335 0.333333333333333 0.3333333333333335 0.3333333333333335 0.333333333333333 0.3333333333333335 0.3333333333333335 0.333333333333333 0.3333333333333335 0.3333333333333335 0.333333333333333 0.3333333333333335 0.3333333333333335 0.333333333333333 0.3333333333333335 0.3333333333333335 0.333333333333333 0.3333333333333335 0.3333333333333335 0.333333333333333 0.3333333333333335 0.3333333333333335 0.333333333333333 0.3333333333333335 0.3333333333333335 0.333333333333333 0.3333333333333335 0.3333333333333335 0.333333333333333 0.3333333333333335 0.3333333333333335 0.333333333333333 0.3333333333333335 0.3333333333333335 0.333333333333333 0.3333333333333335 0.3333333333333335 0.333333333333333 0.3333333333333335 0.3333333333333335 0.333333333333333 0.3333333333333335 0.3333333333333335 0.333333333333333 0.3333333333333335 0.3333333333333335 0.333333333333333 0.3333333333333335 0.3333333333333335 0.333333333333333 0.3333333333333335 0.3333333333333335 0.333333333333333 0.3333333333333335 0.3333333333333335 0.333333333333333 0.3333333333333335 0.3333333333333335 0.333333333333333 0.3333333333333335 0.3333333333333335 0.333333333333333 0.3333333333333335 0.3333333333333335 0.333333333333333 0.3333409019694349 0.3333295490152827 0.3333295490152822 0.3333333333333335 0.3333333333333335 0.333333333333333 0.3333333333333335 0.3333333333333335 0.333333333333333 0.3333333333333335 0.3333333333333335 0.333333333333333 0.3333333333333335 0.3333333333333335 0.333333333333333 0.3333333333333335 0.3333333333333335 0.333333333333333 0.3333333333333335 0.3333333333333335 0.333333333333333 0.3333333333333335 0.3333333333333335 0.333333333333333 0.3333333333333335 0.3333333333333335 0.333333333333333 0.3333333333333335 0.3333333333333335 0.333333333333333 0.3333333333333335 0.3333333333333335 0.333333333333333 0.3333333333333335 0.3333333333333335 0.333333333333333 0.3333333333333335 0.3333333333333335 0.333333333333333 0.3333333333333335 0.3333333333333335 0.333333333333333 0.3333333333333335 0.3333333333333335 0.333333333333333 0.3333333333333335 0.3333333333333335 0.333333333333333 0.3333333333333335 0.3333333333333335 0.333333333333333 0.3333333333333335 0.3333333333333335 0.333333333333333 0.3333333333333335 0.3333333333333335 0.333333333333333 0.3333333333333335 0.3333333333333335 0.333333333333333 0.3333333333333335 0.3333333333333335 0.333333333333333 0.3333333333333335 0.3333333333333335 0.333333333333333 0.3333333333333335 0.3333333333333335 0.333333333333333 0.3333333333333335 0.3333333333333335 0.333333333333333 0.3333333333333335 0.3333333333333335 0.333333333333333 0.3333333333333335 0.3333333333333335 0.333333333333333 0.3333333333333335 0.3333333333333335 0.333333333333333 0.3333409019694349 0.3333295490152827 0.3333295490152822 0.3333333333333335 0.3333333333333335 0.333333333333333 0.3333333333333335 0.3333333333333335 0.333333333333333 0.3333333333333335 0.3333333333333335 0.333333333333333 0.3333333333333335 0.3333333333333335 0.333333333333333 0.3333333333333335 0.3333333333333335 0.333333333333333 0.3333333333333335 0.3333333333333335 0.333333333333333 0.3333333333333335 0.3333333333333335 0.333333333333333 0.3333333333333335 0.3333333333333335 0.333333333333333 0.3333333333333335 0.3333333333333335 0.333333333333333 0.3333333333333335 0.3333333333333335 0.333333333333333 0.3333333333333335 0.3333333333333335 0.333333333333333 0.3333333333333335 0.3333333333333335 0.333333333333333 0.3333333333333335 0.3333333333333335 0.333333333333333 0.3333333333333335 0.3333333333333335 0.333333333333333 0.3333333333333335 0.3333333333333335 0.333333333333333 0.3333333333333335 0.3333333333333335 0.333333333333333 0.3333333333333335 0.3333333333333335 0.333333333333333 0.3333333333333335 0.3333333333333335 0.333333333333333 0.3333333333333335 0.3333333333333335 0.333333333333333 0.3333333333333335 0.3333333333333335 0.333333333333333 0.3333333333333335 0.3333333333333335 0.333333333333333 0.3333333333333335 0.3333333333333335 0.333333333333333 0.3333333333333335 0.3333333333333335 0.333333333333333 0.3333333333333335 0.3333333333333335 0.333333333333333 0.3333333333333335 0.3333333333333335 0.333333333333333 0.3333333333333335 0.3333333333333335 0.333333333333333 0.3333409019694349 0.3333295490152827 0.3333295490152822 0.3333333333333335 0.3333333333333335 0.333333333333333 0.3333333333333335 0.3333333333333335 0.333333333333333 0.3333333333333335 0.3333333333333335 0.333333333333333 0.3333333333333335 0.3333333333333335 0.333333333333333 0.3333333333333335 0.3333333333333335 0.333333333333333 0.3333333333333335 0.3333333333333335 0.333333333333333 0.3333333333333335 0.3333333333333335 0.333333333333333 0.3333333333333335 0.3333333333333335 0.333333333333333 0.3333333333333335 0.3333333333333335 0.333333333333333 0.3333333333333335 0.3333333333333335 0.333333333333333 0.3333333333333335 0.3333333333333335 0.333333333333333 0.3333333333333335 0.3333333333333335 0.333333333333333 0.3333333333333335 0.3333333333333335 0.333333333333333 0.3333333333333335 0.3333333333333335 0.333333333333333 0.3333333333333335 0.3333333333333335 0.333333333333333 0.3333333333333335 0.3333333333333335 0.333333333333333 0.3333333333333335 0.3333333333333335 0.333333333333333 0.3333333333333335 0.3333333333333335 0.333333333333333 0.3333333333333335 0.3333333333333335 0.333333333333333 0.3333333333333335 0.3333333333333335 0.333333333333333 0.3333333333333335 0.3333333333333335 0.333333333333333 0.3333333333333335 0.3333333333333335 0.333333333333333 0.3333333333333335 0.3333333333333335 0.333333333333333 0.3333333333333335 0.3333333333333335 0.333333333333333 0.3333333333333335 0.3333333333333335 0.333333333333333 0.3333333333333335 0.3333333333333335 0.333333333333333 0.6525126633091097 0.1737436683454452 0.173743668345445 0.3333333333333335 0.3333333333333335 0.333333333333333 0.3333333333333335 0.3333333333333335 0.333333333333333 0.3333333333333335 0.3333333333333335 0.333333333333333 0.3333333333333335 0.3333333333333335 0.333333333333333 0.3333333333333335 0.3333333333333335 0.333333333333333 0.3333333333333335 0.3333333333333335 0.333333333333333 0.3333333333333335 0.3333333333333335 0.333333333333333 0.3333333333333335 0.3333333333333335 0.333333333333333 0.3333333333333335 0.3333333333333335 0.333333333333333 0.3333333333333335 0.3333333333333335 0.333333333333333 0.3333333333333335 0.3333333333333335 0.333333333333333 0.3333333333333335 0.3333333333333335 0.333333333333333 0.3333333333333335 0.3333333333333335 0.333333333333333 0.3333333333333335 0.3333333333333335 0.333333333333333 0.3333333333333335 0.3333333333333335 0.333333333333333 0.3333333333333335 0.3333333333333335 0.333333333333333 0.3333333333333335 0.3333333333333335 0.333333333333333 0.3333333333333335 0.3333333333333335 0.333333333333333 0.3333333333333335 0.3333333333333335 0.333333333333333 0.3333333333333335 0.3333333333333335 0.333333333333333 0.3333333333333335 0.3333333333333335 0.333333333333333 0.3333333333333335 0.3333333333333335 0.333333333333333 0.3333333333333335 0.3333333333333335 0.333333333333333 0.3333333333333335 0.3333333333333335 0.333333333333333 0.3333333333333335 0.3333333333333335 0.333333333333333 0.3333333333333335 0.3333333333333335 0.333333333333333 0.3333652509271133 0.3333173745364436 0.3333173745364431 0.3333333333333335 0.3333333333333335 0.333333333333333 0.3333333333333335 0.3333333333333335 0.333333333333333 0.3333333333333335 0.3333333333333335 0.333333333333333 0.3333333333333335 0.3333333333333335 0.333333333333333 0.3333333333333335 0.3333333333333335 0.333333333333333 0.3333333333333335 0.3333333333333335 0.333333333333333 0.3333333333333335 0.3333333333333335 0.333333333333333 0.3333333333333335 0.3333333333333335 0.333333333333333 0.3333333333333335 0.3333333333333335 0.333333333333333 0.3333333333333335 0.3333333333333335 0.333333333333333 0.3333333333333335 0.3333333333333335 0.333333333333333 0.3333333333333335 0.3333333333333335 0.333333333333333 0.3333333333333335 0.3333333333333335 0.333333333333333 0.3333333333333335 0.3333333333333335 0.333333333333333 0.3333333333333335 0.3333333333333335 0.333333333333333 0.3333333333333335 0.3333333333333335 0.333333333333333 0.3333333333333335 0.3333333333333335 0.333333333333333 0.3333333333333335 0.3333333333333335 0.333333333333333 0.3333333333333335 0.3333333333333335 0.333333333333333 0.3333333333333335 0.3333333333333335 0.333333333333333 0.3333333333333335 0.3333333333333335 0.333333333333333 0.3333333333333335 0.3333333333333335 0.333333333333333 0.3333333333333335 0.3333333333333335 0.333333333333333 0.3333333333333335 0.3333333333333335 0.333333333333333 0.3333333333333335 0.3333333333333335 0.333333333333333 0.3333333333333335 0.3333333333333335 0.333333333333333 0.3333652509271133 0.3333173745364436 0.3333173745364431 0.3333333333333335 0.3333333333333335 0.333333333333333 0.3333333333333335 0.3333333333333335 0.333333333333333 0.3333333333333335 0.3333333333333335 0.333333333333333 0.3333333333333335 0.3333333333333335 0.333333333333333 0.3333333333333335 0.3333333333333335 0.333333333333333 0.3333333333333335 0.3333333333333335 0.333333333333333 0.3333333333333335 0.3333333333333335 0.333333333333333 0.3333333333333335 0.3333333333333335 0.333333333333333 0.3333333333333335 0.3333333333333335 0.333333333333333 0.3333333333333335 0.3333333333333335 0.333333333333333 0.3333333333333335 0.3333333333333335 0.333333333333333 0.3333333333333335 0.3333333333333335 0.333333333333333 0.3333333333333335 0.3333333333333335 0.333333333333333 0.3333333333333335 0.3333333333333335 0.333333333333333 0.3333333333333335 0.3333333333333335 0.333333333333333 0.3333333333333335 0.3333333333333335 0.333333333333333 0.3333333333333335 0.3333333333333335 0.333333333333333 0.3333333333333335 0.3333333333333335 0.333333333333333 0.3333333333333335 0.3333333333333335 0.333333333333333 0.3333333333333335 0.3333333333333335 0.333333333333333 0.3333333333333335 0.3333333333333335 0.333333333333333 0.3333333333333335 0.3333333333333335 0.333333333333333 0.3333333333333335 0.3333333333333335 0.333333333333333 0.3333333333333335 0.3333333333333335 0.333333333333333 0.3333333333333335 0.3333333333333335 0.333333333333333 0.3333333333333335 0.3333333333333335 0.333333333333333 0.3333652509271133 0.3333173745364436 0.3333173745364431 0.3333333333333335 0.3333333333333335 0.333333333333333 0.3333333333333335 0.3333333333333335 0.333333333333333 0.3333333333333335 0.3333333333333335 0.333333333333333 0.3333333333333335 0.3333333333333335 0.333333333333333 0.3333333333333335 0.3333333333333335 0.333333333333333 0.3333333333333335 0.3333333333333335 0.333333333333333 0.3333333333333335 0.3333333333333335 0.333333333333333 0.3333333333333335 0.3333333333333335 0.333333333333333 0.3333333333333335 0.3333333333333335 0.333333333333333 0.3333333333333335 0.3333333333333335 0.333333333333333 0.3333333333333335 0.3333333333333335 0.333333333333333 0.3333333333333335 0.3333333333333335 0.333333333333333 0.3333333333333335 0.3333333333333335 0.333333333333333 0.3333333333333335 0.3333333333333335 0.333333333333333 0.3333333333333335 0.3333333333333335 0.333333333333333 0.3333333333333335 0.3333333333333335 0.333333333333333 0.3333333333333335 0.3333333333333335 0.333333333333333 0.3333333333333335 0.3333333333333335 0.333333333333333 0.3333333333333335 0.3333333333333335 0.333333333333333 0.3333333333333335 0.3333333333333335 0.333333333333333 0.3333333333333335 0.3333333333333335 0.333333333333333 0.3333333333333335 0.3333333333333335 0.333333333333333 0.3333333333333335 0.3333333333333335 0.333333333333333 0.3333333333333335 0.3333333333333335 0.333333333333333 0.3333333333333335 0.3333333333333335 0.333333333333333 0.3333333333333335 0.3333333333333335 0.333333333333333</probabilities>
		</cpt>
		<cpt id="faceDirection" dynamic="plate">
			<state id="None_HAE_Face" />
			<state id="Far_Center_Face" />
			<state id="Center_Face" />
			<parents>attentionLevel</parents>
			<probabilities>0.8333333333333334 0.08333333333333333 0.08333333333333336 0.3333333333333333 0.3333333333333333 0.3333333333333334 0.3333333333333333 0.3333333333333333 0.3333333333333334</probabilities>
		</cpt>
		<cpt id="bodyDirection" dynamic="plate">
			<state id="None_HAE_Body" />
			<state id="Far_Center_Body" />
			<state id="Near_Center_Body" />
			<state id="Center_Body" />
			<parents>attentionLevel</parents>
			<probabilities>0.8125 0.0625 0.06250000000000003 0.06249999999999997 0.25 0.25 0.2500000000000001 0.2499999999999999 0.25 0.25 0.2500000000000001 0.2499999999999999</probabilities>
		</cpt>
		<cpt id="audioInput" dynamic="plate">
			<state id="None" />
			<state id="Low" />
			<state id="Medium" />
			<state id="High" />
			<parents>attentionLevel audioNoise</parents>
			<probabilities>0.8124654254120117 0.06251152486266275 0.06251152486266275 0.06251152486266275 0.2501843184974433 0.2499385605008522 0.2499385605008522 0.2499385605008522 0.2501843184974433 0.2499385605008522 0.2499385605008522 0.2499385605008522 0.2501843184974433 0.2499385605008522 0.2499385605008522 0.2499385605008522 0.25 0.25 0.25 0.25 0.25 0.25 0.25 0.25 0.25 0.25 0.25 0.25 0.25 0.25 0.25 0.25 0.25 0.25 0.25 0.25 0.25 0.25 0.25 0.25 0.25 0.25 0.25 0.25 0.25 0.25 0.25 0.25</probabilities>
		</cpt>
	</nodes>
	<dynamic numslices="3">
		<cpt id="robotMotionSpeed" order="1">
			<parents>robotMotionSpeed</parents>
			<probabilities>0.7777777777777777 0.1111111111111111 0.1111111111111111 0.3333333333333333 0.3333333333333333 0.3333333333333334 0.3333333333333333 0.3333333333333333 0.3333333333333334</probabilities>
		</cpt>
		<cpt id="robotPose" order="1">
			<parents>robotPose</parents>
			<probabilities>0.7777777777777777 0.1111111111111111 0.1111111111111111 0.3333333333333333 0.3333333333333333 0.3333333333333334 0.3333333333333333 0.3333333333333333 0.3333333333333334</probabilities>
		</cpt>
		<cpt id="robotSoundVolume" order="1">
			<parents>robotSoundVolume</parents>
			<probabilities>0.7777413542667416 0.1111293228666291 0.1111293228666292 0.3333333333333333 0.3333333333333333 0.3333333333333334 0.3333333333333333 0.3333333333333333 0.3333333333333334 0.3334425680580317 0.333278715970984 0.3332787159709841 0.3333333333333333 0.3333333333333333 0.3333333333333334 0.3333333333333333 0.3333333333333333 0.3333333333333334 0.3334425680580317 0.333278715970984 0.3332787159709841 0.3333333333333333 0.3333333333333333 0.3333333333333334 0.3333333333333333 0.3333333333333333 0.3333333333333334 0.3334425680580317 0.333278715970984 0.3332787159709841 0.3333333333333333 0.3333333333333333 0.3333333333333334 0.3333333333333333 0.3333333333333333 0.3333333333333334</probabilities>
		</cpt>
		<cpt id="attentionLevel" order="1">
			<parents>attentionLevel</parents>
			<probabilities>0.3675703474863608 0.3162148262568199 0.3162148262568194 0.3333333333333335 0.3333333333333335 0.333333333333333 0.3333333333333335 0.3333333333333335 0.333333333333333 0.3333333333333335 0.3333333333333335 0.333333333333333 0.3333333333333335 0.3333333333333335 0.333333333333333 0.3333333333333335 0.3333333333333335 0.333333333333333 0.3333333333333335 0.3333333333333335 0.333333333333333 0.3333333333333335 0.3333333333333335 0.333333333333333 0.3333333333333335 0.3333333333333335 0.333333333333333 0.3333333333333335 0.3333333333333335 0.333333333333333 0.3333333333333335 0.3333333333333335 0.333333333333333 0.3333333333333335 0.3333333333333335 0.333333333333333 0.3333333333333335 0.3333333333333335 0.333333333333333 0.3333333333333335 0.3333333333333335 0.333333333333333 0.3333333333333335 0.3333333333333335 0.333333333333333 0.3333333333333335 0.3333333333333335 0.333333333333333 0.3333333333333335 0.3333333333333335 0.333333333333333 0.3333333333333335 0.3333333333333335 0.333333333333333 0.3333333333333335 0.3333333333333335 0.333333333333333 0.3333333333333335 0.3333333333333335 0.333333333333333 0.3333333333333335 0.3333333333333335 0.333333333333333 0.3333333333333335 0.3333333333333335 0.333333333333333 0.3333333333333335 0.3333333333333335 0.333333333333333 0.3333333333333335 0.3333333333333335 0.333333333333333 0.3333333333333335 0.3333333333333335 0.333333333333333 0.3333333333333335 0.3333333333333335 0.333333333333333 0.3333333333333335 0.3333333333333335 0.333333333333333 0.3333333333333335 0.3333333333333335 0.333333333333333 0.3333333333333335 0.3333333333333335 0.333333333333333 0.3333333333333335 0.3333333333333335 0.333333333333333 0.3333333333333335 0.3333333333333335 0.333333333333333 0.3333333333333335 0.3333333333333335 0.333333333333333 0.3333333333333335 0.3333333333333335 0.333333333333333 0.3333333333333335 0.3333333333333335 0.333333333333333 0.3333333333333335 0.3333333333333335 0.333333333333333 0.3333333333333335 0.3333333333333335 0.333333333333333 0.3333333333333335 0.3333333333333335 0.333333333333333 0.3333333333333335 0.3333333333333335 0.333333333333333 0.3333333333333335 0.3333333333333335 0.333333333333333 0.3333333333333335 0.3333333333333335 0.333333333333333 0.3333333333333335 0.3333333333333335 0.333333333333333 0.3333333333333335 0.3333333333333335 0.333333333333333 0.3333333333333335 0.3333333333333335 0.333333333333333 0.3333333333333335 0.3333333333333335 0.333333333333333 0.3333333333333335 0.3333333333333335 0.333333333333333 0.3333333333333335 0.3333333333333335 0.333333333333333 0.3333333333333335 0.3333333333333335 0.333333333333333 0.3333333333333335 0.3333333333333335 0.333333333333333 0.3333333333333335 0.3333333333333335 0.333333333333333 0.3333333333333335 0.3333333333333335 0.333333333333333 0.3333333333333335 0.3333333333333335 0.333333333333333 0.3333333333333335 0.3333333333333335 0.333333333333333 0.3333333333333335 0.3333333333333335 0.333333333333333 0.3333333333333335 0.3333333333333335 0.333333333333333 0.3333333333333335 0.3333333333333335 0.333333333333333 0.3333333333333335 0.3333333333333335 0.333333333333333 0.3333333333333335 0.3333333333333335 0.333333333333333 0.3333333333333335 0.3333333333333335 0.333333333333333 0.3333333333333335 0.3333333333333335 0.333333333333333 0.3333333333333335 0.3333333333333335 0.333333333333333 0.3333333333333335 0.3333333333333335 0.333333333333333 0.3333333333333335 0.3333333333333335 0.333333333333333 0.3333333333333335 0.3333333333333335 0.333333333333333 0.3333333333333335 0.3333333333333335 0.333333333333333 0.3333333333333335 0.3333333333333335 0.333333333333333 0.3333333333333335 0.3333333333333335 0.333333333333333 0.3333333333333335 0.3333333333333335 0.333333333333333 0.3333333333333335 0.3333333333333335 0.333333333333333 0.3333333333333335 0.3333333333333335 0.333333333333333 0.3333333333333335 0.3333333333333335 0.333333333333333 0.3333333333333335 0.3333333333333335 0.333333333333333 0.3333333333333335 0.3333333333333335 0.333333333333333 0.3333333333333335 0.3333333333333335 0.333333333333333 0.3333333333333335 0.3333333333333335 0.333333333333333 0.3333333333333335 0.3333333333333335 0.333333333333333 0.3333333333333335 0.3333333333333335 0.333333333333333 0.3333333333333335 0.3333333333333335 0.333333333333333 0.3333333333333335 0.3333333333333335 0.333333333333333 0.3333333333333335 0.3333333333333335 0.333333333333333 0.3333333333333335 0.3333333333333335 0.333333333333333 0.3333333333333335 0.3333333333333335 0.333333333333333 0.3333484702425906 0.333325764878705 0.3333257648787045 0.3333333333333335 0.3333333333333335 0.333333333333333 0.3333333333333335 0.3333333333333335 0.333333333333333 0.3333333333333335 0.3333333333333335 0.333333333333333 0.3333333333333335 0.3333333333333335 0.333333333333333 0.3333333333333335 0.3333333333333335 0.333333333333333 0.3333333333333335 0.3333333333333335 0.333333333333333 0.3333333333333335 0.3333333333333335 0.333333333333333 0.3333333333333335 0.3333333333333335 0.333333333333333 0.3333333333333335 0.3333333333333335 0.333333333333333 0.3333333333333335 0.3333333333333335 0.333333333333333 0.3333333333333335 0.3333333333333335 0.333333333333333 0.3333333333333335 0.3333333333333335 0.333333333333333 0.3333333333333335 0.3333333333333335 0.333333333333333 0.3333333333333335 0.3333333333333335 0.333333333333333 0.3333333333333335 0.3333333333333335 0.333333333333333 0.3333333333333335 0.3333333333333335 0.333333333333333 0.3333333333333335 0.3333333333333335 0.333333333333333 0.3333333333333335 0.3333333333333335 0.333333333333333 0.3333333333333335 0.3333333333333335 0.333333333333333 0.3333333333333335 0.3333333333333335 0.333333333333333 0.3333333333333335 0.3333333333333335 0.333333333333333 0.3333333333333335 0.3333333333333335 0.333333333333333 0.3333333333333335 0.3333333333333335 0.333333333333333 0.3333333333333335 0.3333333333333335 0.333333333333333 0.3333333333333335 0.3333333333333335 0.333333333333333 0.3333333333333335 0.3333333333333335 0.333333333333333 0.3333333333333335 0.3333333333333335 0.333333333333333 0.3333333333333335 0.3333333333333335 0.333333333333333 0.3333333333333335 0.3333333333333335 0.333333333333333 0.3333333333333335 0.3333333333333335 0.333333333333333 0.3333333333333335 0.3333333333333335 0.333333333333333 0.3333333333333335 0.3333333333333335 0.333333333333333 0.3333333333333335 0.3333333333333335 0.333333333333333 0.3333333333333335 0.3333333333333335 0.333333333333333 0.3333333333333335 0.3333333333333335 0.333333333333333 0.3333333333333335 0.3333333333333335 0.333333333333333 0.3333333333333335 0.3333333333333335 0.333333333333333 0.3333333333333335 0.3333333333333335 0.333333333333333 0.3333333333333335 0.3333333333333335 0.333333333333333 0.3333333333333335 0.3333333333333335 0.333333333333333 0.3333333333333335 0.3333333333333335 0.333333333333333 0.3333333333333335 0.3333333333333335 0.333333333333333 0.3333333333333335 0.3333333333333335 0.333333333333333 0.3333333333333335 0.3333333333333335 0.333333333333333 0.3333333333333335 0.3333333333333335 0.333333333333333 0.3333333333333335 0.3333333333333335 0.333333333333333 0.3333333333333335 0.3333333333333335 0.333333333333333 0.3333333333333335 0.3333333333333335 0.333333333333333 0.3333333333333335 0.3333333333333335 0.333333333333333 0.3333333333333335 0.3333333333333335 0.333333333333333 0.3333333333333335 0.3333333333333335 0.333333333333333 0.3333333333333335 0.3333333333333335 0.333333333333333 0.3333333333333335 0.3333333333333335 0.333333333333333 0.3333333333333335 0.3333333333333335 0.333333333333333 0.3333333333333335 0.3333333333333335 0.333333333333333 0.3333333333333335 0.3333333333333335 0.333333333333333 0.3333333333333335 0.3333333333333335 0.333333333333333 0.3333333333333335 0.3333333333333335 0.333333333333333 0.3333333333333335 0.3333333333333335 0.333333333333333 0.3333333333333335 0.3333333333333335 0.333333333333333 0.3333333333333335 0.3333333333333335 0.333333333333333 0.3333333333333335 0.3333333333333335 0.333333333333333 0.3333333333333335 0.3333333333333335 0.333333333333333 0.3333333333333335 0.3333333333333335 0.333333333333333 0.3333333333333335 0.3333333333333335 0.333333333333333 0.3333333333333335 0.3333333333333335 0.333333333333333 0.3333333333333335 0.3333333333333335 0.333333333333333 0.3333333333333335 0.3333333333333335 0.333333333333333 0.3333333333333335 0.3333333333333335 0.333333333333333 0.3333333333333335 0.3333333333333335 0.333333333333333 0.3333333333333335 0.3333333333333335 0.333333333333333 0.3333333333333335 0.3333333333333335 0.333333333333333 0.3333333333333335 0.3333333333333335 0.333333333333333 0.3333333333333335 0.3333333333333335 0.333333333333333 0.3333333333333335 0.3333333333333335 0.333333333333333 0.3333333333333335 0.3333333333333335 0.333333333333333 0.3333333333333335 0.3333333333333335 0.333333333333333 0.3333333333333335 0.3333333333333335 0.333333333333333 0.3333333333333335 0.3333333333333335 0.333333333333333 0.3333333333333335 0.3333333333333335 0.333333333333333 0.3333484702425906 0.333325764878705 0.3333257648787045 0.3333333333333335 0.3333333333333335 0.333333333333333 0.3333333333333335 0.3333333333333335 0.333333333333333 0.3333333333333335 0.3333333333333335 0.333333333333333 0.3333333333333335 0.3333333333333335 0.333333333333333 0.3333333333333335 0.3333333333333335 0.333333333333333 0.3333333333333335 0.3333333333333335 0.333333333333333 0.3333333333333335 0.3333333333333335 0.333333333333333 0.3333333333333335 0.3333333333333335 0.333333333333333 0.3333333333333335 0.3333333333333335 0.333333333333333 0.3333333333333335 0.3333333333333335 0.333333333333333 0.3333333333333335 0.3333333333333335 0.333333333333333 0.3333333333333335 0.3333333333333335 0.333333333333333 0.3333333333333335 0.3333333333333335 0.333333333333333 0.3333333333333335 0.3333333333333335 0.333333333333333 0.3333333333333335 0.3333333333333335 0.333333333333333 0.3333333333333335 0.3333333333333335 0.333333333333333 0.3333333333333335 0.3333333333333335 0.333333333333333 0.3333333333333335 0.3333333333333335 0.333333333333333 0.3333333333333335 0.3333333333333335 0.333333333333333 0.3333333333333335 0.3333333333333335 0.333333333333333 0.3333333333333335 0.3333333333333335 0.333333333333333 0.3333333333333335 0.3333333333333335 0.333333333333333 0.3333333333333335 0.3333333333333335 0.333333333333333 0.3333333333333335 0.3333333333333335 0.333333333333333 0.3333333333333335 0.3333333333333335 0.333333333333333 0.3333333333333335 0.3333333333333335 0.333333333333333 0.3333333333333335 0.3333333333333335 0.333333333333333 0.3333333333333335 0.3333333333333335 0.333333333333333 0.3333333333333335 0.3333333333333335 0.333333333333333 0.3333333333333335 0.3333333333333335 0.333333333333333 0.3333333333333335 0.3333333333333335 0.333333333333333 0.3333333333333335 0.3333333333333335 0.333333333333333 0.3333333333333335 0.3333333333333335 0.333333333333333 0.3333333333333335 0.3333333333333335 0.333333333333333 0.3333333333333335 0.3333333333333335 0.333333333333333 0.3333333333333335 0.3333333333333335 0.333333333333333 0.3333333333333335 0.3333333333333335 0.333333333333333 0.3333333333333335 0.3333333333333335 0.333333333333333 0.3333333333333335 0.3333333333333335 0.333333333333333 0.3333333333333335 0.3333333333333335 0.333333333333333 0.3333333333333335 0.3333333333333335 0.333333333333333 0.3333333333333335 0.3333333333333335 0.333333333333333 0.3333333333333335 0.3333333333333335 0.333333333333333 0.3333333333333335 0.3333333333333335 0.333333333333333 0.3333333333333335 0.3333333333333335 0.333333333333333 0.3333333333333335 0.3333333333333335 0.333333333333333 0.3333333333333335 0.3333333333333335 0.333333333333333 0.3333333333333335 0.3333333333333335 0.333333333333333 0.3333333333333335 0.3333333333333335 0.333333333333333 0.3333333333333335 0.3333333333333335 0.333333333333333 0.3333333333333335 0.3333333333333335 0.333333333333333 0.3333333333333335 0.3333333333333335 0.333333333333333 0.3333333333333335 0.3333333333333335 0.333333333333333 0.3333333333333335 0.3333333333333335 0.333333333333333 0.3333333333333335 0.3333333333333335 0.333333333333333 0.3333333333333335 0.3333333333333335 0.333333333333333 0.3333333333333335 0.3333333333333335 0.333333333333333 0.3333333333333335 0.3333333333333335 0.333333333333333 0.3333333333333335 0.3333333333333335 0.333333333333333 0.3333333333333335 0.3333333333333335 0.333333333333333 0.3333333333333335 0.3333333333333335 0.333333333333333 0.3333333333333335 0.3333333333333335 0.333333333333333 0.3333333333333335 0.3333333333333335 0.333333333333333 0.3333333333333335 0.3333333333333335 0.333333333333333 0.3333333333333335 0.3333333333333335 0.333333333333333 0.3333333333333335 0.3333333333333335 0.333333333333333 0.3333333333333335 0.3333333333333335 0.333333333333333 0.3333333333333335 0.3333333333333335 0.333333333333333 0.3333333333333335 0.3333333333333335 0.333333333333333 0.3333333333333335 0.3333333333333335 0.333333333333333 0.3333333333333335 0.3333333333333335 0.333333333333333 0.3333333333333335 0.3333333333333335 0.333333333333333 0.3333333333333335 0.3333333333333335 0.333333333333333 0.3333333333333335 0.3333333333333335 0.333333333333333 0.3333333333333335 0.3333333333333335 0.333333333333333 0.3333333333333335 0.3333333333333335 0.333333333333333 0.3333333333333335 0.3333333333333335 0.333333333333333 0.3333333333333335 0.3333333333333335 0.333333333333333 0.3333333333333335 0.3333333333333335 0.333333333333333 0.3333333333333335 0.3333333333333335 0.333333333333333 0.3333484702425906 0.333325764878705 0.3333257648787045 0.3333333333333335 0.3333333333333335 0.333333333333333 0.3333333333333335 0.3333333333333335 0.333333333333333 0.3333333333333335 0.3333333333333335 0.333333333333333 0.3333333333333335 0.3333333333333335 0.333333333333333 0.3333333333333335 0.3333333333333335 0.333333333333333 0.3333333333333335 0.3333333333333335 0.333333333333333 0.3333333333333335 0.3333333333333335 0.333333333333333 0.3333333333333335 0.3333333333333335 0.333333333333333 0.3333333333333335 0.3333333333333335 0.333333333333333 0.3333333333333335 0.3333333333333335 0.333333333333333 0.3333333333333335 0.3333333333333335 0.333333333333333 0.3333333333333335 0.3333333333333335 0.333333333333333 0.3333333333333335 0.3333333333333335 0.333333333333333 0.3333333333333335 0.3333333333333335 0.333333333333333 0.3333333333333335 0.3333333333333335 0.333333333333333 0.3333333333333335 0.3333333333333335 0.333333333333333 0.3333333333333335 0.3333333333333335 0.333333333333333 0.3333333333333335 0.3333333333333335 0.333333333333333 0.3333333333333335 0.3333333333333335 0.333333333333333 0.3333333333333335 0.3333333333333335 0.333333333333333 0.3333333333333335 0.3333333333333335 0.333333333333333 0.3333333333333335 0.3333333333333335 0.333333333333333 0.3333333333333335 0.3333333333333335 0.333333333333333 0.3333333333333335 0.3333333333333335 0.333333333333333 0.3333333333333335 0.3333333333333335 0.333333333333333 0.3333333333333335 0.3333333333333335 0.333333333333333 0.3333333333333335 0.3333333333333335 0.333333333333333 0.3333333333333335 0.3333333333333335 0.333333333333333 0.3333333333333335 0.3333333333333335 0.333333333333333 0.3333333333333335 0.3333333333333335 0.333333333333333 0.3333333333333335 0.3333333333333335 0.333333333333333 0.3333333333333335 0.3333333333333335 0.333333333333333 0.3333333333333335 0.3333333333333335 0.333333333333333 0.3333333333333335 0.3333333333333335 0.333333333333333 0.3333333333333335 0.3333333333333335 0.333333333333333 0.3333333333333335 0.3333333333333335 0.333333333333333 0.3333333333333335 0.3333333333333335 0.333333333333333 0.3333333333333335 0.3333333333333335 0.333333333333333 0.3333333333333335 0.3333333333333335 0.333333333333333 0.3333333333333335 0.3333333333333335 0.333333333333333 0.3333333333333335 0.3333333333333335 0.333333333333333 0.3333333333333335 0.3333333333333335 0.333333333333333 0.3333333333333335 0.3333333333333335 0.333333333333333 0.3333333333333335 0.3333333333333335 0.333333333333333 0.3333333333333335 0.3333333333333335 0.333333333333333 0.3333333333333335 0.3333333333333335 0.333333333333333 0.3333333333333335 0.3333333333333335 0.333333333333333 0.3333333333333335 0.3333333333333335 0.333333333333333 0.3333333333333335 0.3333333333333335 0.333333333333333 0.3333333333333335 0.3333333333333335 0.333333333333333 0.3333333333333335 0.3333333333333335 0.333333333333333 0.3333333333333335 0.3333333333333335 0.333333333333333 0.3333333333333335 0.3333333333333335 0.333333333333333 0.3333333333333335 0.3333333333333335 0.333333333333333 0.3333333333333335 0.3333333333333335 0.333333333333333 0.3333333333333335 0.3333333333333335 0.333333333333333 0.3333333333333335 0.3333333333333335 0.333333333333333 0.3333333333333335 0.3333333333333335 0.333333333333333 0.3333333333333335 0.3333333333333335 0.333333333333333 0.3333333333333335 0.3333333333333335 0.333333333333333 0.3333333333333335 0.3333333333333335 0.333333333333333 0.3333333333333335 0.3333333333333335 0.333333333333333 0.3333333333333335 0.3333333333333335 0.333333333333333 0.3333333333333335 0.3333333333333335 0.333333333333333 0.3333333333333335 0.3333333333333335 0.333333333333333 0.3333333333333335 0.3333333333333335 0.333333333333333 0.3333333333333335 0.3333333333333335 0.333333333333333 0.3333333333333335 0.3333333333333335 0.333333333333333 0.3333333333333335 0.3333333333333335 0.333333333333333 0.3333333333333335 0.3333333333333335 0.333333333333333 0.3333333333333335 0.3333333333333335 0.333333333333333 0.3333333333333335 0.3333333333333335 0.333333333333333 0.3333333333333335 0.3333333333333335 0.333333333333333 0.3333333333333335 0.3333333333333335 0.333333333333333 0.3333333333333335 0.3333333333333335 0.333333333333333 0.3333333333333335 0.3333333333333335 0.333333333333333 0.3333333333333335 0.3333333333333335 0.333333333333333 0.3333333333333335 0.3333333333333335 0.333333333333333 0.3333333333333335 0.3333333333333335 0.333333333333333 0.3333333333333335 0.3333333333333335 0.333333333333333 0.3675876002627584 0.316206199868621 0.3162061998686205 0.3333333333333335 0.3333333333333335 0.333333333333333 0.3333333333333335 0.3333333333333335 0.333333333333333 0.3333333333333335 0.3333333333333335 0.333333333333333 0.3333333333333335 0.3333333333333335 0.333333333333333 0.3333333333333335 0.3333333333333335 0.333333333333333 0.3333333333333335 0.3333333333333335 0.333333333333333 0.3333333333333335 0.3333333333333335 0.333333333333333 0.3333333333333335 0.3333333333333335 0.333333333333333 0.3333333333333335 0.3333333333333335 0.333333333333333 0.3333333333333335 0.3333333333333335 0.333333333333333 0.3333333333333335 0.3333333333333335 0.333333333333333 0.3333333333333335 0.3333333333333335 0.333333333333333 0.3333333333333335 0.3333333333333335 0.333333333333333 0.3333333333333335 0.3333333333333335 0.333333333333333 0.3333333333333335 0.3333333333333335 0.333333333333333 0.3333333333333335 0.3333333333333335 0.333333333333333 0.3333333333333335 0.3333333333333335 0.333333333333333 0.3333333333333335 0.3333333333333335 0.333333333333333 0.3333333333333335 0.3333333333333335 0.333333333333333 0.3333333333333335 0.3333333333333335 0.333333333333333 0.3333333333333335 0.3333333333333335 0.333333333333333 0.3333333333333335 0.3333333333333335 0.333333333333333 0.3333333333333335 0.3333333333333335 0.333333333333333 0.3333333333333335 0.3333333333333335 0.333333333333333 0.3333333333333335 0.3333333333333335 0.333333333333333 0.3333333333333335 0.3333333333333335 0.333333333333333 0.3333333333333335 0.3333333333333335 0.333333333333333 0.3333333333333335 0.3333333333333335 0.333333333333333 0.3333333333333335 0.3333333333333335 0.333333333333333 0.3333333333333335 0.3333333333333335 0.333333333333333 0.3333333333333335 0.3333333333333335 0.333333333333333 0.3333333333333335 0.3333333333333335 0.333333333333333 0.3333333333333335 0.3333333333333335 0.333333333333333 0.3333333333333335 0.3333333333333335 0.333333333333333 0.3333333333333335 0.3333333333333335 0.333333333333333 0.3333333333333335 0.3333333333333335 0.333333333333333 0.3333333333333335 0.3333333333333335 0.333333333333333 0.3333333333333335 0.3333333333333335 0.333333333333333 0.3333333333333335 0.3333333333333335 0.333333333333333 0.3333333333333335 0.3333333333333335 0.333333333333333 0.3333333333333335 0.3333333333333335 0.333333333333333 0.3333333333333335 0.3333333333333335 0.333333333333333 0.3333333333333335 0.3333333333333335 0.333333333333333 0.3333333333333335 0.3333333333333335 0.333333333333333 0.3333333333333335 0.3333333333333335 0.333333333333333 0.3333333333333335 0.3333333333333335 0.333333333333333 0.3333333333333335 0.3333333333333335 0.333333333333333 0.3333333333333335 0.3333333333333335 0.333333333333333 0.3333333333333335 0.3333333333333335 0.333333333333333 0.3333333333333335 0.3333333333333335 0.333333333333333 0.3333333333333335 0.3333333333333335 0.333333333333333 0.3333333333333335 0.3333333333333335 0.333333333333333 0.3333333333333335 0.3333333333333335 0.333333333333333 0.3333333333333335 0.3333333333333335 0.333333333333333 0.3333333333333335 0.3333333333333335 0.333333333333333 0.3333333333333335 0.3333333333333335 0.333333333333333 0.3333333333333335 0.3333333333333335 0.333333333333333 0.3333333333333335 0.3333333333333335 0.333333333333333 0.3333333333333335 0.3333333333333335 0.333333333333333 0.3333333333333335 0.3333333333333335 0.333333333333333 0.3333333333333335 0.3333333333333335 0.333333333333333 0.3333333333333335 0.3333333333333335 0.333333333333333 0.3333333333333335 0.3333333333333335 0.333333333333333 0.3333333333333335 0.3333333333333335 0.333333333333333 0.3333333333333335 0.3333333333333335 0.333333333333333 0.3333333333333335 0.3333333333333335 0.333333333333333 0.3333333333333335 0.3333333333333335 0.333333333333333 0.3333333333333335 0.3333333333333335 0.333333333333333 0.3333333333333335 0.3333333333333335 0.333333333333333 0.3333333333333335 0.3333333333333335 0.333333333333333 0.3333333333333335 0.3333333333333335 0.333333333333333 0.3333333333333335 0.3333333333333335 0.333333333333333 0.3333333333333335 0.3333333333333335 0.333333333333333 0.3333333333333335 0.3333333333333335 0.333333333333333 0.3333333333333335 0.3333333333333335 0.333333333333333 0.3333333333333335 0.3333333333333335 0.333333333333333 0.3333333333333335 0.3333333333333335 0.333333333333333 0.3333333333333335 0.3333333333333335 0.333333333333333 0.3333333333333335 0.3333333333333335 0.333333333333333 0.3333333333333335 0.3333333333333335 0.333333333333333 0.3333484726745795 0.3333257636627104 0.3333257636627099 0.3333333333333335 0.3333333333333335 0.333333333333333 0.3333333333333335 0.3333333333333335 0.333333333333333 0.3333333333333335 0.3333333333333335 0.333333333333333 0.3333333333333335 0.3333333333333335 0.333333333333333 0.3333333333333335 0.3333333333333335 0.333333333333333 0.3333333333333335 0.3333333333333335 0.333333333333333 0.3333333333333335 0.3333333333333335 0.333333333333333 0.3333333333333335 0.3333333333333335 0.333333333333333 0.3333333333333335 0.3333333333333335 0.333333333333333 0.3333333333333335 0.3333333333333335 0.333333333333333 0.3333333333333335 0.3333333333333335 0.333333333333333 0.3333333333333335 0.3333333333333335 0.333333333333333 0.3333333333333335 0.3333333333333335 0.333333333333333 0.3333333333333335 0.3333333333333335 0.333333333333333 0.3333333333333335 0.3333333333333335 0.333333333333333 0.3333333333333335 0.3333333333333335 0.333333333333333 0.3333333333333335 0.3333333333333335 0.333333333333333 0.3333333333333335 0.3333333333333335 0.333333333333333 0.3333333333333335 0.3333333333333335 0.333333333333333 0.3333333333333335 0.3333333333333335 0.333333333333333 0.3333333333333335 0.3333333333333335 0.333333333333333 0.3333333333333335 0.3333333333333335 0.333333333333333 0.3333333333333335 0.3333333333333335 0.333333333333333 0.3333333333333335 0.3333333333333335 0.333333333333333 0.3333333333333335 0.3333333333333335 0.333333333333333 0.3333333333333335 0.3333333333333335 0.333333333333333 0.3333333333333335 0.3333333333333335 0.333333333333333 0.3333333333333335 0.3333333333333335 0.333333333333333 0.3333333333333335 0.3333333333333335 0.333333333333333 0.3333333333333335 0.3333333333333335 0.333333333333333 0.3333333333333335 0.3333333333333335 0.333333333333333 0.3333333333333335 0.3333333333333335 0.333333333333333 0.3333333333333335 0.3333333333333335 0.333333333333333 0.3333333333333335 0.3333333333333335 0.333333333333333 0.3333333333333335 0.3333333333333335 0.333333333333333 0.3333333333333335 0.3333333333333335 0.333333333333333 0.3333333333333335 0.3333333333333335 0.333333333333333 0.3333333333333335 0.3333333333333335 0.333333333333333 0.3333333333333335 0.3333333333333335 0.333333333333333 0.3333333333333335 0.3333333333333335 0.333333333333333 0.3333333333333335 0.3333333333333335 0.333333333333333 0.3333333333333335 0.3333333333333335 0.333333333333333 0.3333333333333335 0.3333333333333335 0.333333333333333 0.3333333333333335 0.3333333333333335 0.333333333333333 0.3333333333333335 0.3333333333333335 0.333333333333333 0.3333333333333335 0.3333333333333335 0.333333333333333 0.3333333333333335 0.3333333333333335 0.333333333333333 0.3333333333333335 0.3333333333333335 0.333333333333333 0.3333333333333335 0.3333333333333335 0.333333333333333 0.3333333333333335 0.3333333333333335 0.333333333333333 0.3333333333333335 0.3333333333333335 0.333333333333333 0.3333333333333335 0.3333333333333335 0.333333333333333 0.3333333333333335 0.3333333333333335 0.333333333333333 0.3333333333333335 0.3333333333333335 0.333333333333333 0.3333333333333335 0.3333333333333335 0.333333333333333 0.3333333333333335 0.3333333333333335 0.333333333333333 0.3333333333333335 0.3333333333333335 0.333333333333333 0.3333333333333335 0.3333333333333335 0.333333333333333 0.3333333333333335 0.3333333333333335 0.333333333333333 0.3333333333333335 0.3333333333333335 0.333333333333333 0.3333333333333335 0.3333333333333335 0.333333333333333 0.3333333333333335 0.3333333333333335 0.333333333333333 0.3333333333333335 0.3333333333333335 0.333333333333333 0.3333333333333335 0.3333333333333335 0.333333333333333 0.3333333333333335 0.3333333333333335 0.333333333333333 0.3333333333333335 0.3333333333333335 0.333333333333333 0.3333333333333335 0.3333333333333335 0.333333333333333 0.3333333333333335 0.3333333333333335 0.333333333333333 0.3333333333333335 0.3333333333333335 0.333333333333333 0.3333333333333335 0.3333333333333335 0.333333333333333 0.3333333333333335 0.3333333333333335 0.333333333333333 0.3333333333333335 0.3333333333333335 0.333333333333333 0.3333333333333335 0.3333333333333335 0.333333333333333 0.3333333333333335 0.3333333333333335 0.333333333333333 0.3333333333333335 0.3333333333333335 0.333333333333333 0.3333333333333335 0.3333333333333335 0.333333333333333 0.3333333333333335 0.3333333333333335 0.333333333333333 0.3333333333333335 0.3333333333333335 0.333333333333333 0.3333333333333335 0.3333333333333335 0.333333333333333 0.3333333333333335 0.3333333333333335 0.333333333333333 0.3333484726745795 0.3333257636627104 0.3333257636627099 0.3333333333333335 0.3333333333333335 0.333333333333333 0.3333333333333335 0.3333333333333335 0.333333333333333 0.3333333333333335 0.3333333333333335 0.333333333333333 0.3333333333333335 0.3333333333333335 0.333333333333333 0.3333333333333335 0.3333333333333335 0.333333333333333 0.3333333333333335 0.3333333333333335 0.333333333333333 0.3333333333333335 0.3333333333333335 0.333333333333333 0.3333333333333335 0.3333333333333335 0.333333333333333 0.3333333333333335 0.3333333333333335 0.333333333333333 0.3333333333333335 0.3333333333333335 0.333333333333333 0.3333333333333335 0.3333333333333335 0.333333333333333 0.3333333333333335 0.3333333333333335 0.333333333333333 0.3333333333333335 0.3333333333333335 0.333333333333333 0.3333333333333335 0.3333333333333335 0.333333333333333 0.3333333333333335 0.3333333333333335 0.333333333333333 0.3333333333333335 0.3333333333333335 0.333333333333333 0.3333333333333335 0.3333333333333335 0.333333333333333 0.3333333333333335 0.3333333333333335 0.333333333333333 0.3333333333333335 0.3333333333333335 0.333333333333333 0.3333333333333335 0.3333333333333335 0.333333333333333 0.3333333333333335 0.3333333333333335 0.333333333333333 0.3333333333333335 0.3333333333333335 0.333333333333333 0.3333333333333335 0.3333333333333335 0.333333333333333 0.3333333333333335 0.3333333333333335 0.333333333333333 0.3333333333333335 0.3333333333333335 0.333333333333333 0.3333333333333335 0.3333333333333335 0.333333333333333 0.3333333333333335 0.3333333333333335 0.333333333333333 0.3333333333333335 0.3333333333333335 0.333333333333333 0.3333333333333335 0.3333333333333335 0.333333333333333 0.3333333333333335 0.3333333333333335 0.333333333333333 0.3333333333333335 0.3333333333333335 0.333333333333333 0.3333333333333335 0.3333333333333335 0.333333333333333 0.3333333333333335 0.3333333333333335 0.333333333333333 0.3333333333333335 0.3333333333333335 0.333333333333333 0.3333333333333335 0.3333333333333335 0.333333333333333 0.3333333333333335 0.3333333333333335 0.333333333333333 0.3333333333333335 0.3333333333333335 0.333333333333333 0.3333333333333335 0.3333333333333335 0.333333333333333 0.3333333333333335 0.3333333333333335 0.333333333333333 0.3333333333333335 0.3333333333333335 0.333333333333333 0.3333333333333335 0.3333333333333335 0.333333333333333 0.3333333333333335 0.3333333333333335 0.333333333333333 0.3333333333333335 0.3333333333333335 0.333333333333333 0.3333333333333335 0.3333333333333335 0.333333333333333 0.3333333333333335 0.3333333333333335 0.333333333333333 0.3333333333333335 0.3333333333333335 0.333333333333333 0.3333333333333335 0.3333333333333335 0.333333333333333 0.3333333333333335 0.3333333333333335 0.333333333333333 0.3333333333333335 0.3333333333333335 0.333333333333333 0.3333333333333335 0.3333333333333335 0.333333333333333 0.3333333333333335 0.3333333333333335 0.333333333333333 0.3333333333333335 0.3333333333333335 0.333333333333333 0.3333333333333335 0.3333333333333335 0.333333333333333 0.3333333333333335 0.3333333333333335 0.333333333333333 0.3333333333333335 0.3333333333333335 0.333333333333333 0.3333333333333335 0.3333333333333335 0.333333333333333 0.3333333333333335 0.3333333333333335 0.333333333333333 0.3333333333333335 0.3333333333333335 0.333333333333333 0.3333333333333335 0.3333333333333335 0.333333333333333 0.3333333333333335 0.3333333333333335 0.333333333333333 0.3333333333333335 0.3333333333333335 0.333333333333333 0.3333333333333335 0.3333333333333335 0.333333333333333 0.3333333333333335 0.3333333333333335 0.333333333333333 0.3333333333333335 0.3333333333333335 0.333333333333333 0.3333333333333335 0.3333333333333335 0.333333333333333 0.3333333333333335 0.3333333333333335 0.333333333333333 0.3333333333333335 0.3333333333333335 0.333333333333333 0.3333333333333335 0.3333333333333335 0.333333333333333 0.3333333333333335 0.3333333333333335 0.333333333333333 0.3333333333333335 0.3333333333333335 0.333333333333333 0.3333333333333335 0.3333333333333335 0.333333333333333 0.3333333333333335 0.3333333333333335 0.333333333333333 0.3333333333333335 0.3333333333333335 0.333333333333333 0.3333333333333335 0.3333333333333335 0.333333333333333 0.3333333333333335 0.3333333333333335 0.333333333333333 0.3333333333333335 0.3333333333333335 0.333333333333333 0.3333333333333335 0.3333333333333335 0.333333333333333 0.3333333333333335 0.3333333333333335 0.333333333333333 0.3333333333333335 0.3333333333333335 0.333333333333333 0.3333333333333335 0.3333333333333335 0.333333333333333 0.3333484726745795 0.3333257636627104 0.3333257636627099 0.3333333333333335 0.3333333333333335 0.333333333333333 0.3333333333333335 0.3333333333333335 0.333333333333333 0.3333333333333335 0.3333333333333335 0.333333333333333 0.3333333333333335 0.3333333333333335 0.333333333333333 0.3333333333333335 0.3333333333333335 0.333333333333333 0.3333333333333335 0.3333333333333335 0.333333333333333 0.3333333333333335 0.3333333333333335 0.333333333333333 0.3333333333333335 0.3333333333333335 0.333333333333333 0.3333333333333335 0.3333333333333335 0.333333333333333 0.3333333333333335 0.3333333333333335 0.333333333333333 0.3333333333333335 0.3333333333333335 0.333333333333333 0.3333333333333335 0.3333333333333335 0.333333333333333 0.3333333333333335 0.3333333333333335 0.333333333333333 0.3333333333333335 0.3333333333333335 0.333333333333333 0.3333333333333335 0.3333333333333335 0.333333333333333 0.3333333333333335 0.3333333333333335 0.333333333333333 0.3333333333333335 0.3333333333333335 0.333333333333333 0.3333333333333335 0.3333333333333335 0.333333333333333 0.3333333333333335 0.3333333333333335 0.333333333333333 0.3333333333333335 0.3333333333333335 0.333333333333333 0.3333333333333335 0.3333333333333335 0.333333333333333 0.3333333333333335 0.3333333333333335 0.333333333333333 0.3333333333333335 0.3333333333333335 0.333333333333333 0.3333333333333335 0.3333333333333335 0.333333333333333 0.3333333333333335 0.3333333333333335 0.333333333333333 0.3333333333333335 0.3333333333333335 0.333333333333333 0.3333333333333335 0.3333333333333335 0.333333333333333 0.3333333333333335 0.3333333333333335 0.333333333333333 0.3333333333333335 0.3333333333333335 0.333333333333333 0.3333333333333335 0.3333333333333335 0.333333333333333 0.3333333333333335 0.3333333333333335 0.333333333333333 0.3333333333333335 0.3333333333333335 0.333333333333333 0.3333333333333335 0.3333333333333335 0.333333333333333 0.3333333333333335 0.3333333333333335 0.333333333333333 0.3333333333333335 0.3333333333333335 0.333333333333333 0.3333333333333335 0.3333333333333335 0.333333333333333 0.3333333333333335 0.3333333333333335 0.333333333333333 0.3333333333333335 0.3333333333333335 0.333333333333333 0.3333333333333335 0.3333333333333335 0.333333333333333 0.3333333333333335 0.3333333333333335 0.333333333333333 0.3333333333333335 0.3333333333333335 0.333333333333333 0.3333333333333335 0.3333333333333335 0.333333333333333 0.3333333333333335 0.3333333333333335 0.333333333333333 0.3333333333333335 0.3333333333333335 0.333333333333333 0.3333333333333335 0.3333333333333335 0.333333333333333 0.3333333333333335 0.3333333333333335 0.333333333333333 0.3333333333333335 0.3333333333333335 0.333333333333333 0.3333333333333335 0.3333333333333335 0.333333333333333 0.3333333333333335 0.3333333333333335 0.333333333333333 0.3333333333333335 0.3333333333333335 0.333333333333333 0.3333333333333335 0.3333333333333335 0.333333333333333 0.3333333333333335 0.3333333333333335 0.333333333333333 0.3333333333333335 0.3333333333333335 0.333333333333333 0.3333333333333335 0.3333333333333335 0.333333333333333 0.3333333333333335 0.3333333333333335 0.333333333333333 0.3333333333333335 0.3333333333333335 0.333333333333333 0.3333333333333335 0.3333333333333335 0.333333333333333 0.3333333333333335 0.3333333333333335 0.333333333333333 0.3333333333333335 0.3333333333333335 0.333333333333333 0.3333333333333335 0.3333333333333335 0.333333333333333 0.3333333333333335 0.3333333333333335 0.333333333333333 0.3333333333333335 0.3333333333333335 0.333333333333333 0.3333333333333335 0.3333333333333335 0.333333333333333 0.3333333333333335 0.3333333333333335 0.333333333333333 0.3333333333333335 0.3333333333333335 0.333333333333333 0.3333333333333335 0.3333333333333335 0.333333333333333 0.3333333333333335 0.3333333333333335 0.333333333333333 0.3333333333333335 0.3333333333333335 0.333333333333333 0.3333333333333335 0.3333333333333335 0.333333333333333 0.3333333333333335 0.3333333333333335 0.333333333333333 0.3333333333333335 0.3333333333333335 0.333333333333333 0.3333333333333335 0.3333333333333335 0.333333333333333 0.3333333333333335 0.3333333333333335 0.333333333333333 0.3333333333333335 0.3333333333333335 0.333333333333333 0.3333333333333335 0.3333333333333335 0.333333333333333 0.3333333333333335 0.3333333333333335 0.333333333333333 0.3333333333333335 0.3333333333333335 0.333333333333333 0.3333333333333335 0.3333333333333335 0.333333333333333 0.3333333333333335 0.3333333333333335 0.333333333333333 0.3333333333333335 0.3333333333333335 0.333333333333333 0.3675717029887227 0.3162141485056388 0.3162141485056384 0.3333333333333335 0.3333333333333335 0.333333333333333 0.3333333333333335 0.3333333333333335 0.333333333333333 0.3333333333333335 0.3333333333333335 0.333333333333333 0.3333333333333335 0.3333333333333335 0.333333333333333 0.3333333333333335 0.3333333333333335 0.333333333333333 0.3333333333333335 0.3333333333333335 0.333333333333333 0.3333333333333335 0.3333333333333335 0.333333333333333 0.3333333333333335 0.3333333333333335 0.333333333333333 0.3333333333333335 0.3333333333333335 0.333333333333333 0.3333333333333335 0.3333333333333335 0.333333333333333 0.3333333333333335 0.3333333333333335 0.333333333333333 0.3333333333333335 0.3333333333333335 0.333333333333333 0.3333333333333335 0.3333333333333335 0.333333333333333 0.3333333333333335 0.3333333333333335 0.333333333333333 0.3333333333333335 0.3333333333333335 0.333333333333333 0.3333333333333335 0.3333333333333335 0.333333333333333 0.3333333333333335 0.3333333333333335 0.333333333333333 0.3333333333333335 0.3333333333333335 0.333333333333333 0.3333333333333335 0.3333333333333335 0.333333333333333 0.3333333333333335 0.3333333333333335 0.333333333333333 0.3333333333333335 0.3333333333333335 0.333333333333333 0.3333333333333335 0.3333333333333335 0.333333333333333 0.3333333333333335 0.3333333333333335 0.333333333333333 0.3333333333333335 0.3333333333333335 0.333333333333333 0.3333333333333335 0.3333333333333335 0.333333333333333 0.3333333333333335 0.3333333333333335 0.333333333333333 0.3333333333333335 0.3333333333333335 0.333333333333333 0.3333333333333335 0.3333333333333335 0.333333333333333 0.3333333333333335 0.3333333333333335 0.333333333333333 0.3333333333333335 0.3333333333333335 0.333333333333333 0.3333333333333335 0.3333333333333335 0.333333333333333 0.3333333333333335 0.3333333333333335 0.333333333333333 0.3333333333333335 0.3333333333333335 0.333333333333333 0.3333333333333335 0.3333333333333335 0.333333333333333 0.3333333333333335 0.3333333333333335 0.333333333333333 0.3333333333333335 0.3333333333333335 0.333333333333333 0.3333333333333335 0.3333333333333335 0.333333333333333 0.3333333333333335 0.3333333333333335 0.333333333333333 0.3333333333333335 0.3333333333333335 0.333333333333333 0.3333333333333335 0.3333333333333335 0.333333333333333 0.3333333333333335 0.3333333333333335 0.333333333333333 0.3333333333333335 0.3333333333333335 0.333333333333333 0.3333333333333335 0.3333333333333335 0.333333333333333 0.3333333333333335 0.3333333333333335 0.333333333333333 0.3333333333333335 0.3333333333333335 0.333333333333333 0.3333333333333335 0.3333333333333335 0.333333333333333 0.3333333333333335 0.3333333333333335 0.333333333333333 0.3333333333333335 0.3333333333333335 0.333333333333333 0.3333333333333335 0.3333333333333335 0.333333333333333 0.3333333333333335 0.3333333333333335 0.333333333333333 0.3333333333333335 0.3333333333333335 0.333333333333333 0.3333333333333335 0.3333333333333335 0.333333333333333 0.3333333333333335 0.3333333333333335 0.333333333333333 0.3333333333333335 0.3333333333333335 0.333333333333333 0.3333333333333335 0.3333333333333335 0.333333333333333 0.3333333333333335 0.3333333333333335 0.333333333333333 0.3333333333333335 0.3333333333333335 0.333333333333333 0.3333333333333335 0.3333333333333335 0.333333333333333 0.3333333333333335 0.3333333333333335 0.333333333333333 0.3333333333333335 0.3333333333333335 0.333333333333333 0.3333333333333335 0.3333333333333335 0.333333333333333 0.3333333333333335 0.3333333333333335 0.333333333333333 0.3333333333333335 0.3333333333333335 0.333333333333333 0.3333333333333335 0.3333333333333335 0.333333333333333 0.3333333333333335 0.3333333333333335 0.333333333333333 0.3333333333333335 0.3333333333333335 0.333333333333333 0.3333333333333335 0.3333333333333335 0.333333333333333 0.3333333333333335 0.3333333333333335 0.333333333333333 0.3333333333333335 0.3333333333333335 0.333333333333333 0.3333333333333335 0.3333333333333335 0.333333333333333 0.3333333333333335 0.3333333333333335 0.333333333333333 0.3333333333333335 0.3333333333333335 0.333333333333333 0.3333333333333335 0.3333333333333335 0.333333333333333 0.3333333333333335 0.3333333333333335 0.333333333333333 0.3333333333333335 0.3333333333333335 0.333333333333333 0.3333333333333335 0.3333333333333335 0.333333333333333 0.3333333333333335 0.3333333333333335 0.333333333333333 0.3333333333333335 0.3333333333333335 0.333333333333333 0.3333333333333335 0.3333333333333335 0.333333333333333 0.3333333333333335 0.3333333333333335 0.333333333333333 0.3333484704336856 0.3333257647831575 0.333325764783157 0.3333333333333335 0.3333333333333335 0.333333333333333 0.3333333333333335 0.3333333333333335 0.333333333333333 0.3333333333333335 0.3333333333333335 0.333333333333333 0.3333333333333335 0.3333333333333335 0.333333333333333 0.3333333333333335 0.3333333333333335 0.333333333333333 0.3333333333333335 0.3333333333333335 0.333333333333333 0.3333333333333335 0.3333333333333335 0.333333333333333 0.3333333333333335 0.3333333333333335 0.333333333333333 0.3333333333333335 0.3333333333333335 0.333333333333333 0.3333333333333335 0.3333333333333335 0.333333333333333 0.3333333333333335 0.3333333333333335 0.333333333333333 0.3333333333333335 0.3333333333333335 0.333333333333333 0.3333333333333335 0.3333333333333335 0.333333333333333 0.3333333333333335 0.3333333333333335 0.333333333333333 0.3333333333333335 0.3333333333333335 0.333333333333333 0.3333333333333335 0.3333333333333335 0.333333333333333 0.3333333333333335 0.3333333333333335 0.333333333333333 0.3333333333333335 0.3333333333333335 0.333333333333333 0.3333333333333335 0.3333333333333335 0.333333333333333 0.3333333333333335 0.3333333333333335 0.333333333333333 0.3333333333333335 0.3333333333333335 0.333333333333333 0.3333333333333335 0.3333333333333335 0.333333333333333 0.3333333333333335 0.3333333333333335 0.333333333333333 0.3333333333333335 0.3333333333333335 0.333333333333333 0.3333333333333335 0.3333333333333335 0.333333333333333 0.3333333333333335 0.3333333333333335 0.333333333333333 0.3333333333333335 0.3333333333333335 0.333333333333333 0.3333333333333335 0.3333333333333335 0.333333333333333 0.3333333333333335 0.3333333333333335 0.333333333333333 0.3333333333333335 0.3333333333333335 0.333333333333333 0.3333333333333335 0.3333333333333335 0.333333333333333 0.3333333333333335 0.3333333333333335 0.333333333333333 0.3333333333333335 0.3333333333333335 0.333333333333333 0.3333333333333335 0.3333333333333335 0.333333333333333 0.3333333333333335 0.3333333333333335 0.333333333333333 0.3333333333333335 0.3333333333333335 0.333333333333333 0.3333333333333335 0.3333333333333335 0.333333333333333 0.3333333333333335 0.3333333333333335 0.333333333333333 0.3333333333333335 0.3333333333333335 0.333333333333333 0.3333333333333335 0.3333333333333335 0.333333333333333 0.3333333333333335 0.3333333333333335 0.333333333333333 0.3333333333333335 0.3333333333333335 0.333333333333333 0.3333333333333335 0.3333333333333335 0.333333333333333 0.3333333333333335 0.3333333333333335 0.333333333333333 0.3333333333333335 0.3333333333333335 0.333333333333333 0.3333333333333335 0.3333333333333335 0.333333333333333 0.3333333333333335 0.3333333333333335 0.333333333333333 0.3333333333333335 0.3333333333333335 0.333333333333333 0.3333333333333335 0.3333333333333335 0.333333333333333 0.3333333333333335 0.3333333333333335 0.333333333333333 0.3333333333333335 0.3333333333333335 0.333333333333333 0.3333333333333335 0.3333333333333335 0.333333333333333 0.3333333333333335 0.3333333333333335 0.333333333333333 0.3333333333333335 0.3333333333333335 0.333333333333333 0.3333333333333335 0.3333333333333335 0.333333333333333 0.3333333333333335 0.3333333333333335 0.333333333333333 0.3333333333333335 0.3333333333333335 0.333333333333333 0.3333333333333335 0.3333333333333335 0.333333333333333 0.3333333333333335 0.3333333333333335 0.333333333333333 0.3333333333333335 0.3333333333333335 0.333333333333333 0.3333333333333335 0.3333333333333335 0.333333333333333 0.3333333333333335 0.3333333333333335 0.333333333333333 0.3333333333333335 0.3333333333333335 0.333333333333333 0.3333333333333335 0.3333333333333335 0.333333333333333 0.3333333333333335 0.3333333333333335 0.333333333333333 0.3333333333333335 0.3333333333333335 0.333333333333333 0.3333333333333335 0.3333333333333335 0.333333333333333 0.3333333333333335 0.3333333333333335 0.333333333333333 0.3333333333333335 0.3333333333333335 0.333333333333333 0.3333333333333335 0.3333333333333335 0.333333333333333 0.3333333333333335 0.3333333333333335 0.333333333333333 0.3333333333333335 0.3333333333333335 0.333333333333333 0.3333333333333335 0.3333333333333335 0.333333333333333 0.3333333333333335 0.3333333333333335 0.333333333333333 0.3333333333333335 0.3333333333333335 0.333333333333333 0.3333333333333335 0.3333333333333335 0.333333333333333 0.3333333333333335 0.3333333333333335 0.333333333333333 0.3333333333333335 0.3333333333333335 0.333333333333333 0.3333333333333335 0.3333333333333335 0.333333333333333 0.3333333333333335 0.3333333333333335 0.333333333333333 0.3333484704336856 0.3333257647831575 0.333325764783157 0.3333333333333335 0.3333333333333335 0.333333333333333 0.3333333333333335 0.3333333333333335 0.333333333333333 0.3333333333333335 0.3333333333333335 0.333333333333333 0.3333333333333335 0.3333333333333335 0.333333333333333 0.3333333333333335 0.3333333333333335 0.333333333333333 0.3333333333333335 0.3333333333333335 0.333333333333333 0.3333333333333335 0.3333333333333335 0.333333333333333 0.3333333333333335 0.3333333333333335 0.333333333333333 0.3333333333333335 0.3333333333333335 0.333333333333333 0.3333333333333335 0.3333333333333335 0.333333333333333 0.3333333333333335 0.3333333333333335 0.333333333333333 0.3333333333333335 0.3333333333333335 0.333333333333333 0.3333333333333335 0.3333333333333335 0.333333333333333 0.3333333333333335 0.3333333333333335 0.333333333333333 0.3333333333333335 0.3333333333333335 0.333333333333333 0.3333333333333335 0.3333333333333335 0.333333333333333 0.3333333333333335 0.3333333333333335 0.333333333333333 0.3333333333333335 0.3333333333333335 0.333333333333333 0.3333333333333335 0.3333333333333335 0.333333333333333 0.3333333333333335 0.3333333333333335 0.333333333333333 0.3333333333333335 0.3333333333333335 0.333333333333333 0.3333333333333335 0.3333333333333335 0.333333333333333 0.3333333333333335 0.3333333333333335 0.333333333333333 0.3333333333333335 0.3333333333333335 0.333333333333333 0.3333333333333335 0.3333333333333335 0.333333333333333 0.3333333333333335 0.3333333333333335 0.333333333333333 0.3333333333333335 0.3333333333333335 0.333333333333333 0.3333333333333335 0.3333333333333335 0.333333333333333 0.3333333333333335 0.3333333333333335 0.333333333333333 0.3333333333333335 0.3333333333333335 0.333333333333333 0.3333333333333335 0.3333333333333335 0.333333333333333 0.3333333333333335 0.3333333333333335 0.333333333333333 0.3333333333333335 0.3333333333333335 0.333333333333333 0.3333333333333335 0.3333333333333335 0.333333333333333 0.3333333333333335 0.3333333333333335 0.333333333333333 0.3333333333333335 0.3333333333333335 0.333333333333333 0.3333333333333335 0.3333333333333335 0.333333333333333 0.3333333333333335 0.3333333333333335 0.333333333333333 0.3333333333333335 0.3333333333333335 0.333333333333333 0.3333333333333335 0.3333333333333335 0.333333333333333 0.3333333333333335 0.3333333333333335 0.333333333333333 0.3333333333333335 0.3333333333333335 0.333333333333333 0.3333333333333335 0.3333333333333335 0.333333333333333 0.3333333333333335 0.3333333333333335 0.333333333333333 0.3333333333333335 0.3333333333333335 0.333333333333333 0.3333333333333335 0.3333333333333335 0.333333333333333 0.3333333333333335 0.3333333333333335 0.333333333333333 0.3333333333333335 0.3333333333333335 0.333333333333333 0.3333333333333335 0.3333333333333335 0.333333333333333 0.3333333333333335 0.3333333333333335 0.333333333333333 0.3333333333333335 0.3333333333333335 0.333333333333333 0.3333333333333335 0.3333333333333335 0.333333333333333 0.3333333333333335 0.3333333333333335 0.333333333333333 0.3333333333333335 0.3333333333333335 0.333333333333333 0.3333333333333335 0.3333333333333335 0.333333333333333 0.3333333333333335 0.3333333333333335 0.333333333333333 0.3333333333333335 0.3333333333333335 0.333333333333333 0.3333333333333335 0.3333333333333335 0.333333333333333 0.3333333333333335 0.3333333333333335 0.333333333333333 0.3333333333333335 0.3333333333333335 0.333333333333333 0.3333333333333335 0.3333333333333335 0.333333333333333 0.3333333333333335 0.3333333333333335 0.333333333333333 0.3333333333333335 0.3333333333333335 0.333333333333333 0.3333333333333335 0.3333333333333335 0.333333333333333 0.3333333333333335 0.3333333333333335 0.333333333333333 0.3333333333333335 0.3333333333333335 0.333333333333333 0.3333333333333335 0.3333333333333335 0.333333333333333 0.3333333333333335 0.3333333333333335 0.333333333333333 0.3333333333333335 0.3333333333333335 0.333333333333333 0.3333333333333335 0.3333333333333335 0.333333333333333 0.3333333333333335 0.3333333333333335 0.333333333333333 0.3333333333333335 0.3333333333333335 0.333333333333333 0.3333333333333335 0.3333333333333335 0.333333333333333 0.3333333333333335 0.3333333333333335 0.333333333333333 0.3333333333333335 0.3333333333333335 0.333333333333333 0.3333333333333335 0.3333333333333335 0.333333333333333 0.3333333333333335 0.3333333333333335 0.333333333333333 0.3333333333333335 0.3333333333333335 0.333333333333333 0.3333333333333335 0.3333333333333335 0.333333333333333 0.3333333333333335 0.3333333333333335 0.333333333333333 0.3333484704336856 0.3333257647831575 0.333325764783157 0.3333333333333335 0.3333333333333335 0.333333333333333 0.3333333333333335 0.3333333333333335 0.333333333333333 0.3333333333333335 0.3333333333333335 0.333333333333333 0.3333333333333335 0.3333333333333335 0.333333333333333 0.3333333333333335 0.3333333333333335 0.333333333333333 0.3333333333333335 0.3333333333333335 0.333333333333333 0.3333333333333335 0.3333333333333335 0.333333333333333 0.3333333333333335 0.3333333333333335 0.333333333333333 0.3333333333333335 0.3333333333333335 0.333333333333333 0.3333333333333335 0.3333333333333335 0.333333333333333 0.3333333333333335 0.3333333333333335 0.333333333333333 0.3333333333333335 0.3333333333333335 0.333333333333333 0.3333333333333335 0.3333333333333335 0.333333333333333 0.3333333333333335 0.3333333333333335 0.333333333333333 0.3333333333333335 0.3333333333333335 0.333333333333333 0.3333333333333335 0.3333333333333335 0.333333333333333 0.3333333333333335 0.3333333333333335 0.333333333333333 0.3333333333333335 0.3333333333333335 0.333333333333333 0.3333333333333335 0.3333333333333335 0.333333333333333 0.3333333333333335 0.3333333333333335 0.333333333333333 0.3333333333333335 0.3333333333333335 0.333333333333333 0.3333333333333335 0.3333333333333335 0.333333333333333 0.3333333333333335 0.3333333333333335 0.333333333333333 0.3333333333333335 0.3333333333333335 0.333333333333333 0.3333333333333335 0.3333333333333335 0.333333333333333 0.3333333333333335 0.3333333333333335 0.333333333333333 0.3333333333333335 0.3333333333333335 0.333333333333333 0.3333333333333335 0.3333333333333335 0.333333333333333 0.3333333333333335 0.3333333333333335 0.333333333333333 0.3333333333333335 0.3333333333333335 0.333333333333333 0.3333333333333335 0.3333333333333335 0.333333333333333 0.3333333333333335 0.3333333333333335 0.333333333333333 0.3333333333333335 0.3333333333333335 0.333333333333333 0.3333333333333335 0.3333333333333335 0.333333333333333 0.3333333333333335 0.3333333333333335 0.333333333333333 0.3333333333333335 0.3333333333333335 0.333333333333333 0.3333333333333335 0.3333333333333335 0.333333333333333 0.3333333333333335 0.3333333333333335 0.333333333333333 0.3333333333333335 0.3333333333333335 0.333333333333333 0.3333333333333335 0.3333333333333335 0.333333333333333 0.3333333333333335 0.3333333333333335 0.333333333333333 0.3333333333333335 0.3333333333333335 0.333333333333333 0.3333333333333335 0.3333333333333335 0.333333333333333 0.3333333333333335 0.3333333333333335 0.333333333333333 0.3333333333333335 0.3333333333333335 0.333333333333333 0.3333333333333335 0.3333333333333335 0.333333333333333 0.3333333333333335 0.3333333333333335 0.333333333333333 0.3333333333333335 0.3333333333333335 0.333333333333333 0.3333333333333335 0.3333333333333335 0.333333333333333 0.3333333333333335 0.3333333333333335 0.333333333333333 0.3333333333333335 0.3333333333333335 0.333333333333333 0.3333333333333335 0.3333333333333335 0.333333333333333 0.3333333333333335 0.3333333333333335 0.333333333333333 0.3333333333333335 0.3333333333333335 0.333333333333333 0.3333333333333335 0.3333333333333335 0.333333333333333 0.3333333333333335 0.3333333333333335 0.333333333333333 0.3333333333333335 0.3333333333333335 0.333333333333333 0.3333333333333335 0.3333333333333335 0.333333333333333 0.3333333333333335 0.3333333333333335 0.333333333333333 0.3333333333333335 0.3333333333333335 0.333333333333333 0.3333333333333335 0.3333333333333335 0.333333333333333 0.3333333333333335 0.3333333333333335 0.333333333333333 0.3333333333333335 0.3333333333333335 0.333333333333333 0.3333333333333335 0.3333333333333335 0.333333333333333 0.3333333333333335 0.3333333333333335 0.333333333333333 0.3333333333333335 0.3333333333333335 0.333333333333333 0.3333333333333335 0.3333333333333335 0.333333333333333 0.3333333333333335 0.3333333333333335 0.333333333333333 0.3333333333333335 0.3333333333333335 0.333333333333333 0.3333333333333335 0.3333333333333335 0.333333333333333 0.3333333333333335 0.3333333333333335 0.333333333333333 0.3333333333333335 0.3333333333333335 0.333333333333333 0.3333333333333335 0.3333333333333335 0.333333333333333 0.3333333333333335 0.3333333333333335 0.333333333333333 0.3333333333333335 0.3333333333333335 0.333333333333333 0.3333333333333335 0.3333333333333335 0.333333333333333 0.3333333333333335 0.3333333333333335 0.333333333333333 0.3333333333333335 0.3333333333333335 0.333333333333333 0.3333333333333335 0.3333333333333335 0.333333333333333 0.3333333333333335 0.3333333333333335 0.333333333333333 0.7650158085039993 0.1174920957480004 0.1174920957480002 0.3333333333333335 0.3333333333333335 0.333333333333333 0.3333333333333335 0.3333333333333335 0.333333333333333 0.3333333333333335 0.3333333333333335 0.333333333333333 0.3333333333333335 0.3333333333333335 0.333333333333333 0.3333333333333335 0.3333333333333335 0.333333333333333 0.3333333333333335 0.3333333333333335 0.333333333333333 0.3333333333333335 0.3333333333333335 0.333333333333333 0.3333333333333335 0.3333333333333335 0.333333333333333 0.3333333333333335 0.3333333333333335 0.333333333333333 0.3333333333333335 0.3333333333333335 0.333333333333333 0.3333333333333335 0.3333333333333335 0.333333333333333 0.3333333333333335 0.3333333333333335 0.333333333333333 0.3333333333333335 0.3333333333333335 0.333333333333333 0.3333333333333335 0.3333333333333335 0.333333333333333 0.3333333333333335 0.3333333333333335 0.333333333333333 0.3333333333333335 0.3333333333333335 0.333333333333333 0.3333333333333335 0.3333333333333335 0.333333333333333 0.3333333333333335 0.3333333333333335 0.333333333333333 0.3333333333333335 0.3333333333333335 0.333333333333333 0.3333333333333335 0.3333333333333335 0.333333333333333 0.3333333333333335 0.3333333333333335 0.333333333333333 0.3333333333333335 0.3333333333333335 0.333333333333333 0.3333333333333335 0.3333333333333335 0.333333333333333 0.3333333333333335 0.3333333333333335 0.333333333333333 0.3333333333333335 0.3333333333333335 0.333333333333333 0.3333333333333335 0.3333333333333335 0.333333333333333 0.3333333333333335 0.3333333333333335 0.333333333333333 0.3333333333333335 0.3333333333333335 0.333333333333333 0.3333333333333335 0.3333333333333335 0.333333333333333 0.3333333333333335 0.3333333333333335 0.333333333333333 0.3333333333333335 0.3333333333333335 0.333333333333333 0.3333333333333335 0.3333333333333335 0.333333333333333 0.3333333333333335 0.3333333333333335 0.333333333333333 0.3333333333333335 0.3333333333333335 0.333333333333333 0.3333333333333335 0.3333333333333335 0.333333333333333 0.3333333333333335 0.3333333333333335 0.333333333333333 0.3333333333333335 0.3333333333333335 0.333333333333333 0.3333333333333335 0.3333333333333335 0.333333333333333 0.3333333333333335 0.3333333333333335 0.333333333333333 0.3333333333333335 0.3333333333333335 0.333333333333333 0.3333333333333335 0.3333333333333335 0.333333333333333 0.3333333333333335 0.3333333333333335 0.333333333333333 0.3333333333333335 0.3333333333333335 0.333333333333333 0.3333333333333335 0.3333333333333335 0.333333333333333 0.3333333333333335 0.3333333333333335 0.333333333333333 0.3333333333333335 0.3333333333333335 0.333333333333333 0.3333333333333335 0.3333333333333335 0.333333333333333 0.3333333333333335 0.3333333333333335 0.333333333333333 0.3333333333333335 0.3333333333333335 0.333333333333333 0.3333333333333335 0.3333333333333335 0.333333333333333 0.3333333333333335 0.3333333333333335 0.333333333333333 0.3333333333333335 0.3333333333333335 0.333333333333333 0.3333333333333335 0.3333333333333335 0.333333333333333 0.3333333333333335 0.3333333333333335 0.333333333333333 0.3333333333333335 0.3333333333333335 0.333333333333333 0.3333333333333335 0.3333333333333335 0.333333333333333 0.3333333333333335 0.3333333333333335 0.333333333333333 0.3333333333333335 0.3333333333333335 0.333333333333333 0.3333333333333335 0.3333333333333335 0.333333333333333 0.3333333333333335 0.3333333333333335 0.333333333333333 0.3333333333333335 0.3333333333333335 0.333333333333333 0.3333333333333335 0.3333333333333335 0.333333333333333 0.3333333333333335 0.3333333333333335 0.333333333333333 0.3333333333333335 0.3333333333333335 0.333333333333333 0.3333333333333335 0.3333333333333335 0.333333333333333 0.3333333333333335 0.3333333333333335 0.333333333333333 0.3333333333333335 0.3333333333333335 0.333333333333333 0.3333333333333335 0.3333333333333335 0.333333333333333 0.3333333333333335 0.3333333333333335 0.333333333333333 0.3333333333333335 0.3333333333333335 0.333333333333333 0.3333333333333335 0.3333333333333335 0.333333333333333 0.3333333333333335 0.3333333333333335 0.333333333333333 0.3333333333333335 0.3333333333333335 0.333333333333333 0.3333333333333335 0.3333333333333335 0.333333333333333 0.3333333333333335 0.3333333333333335 0.333333333333333 0.3333333333333335 0.3333333333333335 0.333333333333333 0.3333333333333335 0.3333333333333335 0.333333333333333 0.3333333333333335 0.3333333333333335 0.333333333333333 0.3333333333333335 0.3333333333333335 0.333333333333333 0.3333333333333335 0.3333333333333335 0.333333333333333 0.3333971654648411 0.3333014172675797 0.3333014172675792 0.3333333333333335 0.3333333333333335 0.333333333333333 0.3333333333333335 0.3333333333333335 0.333333333333333 0.3333333333333335 0.3333333333333335 0.333333333333333 0.3333333333333335 0.3333333333333335 0.333333333333333 0.3333333333333335 0.3333333333333335 0.333333333333333 0.3333333333333335 0.3333333333333335 0.333333333333333 0.3333333333333335 0.3333333333333335 0.333333333333333 0.3333333333333335 0.3333333333333335 0.333333333333333 0.3333333333333335 0.3333333333333335 0.333333333333333 0.3333333333333335 0.3333333333333335 0.333333333333333 0.3333333333333335 0.3333333333333335 0.333333333333333 0.3333333333333335 0.3333333333333335 0.333333333333333 0.3333333333333335 0.3333333333333335 0.333333333333333 0.3333333333333335 0.3333333333333335 0.333333333333333 0.3333333333333335 0.3333333333333335 0.333333333333333 0.3333333333333335 0.3333333333333335 0.333333333333333 0.3333333333333335 0.3333333333333335 0.333333333333333 0.3333333333333335 0.3333333333333335 0.333333333333333 0.3333333333333335 0.3333333333333335 0.333333333333333 0.3333333333333335 0.3333333333333335 0.333333333333333 0.3333333333333335 0.3333333333333335 0.333333333333333 0.3333333333333335 0.3333333333333335 0.333333333333333 0.3333333333333335 0.3333333333333335 0.333333333333333 0.3333333333333335 0.3333333333333335 0.333333333333333 0.3333333333333335 0.3333333333333335 0.333333333333333 0.3333333333333335 0.3333333333333335 0.333333333333333 0.3333333333333335 0.3333333333333335 0.333333333333333 0.3333333333333335 0.3333333333333335 0.333333333333333 0.3333333333333335 0.3333333333333335 0.333333333333333 0.3333333333333335 0.3333333333333335 0.333333333333333 0.3333333333333335 0.3333333333333335 0.333333333333333 0.3333333333333335 0.3333333333333335 0.333333333333333 0.3333333333333335 0.3333333333333335 0.333333333333333 0.3333333333333335 0.3333333333333335 0.333333333333333 0.3333333333333335 0.3333333333333335 0.333333333333333 0.3333333333333335 0.3333333333333335 0.333333333333333 0.3333333333333335 0.3333333333333335 0.333333333333333 0.3333333333333335 0.3333333333333335 0.333333333333333 0.3333333333333335 0.3333333333333335 0.333333333333333 0.3333333333333335 0.3333333333333335 0.333333333333333 0.3333333333333335 0.3333333333333335 0.333333333333333 0.3333333333333335 0.3333333333333335 0.333333333333333 0.3333333333333335 0.3333333333333335 0.333333333333333 0.3333333333333335 0.3333333333333335 0.333333333333333 0.3333333333333335 0.3333333333333335 0.333333333333333 0.3333333333333335 0.3333333333333335 0.333333333333333 0.3333333333333335 0.3333333333333335 0.333333333333333 0.3333333333333335 0.3333333333333335 0.333333333333333 0.3333333333333335 0.3333333333333335 0.333333333333333 0.3333333333333335 0.3333333333333335 0.333333333333333 0.3333333333333335 0.3333333333333335 0.333333333333333 0.3333333333333335 0.3333333333333335 0.333333333333333 0.3333333333333335 0.3333333333333335 0.333333333333333 0.3333333333333335 0.3333333333333335 0.333333333333333 0.3333333333333335 0.3333333333333335 0.333333333333333 0.3333333333333335 0.3333333333333335 0.333333333333333 0.3333333333333335 0.3333333333333335 0.333333333333333 0.3333333333333335 0.3333333333333335 0.333333333333333 0.3333333333333335 0.3333333333333335 0.333333333333333 0.3333333333333335 0.3333333333333335 0.333333333333333 0.3333333333333335 0.3333333333333335 0.333333333333333 0.3333333333333335 0.3333333333333335 0.333333333333333 0.3333333333333335 0.3333333333333335 0.333333333333333 0.3333333333333335 0.3333333333333335 0.333333333333333 0.3333333333333335 0.3333333333333335 0.333333333333333 0.3333333333333335 0.3333333333333335 0.333333333333333 0.3333333333333335 0.3333333333333335 0.333333333333333 0.3333333333333335 0.3333333333333335 0.333333333333333 0.3333333333333335 0.3333333333333335 0.333333333333333 0.3333333333333335 0.3333333333333335 0.333333333333333 0.3333333333333335 0.3333333333333335 0.333333333333333 0.3333333333333335 0.3333333333333335 0.333333333333333 0.3333333333333335 0.3333333333333335 0.333333333333333 0.3333333333333335 0.3333333333333335 0.333333333333333 0.3333333333333335 0.3333333333333335 0.333333333333333 0.3333333333333335 0.3333333333333335 0.333333333333333 0.3333333333333335 0.3333333333333335 0.333333333333333 0.3333333333333335 0.3333333333333335 0.333333333333333 0.3333333333333335 0.3333333333333335 0.333333333333333 0.3333333333333335 0.3333333333333335 0.333333333333333 0.3333971654648411 0.3333014172675797 0.3333014172675792 0.3333333333333335 0.3333333333333335 0.333333333333333 0.3333333333333335 0.3333333333333335 0.333333333333333 0.3333333333333335 0.3333333333333335 0.333333333333333 0.3333333333333335 0.3333333333333335 0.333333333333333 0.3333333333333335 0.3333333333333335 0.333333333333333 0.3333333333333335 0.3333333333333335 0.333333333333333 0.3333333333333335 0.3333333333333335 0.333333333333333 0.3333333333333335 0.3333333333333335 0.333333333333333 0.3333333333333335 0.3333333333333335 0.333333333333333 0.3333333333333335 0.3333333333333335 0.333333333333333 0.3333333333333335 0.3333333333333335 0.333333333333333 0.3333333333333335 0.3333333333333335 0.333333333333333 0.3333333333333335 0.3333333333333335 0.333333333333333 0.3333333333333335 0.3333333333333335 0.333333333333333 0.3333333333333335 0.3333333333333335 0.333333333333333 0.3333333333333335 0.3333333333333335 0.333333333333333 0.3333333333333335 0.3333333333333335 0.333333333333333 0.3333333333333335 0.3333333333333335 0.333333333333333 0.3333333333333335 0.3333333333333335 0.333333333333333 0.3333333333333335 0.3333333333333335 0.333333333333333 0.3333333333333335 0.3333333333333335 0.333333333333333 0.3333333333333335 0.3333333333333335 0.333333333333333 0.3333333333333335 0.3333333333333335 0.333333333333333 0.3333333333333335 0.3333333333333335 0.333333333333333 0.3333333333333335 0.3333333333333335 0.333333333333333 0.3333333333333335 0.3333333333333335 0.333333333333333 0.3333333333333335 0.3333333333333335 0.333333333333333 0.3333333333333335 0.3333333333333335 0.333333333333333 0.3333333333333335 0.3333333333333335 0.333333333333333 0.3333333333333335 0.3333333333333335 0.333333333333333 0.3333333333333335 0.3333333333333335 0.333333333333333 0.3333333333333335 0.3333333333333335 0.333333333333333 0.3333333333333335 0.3333333333333335 0.333333333333333 0.3333333333333335 0.3333333333333335 0.333333333333333 0.3333333333333335 0.3333333333333335 0.333333333333333 0.3333333333333335 0.3333333333333335 0.333333333333333 0.3333333333333335 0.3333333333333335 0.333333333333333 0.3333333333333335 0.3333333333333335 0.333333333333333 0.3333333333333335 0.3333333333333335 0.333333333333333 0.3333333333333335 0.3333333333333335 0.333333333333333 0.3333333333333335 0.3333333333333335 0.333333333333333 0.3333333333333335 0.3333333333333335 0.333333333333333 0.3333333333333335 0.3333333333333335 0.333333333333333 0.3333333333333335 0.3333333333333335 0.333333333333333 0.3333333333333335 0.3333333333333335 0.333333333333333 0.3333333333333335 0.3333333333333335 0.333333333333333 0.3333333333333335 0.3333333333333335 0.333333333333333 0.3333333333333335 0.3333333333333335 0.333333333333333 0.3333333333333335 0.3333333333333335 0.333333333333333 0.3333333333333335 0.3333333333333335 0.333333333333333 0.3333333333333335 0.3333333333333335 0.333333333333333 0.3333333333333335 0.3333333333333335 0.333333333333333 0.3333333333333335 0.3333333333333335 0.333333333333333 0.3333333333333335 0.3333333333333335 0.333333333333333 0.3333333333333335 0.3333333333333335 0.333333333333333 0.3333333333333335 0.3333333333333335 0.333333333333333 0.3333333333333335 0.3333333333333335 0.333333333333333 0.3333333333333335 0.3333333333333335 0.333333333333333 0.3333333333333335 0.3333333333333335 0.333333333333333 0.3333333333333335 0.3333333333333335 0.333333333333333 0.3333333333333335 0.3333333333333335 0.333333333333333 0.3333333333333335 0.3333333333333335 0.333333333333333 0.3333333333333335 0.3333333333333335 0.333333333333333 0.3333333333333335 0.3333333333333335 0.333333333333333 0.3333333333333335 0.3333333333333335 0.333333333333333 0.3333333333333335 0.3333333333333335 0.333333333333333 0.3333333333333335 0.3333333333333335 0.333333333333333 0.3333333333333335 0.3333333333333335 0.333333333333333 0.3333333333333335 0.3333333333333335 0.333333333333333 0.3333333333333335 0.3333333333333335 0.333333333333333 0.3333333333333335 0.3333333333333335 0.333333333333333 0.3333333333333335 0.3333333333333335 0.333333333333333 0.3333333333333335 0.3333333333333335 0.333333333333333 0.3333333333333335 0.3333333333333335 0.333333333333333 0.3333333333333335 0.3333333333333335 0.333333333333333 0.3333333333333335 0.3333333333333335 0.333333333333333 0.3333333333333335 0.3333333333333335 0.333333333333333 0.3333333333333335 0.3333333333333335 0.333333333333333 0.3333333333333335 0.3333333333333335 0.333333333333333 0.3333333333333335 0.3333333333333335 0.333333333333333 0.3333971654648411 0.3333014172675797 0.3333014172675792 0.3333333333333335 0.3333333333333335 0.333333333333333 0.3333333333333335 0.3333333333333335 0.333333333333333 0.3333333333333335 0.3333333333333335 0.333333333333333 0.3333333333333335 0.3333333333333335 0.333333333333333 0.3333333333333335 0.3333333333333335 0.333333333333333 0.3333333333333335 0.3333333333333335 0.333333333333333 0.3333333333333335 0.3333333333333335 0.333333333333333 0.3333333333333335 0.3333333333333335 0.333333333333333 0.3333333333333335 0.3333333333333335 0.333333333333333 0.3333333333333335 0.3333333333333335 0.333333333333333 0.3333333333333335 0.3333333333333335 0.333333333333333 0.3333333333333335 0.3333333333333335 0.333333333333333 0.3333333333333335 0.3333333333333335 0.333333333333333 0.3333333333333335 0.3333333333333335 0.333333333333333 0.3333333333333335 0.3333333333333335 0.333333333333333 0.3333333333333335 0.3333333333333335 0.333333333333333 0.3333333333333335 0.3333333333333335 0.333333333333333 0.3333333333333335 0.3333333333333335 0.333333333333333 0.3333333333333335 0.3333333333333335 0.333333333333333 0.3333333333333335 0.3333333333333335 0.333333333333333 0.3333333333333335 0.3333333333333335 0.333333333333333 0.3333333333333335 0.3333333333333335 0.333333333333333 0.3333333333333335 0.3333333333333335 0.333333333333333 0.3333333333333335 0.3333333333333335 0.333333333333333 0.3333333333333335 0.3333333333333335 0.333333333333333 0.3333333333333335 0.3333333333333335 0.333333333333333 0.3333333333333335 0.3333333333333335 0.333333333333333 0.3333333333333335 0.3333333333333335 0.333333333333333 0.3333333333333335 0.3333333333333335 0.333333333333333 0.3333333333333335 0.3333333333333335 0.333333333333333 0.3333333333333335 0.3333333333333335 0.333333333333333 0.3333333333333335 0.3333333333333335 0.333333333333333 0.3333333333333335 0.3333333333333335 0.333333333333333 0.3333333333333335 0.3333333333333335 0.333333333333333 0.3333333333333335 0.3333333333333335 0.333333333333333 0.3333333333333335 0.3333333333333335 0.333333333333333 0.3333333333333335 0.3333333333333335 0.333333333333333 0.3333333333333335 0.3333333333333335 0.333333333333333 0.3333333333333335 0.3333333333333335 0.333333333333333 0.3333333333333335 0.3333333333333335 0.333333333333333 0.3333333333333335 0.3333333333333335 0.333333333333333 0.3333333333333335 0.3333333333333335 0.333333333333333 0.3333333333333335 0.3333333333333335 0.333333333333333 0.3333333333333335 0.3333333333333335 0.333333333333333 0.3333333333333335 0.3333333333333335 0.333333333333333 0.3333333333333335 0.3333333333333335 0.333333333333333 0.3333333333333335 0.3333333333333335 0.333333333333333 0.3333333333333335 0.3333333333333335 0.333333333333333 0.3333333333333335 0.3333333333333335 0.333333333333333 0.3333333333333335 0.3333333333333335 0.333333333333333 0.3333333333333335 0.3333333333333335 0.333333333333333 0.3333333333333335 0.3333333333333335 0.333333333333333 0.3333333333333335 0.3333333333333335 