<?xml version="1.0" encoding="ISO-8859-1"?>
<smile version="1.0" id="Network1" numsamples="1000" discsamples="10000">
	<nodes>
		<cpt id="attentionContext">
			<state id="Neutral" />
			<state id="Concentrating" />
			<state id="Sleepy" />
			<state id="Social" />
			<probabilities>0.9987024221453287 0.0004325259515570934 0.0004325259515570934 0.0004325259515570934</probabilities>
		</cpt>
		<cpt id="audioNoise">
			<state id="None" />
			<state id="Low" />
			<state id="Medium" />
			<state id="High" />
			<probabilities>0.9987024221453287 0.0004325259515570934 0.0004325259515570934 0.0004325259515570934</probabilities>
		</cpt>
		<cpt id="robotMotionSpeed">
			<state id="Low" />
			<state id="Medium" />
			<state id="High" />
			<probabilities>0.9988465974625143 0.000576701268742791 0.0005767012687427913</probabilities>
		</cpt>
		<cpt id="robotPose">
			<state id="Far" />
			<state id="Medium" />
			<state id="Close" />
			<probabilities>0.2704728950403691 0.4486735870818915 0.2808535178777393</probabilities>
		</cpt>
		<cpt id="robotSoundVolume">
			<state id="Low" />
			<state id="Medium" />
			<state id="High" />
			<parents>audioNoise</parents>
			<probabilities>0.9988465974625143 0.000576701268742791 0.0005767012687427913 0.3333333333333333 0.3333333333333333 0.3333333333333334 0.3333333333333333 0.3333333333333333 0.3333333333333334 0.3333333333333333 0.3333333333333333 0.3333333333333334</probabilities>
		</cpt>
		<cpt id="attentionLevel">
			<state id="Neglect" />
			<state id="Contingency" />
			<state id="AttentionHigh" />
			<parents>attentionContext audioNoise robotSoundVolume robotPose robotMotionSpeed</parents>
			<probabilities>0.5944798301486199 0.1358811040339703 0.2696390658174098 0.3333333333333335 0.3333333333333335 0.333333333333333 0.3333333333333335 0.3333333333333335 0.333333333333333 0.5974358974358974 0.3012820512820513 0.1012820512820513 0.3333333333333335 0.3333333333333335 0.333333333333333 0.3333333333333335 0.3333333333333335 0.333333333333333 0.1615541922290389 0.1186094069529652 0.7198364008179959 0.3333333333333335 0.3333333333333335 0.333333333333333 0.3333333333333335 0.3333333333333335 0.333333333333333 0.3333333333333335 0.3333333333333335 0.333333333333333 0.3333333333333335 0.3333333333333335 0.333333333333333 0.3333333333333335 0.3333333333333335 0.333333333333333 0.3333333333333335 0.3333333333333335 0.333333333333333 0.3333333333333335 0.3333333333333335 0.333333333333333 0.3333333333333335 0.3333333333333335 0.333333333333333 0.3333333333333335 0.3333333333333335 0.333333333333333 0.3333333333333335 0.3333333333333335 0.333333333333333 0.3333333333333335 0.3333333333333335 0.333333333333333 0.3333333333333335 0.3333333333333335 0.333333333333333 0.3333333333333335 0.3333333333333335 0.333333333333333 0.3333333333333335 0.3333333333333335 0.333333333333333 0.3333333333333335 0.3333333333333335 0.333333333333333 0.3333333333333335 0.3333333333333335 0.333333333333333 0.3333333333333335 0.3333333333333335 0.333333333333333 0.3333333333333335 0.3333333333333335 0.333333333333333 0.3333333333333335 0.3333333333333335 0.333333333333333 0.3333333333333335 0.3333333333333335 0.333333333333333 0.3333333333333335 0.3333333333333335 0.333333333333333 0.3333333333333335 0.3333333333333335 0.333333333333333 0.3333333333333335 0.3333333333333335 0.333333333333333 0.3333333333333335 0.3333333333333335 0.333333333333333 0.3333333333333335 0.3333333333333335 0.333333333333333 0.3333333333333335 0.3333333333333335 0.333333333333333 0.3333333333333335 0.3333333333333335 0.333333333333333 0.3333333333333335 0.3333333333333335 0.333333333333333 0.3333333333333335 0.3333333333333335 0.333333333333333 0.3333333333333335 0.3333333333333335 0.333333333333333 0.3333333333333335 0.3333333333333335 0.333333333333333 0.3333333333333335 0.3333333333333335 0.333333333333333 0.3333333333333335 0.3333333333333335 0.333333333333333 0.3333333333333335 0.3333333333333335 0.333333333333333 0.3333333333333335 0.3333333333333335 0.333333333333333 0.3333333333333335 0.3333333333333335 0.333333333333333 0.3333333333333335 0.3333333333333335 0.333333333333333 0.3333333333333335 0.3333333333333335 0.333333333333333 0.3333333333333335 0.3333333333333335 0.333333333333333 0.3333333333333335 0.3333333333333335 0.333333333333333 0.3333333333333335 0.3333333333333335 0.333333333333333 0.3333333333333335 0.3333333333333335 0.333333333333333 0.3333333333333335 0.3333333333333335 0.333333333333333 0.3333333333333335 0.3333333333333335 0.333333333333333 0.3333333333333335 0.3333333333333335 0.333333333333333 0.3333333333333335 0.3333333333333335 0.333333333333333 0.3333333333333335 0.3333333333333335 0.333333333333333 0.3333333333333335 0.3333333333333335 0.333333333333333 0.3333333333333335 0.3333333333333335 0.333333333333333 0.3333333333333335 0.3333333333333335 0.333333333333333 0.3333333333333335 0.3333333333333335 0.333333333333333 0.3333333333333335 0.3333333333333335 0.333333333333333 0.3333333333333335 0.3333333333333335 0.333333333333333 0.3333333333333335 0.3333333333333335 0.333333333333333 0.3333333333333335 0.3333333333333335 0.333333333333333 0.3333333333333335 0.3333333333333335 0.333333333333333 0.3333333333333335 0.3333333333333335 0.333333333333333 0.3333333333333335 0.3333333333333335 0.333333333333333 0.3333333333333335 0.3333333333333335 0.333333333333333 0.3333333333333335 0.3333333333333335 0.333333333333333 0.3333333333333335 0.3333333333333335 0.333333333333333 0.3333333333333335 0.3333333333333335 0.333333333333333 0.3333333333333335 0.3333333333333335 0.333333333333333 0.3333333333333335 0.3333333333333335 0.333333333333333 0.3333333333333335 0.3333333333333335 0.333333333333333 0.3333333333333335 0.3333333333333335 0.333333333333333 0.3333333333333335 0.3333333333333335 0.333333333333333 0.3333333333333335 0.3333333333333335 0.333333333333333 0.3333333333333335 0.3333333333333335 0.333333333333333 0.3333333333333335 0.3333333333333335 0.333333333333333 0.3333333333333335 0.3333333333333335 0.333333333333333 0.3333333333333335 0.3333333333333335 0.333333333333333 0.3333333333333335 0.3333333333333335 0.333333333333333 0.3333333333333335 0.3333333333333335 0.333333333333333 0.3333333333333335 0.3333333333333335 0.333333333333333 0.3333333333333335 0.3333333333333335 0.333333333333333 0.3333333333333335 0.3333333333333335 0.333333333333333 0.3333333333333335 0.3333333333333335 0.333333333333333 0.3333333333333335 0.3333333333333335 0.333333333333333 0.3333333333333335 0.3333333333333335 0.333333333333333 0.3333333333333335 0.3333333333333335 0.333333333333333 0.3333333333333335 0.3333333333333335 0.333333333333333 0.3333333333333335 0.3333333333333335 0.333333333333333 0.3333333333333335 0.3333333333333335 0.333333333333333 0.3333333333333335 0.3333333333333335 0.333333333333333 0.3333333333333335 0.3333333333333335 0.333333333333333 0.3333333333333335 0.3333333333333335 0.333333333333333 0.3333333333333335 0.3333333333333335 0.333333333333333 0.3333333333333335 0.3333333333333335 0.333333333333333 0.3333333333333335 0.3333333333333335 0.333333333333333 0.3333333333333335 0.3333333333333335 0.333333333333333 0.3333333333333335 0.3333333333333335 0.333333333333333 0.3333333333333335 0.3333333333333335 0.333333333333333 0.3333333333333335 0.3333333333333335 0.333333333333333 0.3333333333333335 0.3333333333333335 0.333333333333333 0.3333333333333335 0.3333333333333335 0.333333333333333 0.3333333333333335 0.3333333333333335 0.333333333333333 0.3333333333333335 0.3333333333333335 0.333333333333333 0.3333333333333335 0.3333333333333335 0.333333333333333 0.3333333333333335 0.3333333333333335 0.333333333333333 0.3333333333333335 0.3333333333333335 0.333333333333333 0.3333333333333335 0.3333333333333335 0.333333333333333 0.3333333333333335 0.3333333333333335 0.333333333333333 0.3333333333333335 0.3333333333333335 0.333333333333333 0.3333333333333335 0.3333333333333335 0.333333333333333 0.3333333333333335 0.3333333333333335 0.333333333333333 0.3333333333333335 0.3333333333333335 0.333333333333333 0.3333333333333335 0.3333333333333335 0.333333333333333 0.3333333333333335 0.3333333333333335 0.333333333333333 0.3333333333333335 0.3333333333333335 0.333333333333333 0.3333333333333335 0.3333333333333335 0.333333333333333 0.3333333333333335 0.3333333333333335 0.333333333333333 0.3333333333333335 0.3333333333333335 0.333333333333333 0.3333333333333335 0.3333333333333335 0.333333333333333 0.3333333333333335 0.3333333333333335 0.333333333333333 0.3333333333333335 0.3333333333333335 0.333333333333333 0.3333333333333335 0.3333333333333335 0.333333333333333 0.3333333333333335 0.3333333333333335 0.333333333333333 0.3333333333333335 0.3333333333333335 0.333333333333333 0.3333333333333335 0.3333333333333335 0.333333333333333 0.3333333333333335 0.3333333333333335 0.333333333333333 0.3333333333333335 0.3333333333333335 0.333333333333333 0.3333333333333335 0.3333333333333335 0.333333333333333 0.3333333333333335 0.3333333333333335 0.333333333333333 0.3333333333333335 0.3333333333333335 0.333333333333333 0.3333333333333335 0.3333333333333335 0.333333333333333 0.3333333333333335 0.3333333333333335 0.333333333333333 0.3333333333333335 0.3333333333333335 0.333333333333333 0.3333333333333335 0.3333333333333335 0.333333333333333 0.3333333333333335 0.3333333333333335 0.333333333333333 0.3333333333333335 0.3333333333333335 0.333333333333333 0.3333333333333335 0.3333333333333335 0.333333333333333 0.3333333333333335 0.3333333333333335 0.333333333333333 0.3333333333333335 0.3333333333333335 0.333333333333333 0.3333333333333335 0.3333333333333335 0.333333333333333 0.3333333333333335 0.3333333333333335 0.333333333333333 0.3333333333333335 0.3333333333333335 0.333333333333333 0.3333333333333335 0.3333333333333335 0.333333333333333 0.3333333333333335 0.3333333333333335 0.333333333333333 0.3333333333333335 0.3333333333333335 0.333333333333333 0.3333333333333335 0.3333333333333335 0.333333333333333 0.3333333333333335 0.3333333333333335 0.333333333333333 0.3333333333333335 0.3333333333333335 0.333333333333333 0.3333333333333335 0.3333333333333335 0.333333333333333 0.3333333333333335 0.3333333333333335 0.333333333333333 0.3333333333333335 0.3333333333333335 0.333333333333333 0.3333333333333335 0.3333333333333335 0.333333333333333 0.3333333333333335 0.3333333333333335 0.333333333333333 0.3333333333333335 0.3333333333333335 0.333333333333333 0.3333333333333335 0.3333333333333335 0.333333333333333 0.3333333333333335 0.3333333333333335 0.333333333333333 0.3333333333333335 0.3333333333333335 0.333333333333333 0.3333333333333335 0.3333333333333335 0.333333333333333 0.3333333333333335 0.3333333333333335 0.333333333333333 0.3333333333333335 0.3333333333333335 0.333333333333333 0.3333333333333335 0.3333333333333335 0.333333333333333 0.3333333333333335 0.3333333333333335 0.333333333333333 0.3333333333333335 0.3333333333333335 0.333333333333333 0.3333333333333335 0.3333333333333335 0.333333333333333 0.3333333333333335 0.3333333333333335 0.333333333333333 0.3333333333333335 0.3333333333333335 0.333333333333333 0.3333333333333335 0.3333333333333335 0.333333333333333 0.3333333333333335 0.3333333333333335 0.333333333333333 0.3333333333333335 0.3333333333333335 0.333333333333333 0.3333333333333335 0.3333333333333335 0.333333333333333 0.3333333333333335 0.3333333333333335 0.333333333333333 0.3333333333333335 0.3333333333333335 0.333333333333333 0.3333333333333335 0.3333333333333335 0.333333333333333 0.3333333333333335 0.3333333333333335 0.333333333333333 0.3333333333333335 0.3333333333333335 0.333333333333333 0.3333333333333335 0.3333333333333335 0.333333333333333 0.3333333333333335 0.3333333333333335 0.333333333333333 0.3333333333333335 0.3333333333333335 0.333333333333333 0.3333333333333335 0.3333333333333335 0.333333333333333 0.3333333333333335 0.3333333333333335 0.333333333333333 0.3333333333333335 0.3333333333333335 0.333333333333333 0.3333333333333335 0.3333333333333335 0.333333333333333 0.3333333333333335 0.3333333333333335 0.333333333333333 0.3333333333333335 0.3333333333333335 0.333333333333333 0.3333333333333335 0.3333333333333335 0.333333333333333 0.3333333333333335 0.3333333333333335 0.333333333333333 0.3333333333333335 0.3333333333333335 0.333333333333333 0.3333333333333335 0.3333333333333335 0.333333333333333 0.3333333333333335 0.3333333333333335 0.333333333333333 0.3333333333333335 0.3333333333333335 0.333333333333333 0.3333333333333335 0.3333333333333335 0.333333333333333 0.3333333333333335 0.3333333333333335 0.333333333333333 0.3333333333333335 0.3333333333333335 0.333333333333333 0.3333333333333335 0.3333333333333335 0.333333333333333 0.3333333333333335 0.3333333333333335 0.333333333333333 0.3333333333333335 0.3333333333333335 0.333333333333333 0.3333333333333335 0.3333333333333335 0.333333333333333 0.3333333333333335 0.3333333333333335 0.333333333333333 0.3333333333333335 0.3333333333333335 0.333333333333333 0.3333333333333335 0.3333333333333335 0.333333333333333 0.3333333333333335 0.3333333333333335 0.333333333333333 0.3333333333333335 0.3333333333333335 0.333333333333333 0.3333333333333335 0.3333333333333335 0.333333333333333 0.3333333333333335 0.3333333333333335 0.333333333333333 0.3333333333333335 0.3333333333333335 0.333333333333333 0.3333333333333335 0.3333333333333335 0.333333333333333 0.3333333333333335 0.3333333333333335 0.333333333333333 0.3333333333333335 0.3333333333333335 0.333333333333333 0.3333333333333335 0.3333333333333335 0.333333333333333 0.3333333333333335 0.3333333333333335 0.333333333333333 0.3333333333333335 0.3333333333333335 0.333333333333333 0.3333333333333335 0.3333333333333335 0.333333333333333 0.3333333333333335 0.3333333333333335 0.333333333333333 0.3333333333333335 0.3333333333333335 0.333333333333333 0.3333333333333335 0.3333333333333335 0.333333333333333 0.3333333333333335 0.3333333333333335 0.333333333333333 0.3333333333333335 0.3333333333333335 0.333333333333333 0.3333333333333335 0.3333333333333335 0.333333333333333 0.3333333333333335 0.3333333333333335 0.333333333333333 0.3333333333333335 0.3333333333333335 0.333333333333333 0.3333333333333335 0.3333333333333335 0.333333333333333 0.3333333333333335 0.3333333333333335 0.333333333333333 0.3333333333333335 0.3333333333333335 0.333333333333333 0.3333333333333335 0.3333333333333335 0.333333333333333 0.3333333333333335 0.3333333333333335 0.333333333333333 0.3333333333333335 0.3333333333333335 0.333333333333333 0.3333333333333335 0.3333333333333335 0.333333333333333 0.3333333333333335 0.3333333333333335 0.333333333333333 0.3333333333333335 0.3333333333333335 0.333333333333333 0.3333333333333335 0.3333333333333335 0.333333333333333 0.3333333333333335 0.3333333333333335 0.333333333333333 0.3333333333333335 0.3333333333333335 0.333333333333333 0.3333333333333335 0.3333333333333335 0.333333333333333 0.3333333333333335 0.3333333333333335 0.333333333333333 0.3333333333333335 0.3333333333333335 0.333333333333333 0.3333333333333335 0.3333333333333335 0.333333333333333 0.3333333333333335 0.3333333333333335 0.333333333333333 0.3333333333333335 0.3333333333333335 0.333333333333333 0.3333333333333335 0.3333333333333335 0.333333333333333 0.3333333333333335 0.3333333333333335 0.333333333333333 0.3333333333333335 0.3333333333333335 0.333333333333333 0.3333333333333335 0.3333333333333335 0.333333333333333 0.3333333333333335 0.3333333333333335 0.333333333333333 0.3333333333333335 0.3333333333333335 0.333333333333333 0.3333333333333335 0.3333333333333335 0.333333333333333 0.3333333333333335 0.3333333333333335 0.333333333333333 0.3333333333333335 0.3333333333333335 0.333333333333333 0.3333333333333335 0.3333333333333335 0.333333333333333 0.3333333333333335 0.3333333333333335 0.333333333333333 0.3333333333333335 0.3333333333333335 0.333333333333333 0.3333333333333335 0.3333333333333335 0.333333333333333 0.3333333333333335 0.3333333333333335 0.333333333333333 0.3333333333333335 0.3333333333333335 0.333333333333333 0.3333333333333335 0.3333333333333335 0.333333333333333 0.3333333333333335 0.3333333333333335 0.333333333333333 0.3333333333333335 0.3333333333333335 0.333333333333333 0.3333333333333335 0.3333333333333335 0.333333333333333 0.3333333333333335 0.3333333333333335 0.333333333333333 0.3333333333333335 0.3333333333333335 0.333333333333333 0.3333333333333335 0.3333333333333335 0.333333333333333 0.3333333333333335 0.3333333333333335 0.333333333333333 0.3333333333333335 0.3333333333333335 0.333333333333333 0.3333333333333335 0.3333333333333335 0.333333333333333 0.3333333333333335 0.3333333333333335 0.333333333333333 0.3333333333333335 0.3333333333333335 0.333333333333333 0.3333333333333335 0.3333333333333335 0.333333333333333 0.3333333333333335 0.3333333333333335 0.333333333333333 0.3333333333333335 0.3333333333333335 0.333333333333333 0.3333333333333335 0.3333333333333335 0.333333333333333 0.3333333333333335 0.3333333333333335 0.333333333333333 0.3333333333333335 0.3333333333333335 0.333333333333333 0.3333333333333335 0.3333333333333335 0.333333333333333 0.3333333333333335 0.3333333333333335 0.333333333333333 0.3333333333333335 0.3333333333333335 0.333333333333333 0.3333333333333335 0.3333333333333335 0.333333333333333 0.3333333333333335 0.3333333333333335 0.333333333333333 0.3333333333333335 0.3333333333333335 0.333333333333333 0.3333333333333335 0.3333333333333335 0.333333333333333 0.3333333333333335 0.3333333333333335 0.333333333333333 0.3333333333333335 0.3333333333333335 0.333333333333333 0.3333333333333335 0.3333333333333335 0.333333333333333 0.3333333333333335 0.3333333333333335 0.333333333333333 0.3333333333333335 0.3333333333333335 0.333333333333333 0.3333333333333335 0.3333333333333335 0.333333333333333 0.3333333333333335 0.3333333333333335 0.333333333333333 0.3333333333333335 0.3333333333333335 0.333333333333333 0.3333333333333335 0.3333333333333335 0.333333333333333 0.3333333333333335 0.3333333333333335 0.333333333333333 0.3333333333333335 0.3333333333333335 0.333333333333333 0.3333333333333335 0.3333333333333335 0.333333333333333 0.3333333333333335 0.3333333333333335 0.333333333333333 0.3333333333333335 0.3333333333333335 0.333333333333333 0.3333333333333335 0.3333333333333335 0.333333333333333 0.3333333333333335 0.3333333333333335 0.333333333333333 0.3333333333333335 0.3333333333333335 0.333333333333333 0.3333333333333335 0.3333333333333335 0.333333333333333 0.3333333333333335 0.3333333333333335 0.333333333333333 0.3333333333333335 0.3333333333333335 0.333333333333333 0.3333333333333335 0.3333333333333335 0.333333333333333 0.3333333333333335 0.3333333333333335 0.333333333333333 0.3333333333333335 0.3333333333333335 0.333333333333333 0.3333333333333335 0.3333333333333335 0.333333333333333 0.3333333333333335 0.3333333333333335 0.333333333333333 0.3333333333333335 0.3333333333333335 0.333333333333333 0.3333333333333335 0.3333333333333335 0.333333333333333 0.3333333333333335 0.3333333333333335 0.333333333333333 0.3333333333333335 0.3333333333333335 0.333333333333333 0.3333333333333335 0.3333333333333335 0.333333333333333 0.3333333333333335 0.3333333333333335 0.333333333333333 0.3333333333333335 0.3333333333333335 0.333333333333333 0.3333333333333335 0.3333333333333335 0.333333333333333 0.3333333333333335 0.3333333333333335 0.333333333333333 0.3333333333333335 0.3333333333333335 0.333333333333333 0.3333333333333335 0.3333333333333335 0.333333333333333 0.3333333333333335 0.3333333333333335 0.333333333333333 0.3333333333333335 0.3333333333333335 0.333333333333333 0.3333333333333335 0.3333333333333335 0.333333333333333 0.3333333333333335 0.3333333333333335 0.333333333333333 0.3333333333333335 0.3333333333333335 0.333333333333333 0.3333333333333335 0.3333333333333335 0.333333333333333 0.3333333333333335 0.3333333333333335 0.333333333333333 0.3333333333333335 0.3333333333333335 0.333333333333333 0.3333333333333335 0.3333333333333335 0.333333333333333 0.3333333333333335 0.3333333333333335 0.333333333333333 0.3333333333333335 0.3333333333333335 0.333333333333333 0.3333333333333335 0.3333333333333335 0.333333333333333 0.3333333333333335 0.3333333333333335 0.333333333333333 0.3333333333333335 0.3333333333333335 0.333333333333333 0.3333333333333335 0.3333333333333335 0.333333333333333 0.3333333333333335 0.3333333333333335 0.333333333333333 0.3333333333333335 0.3333333333333335 0.333333333333333 0.3333333333333335 0.3333333333333335 0.333333333333333 0.3333333333333335 0.3333333333333335 0.333333333333333 0.3333333333333335 0.3333333333333335 0.333333333333333 0.3333333333333335 0.3333333333333335 0.333333333333333 0.3333333333333335 0.3333333333333335 0.333333333333333 0.3333333333333335 0.3333333333333335 0.333333333333333 0.3333333333333335 0.3333333333333335 0.333333333333333 0.3333333333333335 0.3333333333333335 0.333333333333333 0.3333333333333335 0.3333333333333335 0.333333333333333 0.3333333333333335 0.3333333333333335 0.333333333333333 0.3333333333333335 0.3333333333333335 0.333333333333333 0.3333333333333335 0.3333333333333335 0.333333333333333 0.3333333333333335 0.3333333333333335 0.333333333333333 0.3333333333333335 0.3333333333333335 0.333333333333333 0.3333333333333335 0.3333333333333335 0.333333333333333 0.3333333333333335 0.3333333333333335 0.333333333333333 0.3333333333333335 0.3333333333333335 0.333333333333333 0.3333333333333335 0.3333333333333335 0.333333333333333 0.3333333333333335 0.3333333333333335 0.333333333333333 0.3333333333333335 0.3333333333333335 0.333333333333333 0.3333333333333335 0.3333333333333335 0.333333333333333 0.3333333333333335 0.3333333333333335 0.333333333333333 0.3333333333333335 0.3333333333333335 0.333333333333333 0.3333333333333335 0.3333333333333335 0.333333333333333 0.3333333333333335 0.3333333333333335 0.333333333333333 0.3333333333333335 0.3333333333333335 0.333333333333333 0.3333333333333335 0.3333333333333335 0.333333333333333 0.3333333333333335 0.3333333333333335 0.333333333333333 0.3333333333333335 0.3333333333333335 0.333333333333333 0.3333333333333335 0.3333333333333335 0.333333333333333 0.3333333333333335 0.3333333333333335 0.333333333333333 0.3333333333333335 0.3333333333333335 0.333333333333333 0.3333333333333335 0.3333333333333335 0.333333333333333 0.3333333333333335 0.3333333333333335 0.333333333333333 0.3333333333333335 0.3333333333333335 0.333333333333333 0.3333333333333335 0.3333333333333335 0.333333333333333 0.3333333333333335 0.3333333333333335 0.333333333333333 0.3333333333333335 0.3333333333333335 0.333333333333333 0.3333333333333335 0.3333333333333335 0.333333333333333 0.3333333333333335 0.3333333333333335 0.333333333333333 0.3333333333333335 0.3333333333333335 0.333333333333333 0.3333333333333335 0.3333333333333335 0.333333333333333 0.3333333333333335 0.3333333333333335 0.333333333333333 0.3333333333333335 0.3333333333333335 0.333333333333333 0.3333333333333335 0.3333333333333335 0.333333333333333 0.3333333333333335 0.3333333333333335 0.333333333333333 0.3333333333333335 0.3333333333333335 0.333333333333333 0.3333333333333335 0.3333333333333335 0.333333333333333 0.3333333333333335 0.3333333333333335 0.333333333333333 0.3333333333333335 0.3333333333333335 0.333333333333333 0.3333333333333335 0.3333333333333335 0.333333333333333 0.3333333333333335 0.3333333333333335 0.333333333333333 0.3333333333333335 0.3333333333333335 0.333333333333333 0.3333333333333335 0.3333333333333335 0.333333333333333 0.3333333333333335 0.3333333333333335 0.333333333333333 0.3333333333333335 0.3333333333333335 0.333333333333333 0.3333333333333335 0.3333333333333335 0.333333333333333 0.3333333333333335 0.3333333333333335 0.333333333333333 0.3333333333333335 0.3333333333333335 0.333333333333333 0.3333333333333335 0.3333333333333335 0.333333333333333 0.3333333333333335 0.3333333333333335 0.333333333333333 0.3333333333333335 0.3333333333333335 0.333333333333333 0.3333333333333335 0.3333333333333335 0.333333333333333 0.3333333333333335 0.3333333333333335 0.333333333333333 0.3333333333333335 0.3333333333333335 0.333333333333333 0.3333333333333335 0.3333333333333335 0.333333333333333 0.3333333333333335 0.3333333333333335 0.333333333333333 0.3333333333333335 0.3333333333333335 0.333333333333333 0.3333333333333335 0.3333333333333335 0.333333333333333 0.3333333333333335 0.3333333333333335 0.333333333333333 0.3333333333333335 0.3333333333333335 0.333333333333333 0.3333333333333335 0.3333333333333335 0.333333333333333 0.3333333333333335 0.3333333333333335 0.333333333333333 0.3333333333333335 0.3333333333333335 0.333333333333333 0.3333333333333335 0.3333333333333335 0.333333333333333 0.3333333333333335 0.3333333333333335 0.333333333333333 0.3333333333333335 0.3333333333333335 0.333333333333333 0.3333333333333335 0.3333333333333335 0.333333333333333 0.3333333333333335 0.3333333333333335 0.333333333333333 0.3333333333333335 0.3333333333333335 0.333333333333333 0.3333333333333335 0.3333333333333335 0.333333333333333 0.3333333333333335 0.3333333333333335 0.333333333333333 0.3333333333333335 0.3333333333333335 0.333333333333333 0.3333333333333335 0.3333333333333335 0.333333333333333 0.3333333333333335 0.3333333333333335 0.333333333333333 0.3333333333333335 0.3333333333333335 0.333333333333333 0.3333333333333335 0.3333333333333335 0.333333333333333 0.3333333333333335 0.3333333333333335 0.333333333333333 0.3333333333333335 0.3333333333333335 0.333333333333333 0.3333333333333335 0.3333333333333335 0.333333333333333 0.3333333333333335 0.3333333333333335 0.333333333333333 0.3333333333333335 0.3333333333333335 0.333333333333333 0.3333333333333335 0.3333333333333335 0.333333333333333 0.3333333333333335 0.3333333333333335 0.333333333333333 0.3333333333333335 0.3333333333333335 0.333333333333333 0.3333333333333335 0.3333333333333335 0.333333333333333 0.3333333333333335 0.3333333333333335 0.333333333333333 0.3333333333333335 0.3333333333333335 0.333333333333333 0.3333333333333335 0.3333333333333335 0.333333333333333</probabilities>
		</cpt>
		<cpt id="faceDirection">
			<state id="None_HAE_Face" />
			<state id="Far_Center_Face" />
			<state id="Center_Face" />
			<parents>attentionLevel</parents>
			<probabilities>0.5850901313779408 0.2936144210204705 0.1212954476015888 0.03453136011275546 0.474277660324172 0.4911909795630726 0.2092815707273539 0.179830432842481 0.6108879964301651</probabilities>
		</cpt>
		<cpt id="bodyDirection">
			<state id="None_HAE_Body" />
			<state id="Far_Center_Body" />
			<state id="Near_Center_Body" />
			<state id="Center_Body" />
			<parents>attentionLevel</parents>
			<probabilities>0.6803391384051329 0.2055453712190651 0.05522456461961503 0.05889092575618699 0.3895348837209303 0.1273784355179704 0.1950317124735729 0.2880549682875264 0.02710843373493976 0.2091700133868809 0.1288487282463186 0.6348728246318608</probabilities>
		</cpt>
		<cpt id="audioInput">
			<state id="None" />
			<state id="Low" />
			<state id="Medium" />
			<state id="High" />
			<parents>attentionLevel audioNoise</parents>
			<probabilities>0.9479835013748854 0.04422548120989918 0.003895508707607699 0.003895508707607699 0.25 0.25 0.25 0.25 0.25 0.25 0.25 0.25 0.25 0.25 0.25 0.25 0.9138477801268499 0.05972515856236787 0.0258985200845666 0.0005285412262156448 0.25 0.25 0.25 0.25 0.25 0.25 0.25 0.25 0.25 0.25 0.25 0.25 0.6589692101740294 0.1127844712182062 0.1609772423025435 0.06726907630522089 0.25 0.25 0.25 0.25 0.25 0.25 0.25 0.25 0.25 0.25 0.25 0.25</probabilities>
		</cpt>
		<cpt id="robotMotionSpeed_1">
			<state id="Low" />
			<state id="Medium" />
			<state id="High" />
			<parents>robotMotionSpeed</parents>
			<probabilities>0.9996150885296383 0.0001924557351809084 0.0001924557351809085 0.3333333333333333 0.3333333333333333 0.3333333333333334 0.3333333333333333 0.3333333333333333 0.3333333333333334</probabilities>
		</cpt>
		<cpt id="robotPose_1">
			<state id="Far" />
			<state id="Medium" />
			<state id="Close" />
			<parents>robotPose</parents>
			<probabilities>0.8698140200286124 0.09084406294706726 0.03934191702432046 0.02742073693230505 0.918166238217652 0.05441302485004284 0.07414965986394559 0.04353741496598639 0.882312925170068</probabilities>
		</cpt>
		<cpt id="robotSoundVolume_1">
			<state id="Low" />
			<state id="Medium" />
			<state id="High" />
			<parents>audioNoise robotSoundVolume</parents>
			<probabilities>0.9996150885296383 0.0001924557351809084 0.0001924557351809085 0.3333333333333333 0.3333333333333333 0.3333333333333334 0.3333333333333333 0.3333333333333333 0.3333333333333334 0.3333333333333333 0.3333333333333333 0.3333333333333334 0.3333333333333333 0.3333333333333333 0.3333333333333334 0.3333333333333333 0.3333333333333333 0.3333333333333334 0.3333333333333333 0.3333333333333333 0.3333333333333334 0.3333333333333333 0.3333333333333333 0.3333333333333334 0.3333333333333333 0.3333333333333333 0.3333333333333334 0.3333333333333333 0.3333333333333333 0.3333333333333334 0.3333333333333333 0.3333333333333333 0.3333333333333334 0.3333333333333333 0.3333333333333333 0.3333333333333334</probabilities>
		</cpt>
		<cpt id="attentionLevel_1">
			<state id="Neglect" />
			<state id="Contingency" />
			<state id="AttentionHigh" />
			<parents>attentionContext audioNoise robotSoundVolume_1 robotPose_1 robotMotionSpeed_1 attentionLevel</parents>
			<probabilities>0.8784596871239471 0.1203369434416366 0.001203369434416365 0.1711711711711712 0.8198198198198198 0.009009009009009 0.1611479028697572 0.002207505518763798 0.836644591611479 0.3333333333333335 0.3333333333333335 0.333333333333333 0.3333333333333335 0.3333333333333335 0.333333333333333 0.3333333333333335 0.3333333333333335 0.333333333333333 0.3333333333333335 0.3333333333333335 0.333333333333333 0.3333333333333335 0.3333333333333335 0.333333333333333 0.3333333333333335 0.3333333333333335 0.333333333333333 0.8560115190784738 0.1432685385169187 0.0007199424046076307 0.2653333333333333 0.6733333333333333 0.06133333333333332 0.04975124378109453 0.004975124378109455 0.9452736318407961 0.3333333333333335 0.3333333333333335 0.333333333333333 0.3333333333333335 0.3333333333333335 0.333333333333333 0.3333333333333335 0.3333333333333335 0.333333333333333 0.3333333333333335 0.3333333333333335 0.333333333333333 0.3333333333333335 0.3333333333333335 0.333333333333333 0.3333333333333335 0.3333333333333335 0.333333333333333 0.7723577235772358 0.2235772357723577 0.0040650406504065 0.2190476190476191 0.5619047619047619 0.219047619047619 0.000971817298347911 0.000971817298347911 0.9980563654033041 0.3333333333333335 0.3333333333333335 0.333333333333333 0.3333333333333335 0.3333333333333335 0.333333333333333 0.3333333333333335 0.3333333333333335 0.333333333333333 0.3333333333333335 0.3333333333333335 0.333333333333333 0.3333333333333335 0.3333333333333335 0.333333333333333 0.3333333333333335 0.3333333333333335 0.333333333333333 0.3333333333333335 0.3333333333333335 0.333333333333333 0.3333333333333335 0.3333333333333335 0.333333333333333 0.3333333333333335 0.3333333333333335 0.333333333333333 0.3333333333333335 0.3333333333333335 0.333333333333333 0.3333333333333335 0.3333333333333335 0.333333333333333 0.3333333333333335 0.3333333333333335 0.333333333333333 0.3333333333333335 0.3333333333333335 0.333333333333333 0.3333333333333335 0.3333333333333335 0.333333333333333 0.3333333333333335 0.3333333333333335 0.333333333333333 0.3333333333333335 0.3333333333333335 0.333333333333333 0.3333333333333335 0.3333333333333335 0.333333333333333 0.3333333333333335 0.3333333333333335 0.333333333333333 0.3333333333333335 0.3333333333333335 0.333333333333333 0.3333333333333335 0.3333333333333335 0.333333333333333 0.3333333333333335 0.3333333333333335 0.333333333333333 0.3333333333333335 0.3333333333333335 0.333333333333333 0.3333333333333335 0.3333333333333335 0.333333333333333 0.3333333333333335 0.3333333333333335 0.333333333333333 0.3333333333333335 0.3333333333333335 0.333333333333333 0.3333333333333335 0.3333333333333335 0.333333333333333 0.3333333333333335 0.3333333333333335 0.333333333333333 0.3333333333333335 0.3333333333333335 0.333333333333333 0.3333333333333335 0.3333333333333335 0.333333333333333 0.3333333333333335 0.3333333333333335 0.333333333333333 0.3333333333333335 0.3333333333333335 0.333333333333333 0.3333333333333335 0.3333333333333335 0.333333333333333 0.3333333333333335 0.3333333333333335 0.333333333333333 0.3333333333333335 0.3333333333333335 0.333333333333333 0.3333333333333335 0.3333333333333335 0.333333333333333 0.3333333333333335 0.3333333333333335 0.333333333333333 0.3333333333333335 0.3333333333333335 0.333333333333333 0.3333333333333335 0.3333333333333335 0.333333333333333 0.3333333333333335 0.3333333333333335 0.333333333333333 0.3333333333333335 0.3333333333333335 0.333333333333333 0.3333333333333335 0.3333333333333335 0.333333333333333 0.3333333333333335 0.3333333333333335 0.333333333333333 0.3333333333333335 0.3333333333333335 0.333333333333333 0.3333333333333335 0.3333333333333335 0.333333333333333 0.3333333333333335 0.3333333333333335 0.333333333333333 0.3333333333333335 0.3333333333333335 0.333333333333333 0.3333333333333335 0.3333333333333335 0.333333333333333 0.3333333333333335 0.3333333333333335 0.333333333333333 0.3333333333333335 0.3333333333333335 0.333333333333333 0.3333333333333335 0.3333333333333335 0.333333333333333 0.3333333333333335 0.3333333333333335 0.333333333333333 0.3333333333333335 0.3333333333333335 0.333333333333333 0.3333333333333335 0.3333333333333335 0.333333333333333 0.3333333333333335 0.3333333333333335 0.333333333333333 0.3333333333333335 0.3333333333333335 0.333333333333333 0.3333333333333335 0.3333333333333335 0.333333333333333 0.3333333333333335 0.3333333333333335 0.333333333333333 0.3333333333333335 0.3333333333333335 0.333333333333333 0.3333333333333335 0.3333333333333335 0.333333333333333 0.3333333333333335 0.3333333333333335 0.333333333333333 0.3333333333333335 0.3333333333333335 0.333333333333333 0.3333333333333335 0.3333333333333335 0.333333333333333 0.3333333333333335 0.3333333333333335 0.333333333333333 0.3333333333333335 0.3333333333333335 0.333333333333333 0.3333333333333335 0.3333333333333335 0.333333333333333 0.3333333333333335 0.3333333333333335 0.333333333333333 0.3333333333333335 0.3333333333333335 0.333333333333333 0.3333333333333335 0.3333333333333335 0.333333333333333 0.3333333333333335 0.3333333333333335 0.333333333333333 0.3333333333333335 0.3333333333333335 0.333333333333333 0.3333333333333335 0.3333333333333335 0.333333333333333 0.3333333333333335 0.3333333333333335 0.333333333333333 0.3333333333333335 0.3333333333333335 0.333333333333333 0.3333333333333335 0.3333333333333335 0.333333333333333 0.3333333333333335 0.3333333333333335 0.333333333333333 0.3333333333333335 0.3333333333333335 0.333333333333333 0.3333333333333335 0.3333333333333335 0.333333333333333 0.3333333333333335 0.3333333333333335 0.333333333333333 0.3333333333333335 0.3333333333333335 0.333333333333333 0.3333333333333335 0.3333333333333335 0.333333333333333 0.3333333333333335 0.3333333333333335 0.333333333333333 0.3333333333333335 0.3333333333333335 0.333333333333333 0.3333333333333335 0.3333333333333335 0.333333333333333 0.3333333333333335 0.3333333333333335 0.333333333333333 0.3333333333333335 0.3333333333333335 0.333333333333333 0.3333333333333335 0.3333333333333335 0.333333333333333 0.3333333333333335 0.3333333333333335 0.333333333333333 0.3333333333333335 0.3333333333333335 0.333333333333333 0.3333333333333335 0.3333333333333335 0.333333333333333 0.3333333333333335 0.3333333333333335 0.333333333333333 0.3333333333333335 0.3333333333333335 0.333333333333333 0.3333333333333335 0.3333333333333335 0.333333333333333 0.3333333333333335 0.3333333333333335 0.333333333333333 0.3333333333333335 0.3333333333333335 0.333333333333333 0.3333333333333335 0.3333333333333335 0.333333333333333 0.3333333333333335 0.3333333333333335 0.333333333333333 0.3333333333333335 0.3333333333333335 0.333333333333333 0.3333333333333335 0.3333333333333335 0.333333333333333 0.3333333333333335 0.3333333333333335 0.333333333333333 0.3333333333333335 0.3333333333333335 0.333333333333333 0.3333333333333335 0.3333333333333335 0.333333333333333 0.3333333333333335 0.3333333333333335 0.333333333333333 0.3333333333333335 0.3333333333333335 0.333333333333333 0.3333333333333335 0.3333333333333335 0.333333333333333 0.3333333333333335 0.3333333333333335 0.333333333333333 0.3333333333333335 0.3333333333333335 0.333333333333333 0.3333333333333335 0.3333333333333335 0.333333333333333 0.3333333333333335 0.3333333333333335 0.333333333333333 0.3333333333333335 0.3333333333333335 0.333333333333333 0.3333333333333335 0.3333333333333335 0.333333333333333 0.3333333333333335 0.3333333333333335 0.333333333333333 0.3333333333333335 0.3333333333333335 0.333333333333333 0.3333333333333335 0.3333333333333335 0.333333333333333 0.3333333333333335 0.3333333333333335 0.333333333333333 0.3333333333333335 0.3333333333333335 0.333333333333333 0.3333333333333335 0.3333333333333335 0.333333333333333 0.3333333333333335 0.3333333333333335 0.333333333333333 0.3333333333333335 0.3333333333333335 0.333333333333333 0.3333333333333335 0.3333333333333335 0.333333333333333 0.3333333333333335 0.3333333333333335 0.333333333333333 0.3333333333333335 0.3333333333333335 0.333333333333333 0.3333333333333335 0.3333333333333335 0.333333333333333 0.3333333333333335 0.3333333333333335 0.333333333333333 0.3333333333333335 0.3333333333333335 0.333333333333333 0.3333333333333335 0.3333333333333335 0.333333333333333 0.3333333333333335 0.3333333333333335 0.333333333333333 0.3333333333333335 0.3333333333333335 0.333333333333333 0.3333333333333335 0.3333333333333335 0.333333333333333 0.3333333333333335 0.3333333333333335 0.333333333333333 0.3333333333333335 0.3333333333333335 0.333333333333333 0.3333333333333335 0.3333333333333335 0.333333333333333 0.3333333333333335 0.3333333333333335 0.333333333333333 0.3333333333333335 0.3333333333333335 0.333333333333333 0.3333333333333335 0.3333333333333335 0.333333333333333 0.3333333333333335 0.3333333333333335 0.333333333333333 0.3333333333333335 0.3333333333333335 0.333333333333333 0.3333333333333335 0.3333333333333335 0.333333333333333 0.3333333333333335 0.3333333333333335 0.333333333333333 0.3333333333333335 0.3333333333333335 0.333333333333333 0.3333333333333335 0.3333333333333335 0.333333333333333 0.3333333333333335 0.3333333333333335 0.333333333333333 0.3333333333333335 0.3333333333333335 0.333333333333333 0.3333333333333335 0.3333333333333335 0.333333333333333 0.3333333333333335 0.3333333333333335 0.333333333333333 0.3333333333333335 0.3333333333333335 0.333333333333333 0.3333333333333335 0.3333333333333335 0.333333333333333 0.3333333333333335 0.3333333333333335 0.333333333333333 0.3333333333333335 0.3333333333333335 0.333333333333333 0.3333333333333335 0.3333333333333335 0.333333333333333 0.3333333333333335 0.3333333333333335 0.333333333333333 0.3333333333333335 0.3333333333333335 0.333333333333333 0.3333333333333335 0.3333333333333335 0.333333333333333 0.3333333333333335 0.3333333333333335 0.333333333333333 0.3333333333333335 0.3333333333333335 0.333333333333333 0.3333333333333335 0.3333333333333335 0.333333333333333 0.3333333333333335 0.3333333333333335 0.333333333333333 0.3333333333333335 0.3333333333333335 0.333333333333333 0.3333333333333335 0.3333333333333335 0.333333333333333 0.3333333333333335 0.3333333333333335 0.333333333333333 0.3333333333333335 0.3333333333333335 0.333333333333333 0.3333333333333335 0.3333333333333335 0.333333333333333 0.3333333333333335 0.3333333333333335 0.333333333333333 0.3333333333333335 0.3333333333333335 0.333333333333333 0.3333333333333335 0.3333333333333335 0.333333333333333 0.3333333333333335 0.3333333333333335 0.333333333333333 0.3333333333333335 0.3333333333333335 0.333333333333333 0.3333333333333335 0.3333333333333335 0.333333333333333 0.3333333333333335 0.3333333333333335 0.333333333333333 0.3333333333333335 0.3333333333333335 0.333333333333333 0.3333333333333335 0.3333333333333335 0.333333333333333 0.3333333333333335 0.3333333333333335 0.333333333333333 0.3333333333333335 0.3333333333333335 0.333333333333333 0.3333333333333335 0.3333333333333335 0.333333333333333 0.3333333333333335 0.3333333333333335 0.333333333333333 0.3333333333333335 0.3333333333333335 0.333333333333333 0.3333333333333335 0.3333333333333335 0.333333333333333 0.3333333333333335 0.3333333333333335 0.333333333333333 0.3333333333333335 0.3333333333333335 0.333333333333333 0.3333333333333335 0.3333333333333335 0.333333333333333 0.3333333333333335 0.3333333333333335 0.333333333333333 0.3333333333333335 0.3333333333333335 0.333333333333333 0.3333333333333335 0.3333333333333335 0.333333333333333 0.3333333333333335 0.3333333333333335 0.333333333333333 0.3333333333333335 0.3333333333333335 0.333333333333333 0.3333333333333335 0.3333333333333335 0.333333333333333 0.3333333333333335 0.3333333333333335 0.333333333333333 0.3333333333333335 0.3333333333333335 0.333333333333333 0.3333333333333335 0.3333333333333335 0.333333333333333 0.3333333333333335 0.3333333333333335 0.333333333333333 0.3333333333333335 0.3333333333333335 0.333333333333333 0.3333333333333335 0.3333333333333335 0.333333333333333 0.3333333333333335 0.3333333333333335 0.333333333333333 0.3333333333333335 0.3333333333333335 0.333333333333333 0.3333333333333335 0.3333333333333335 0.333333333333333 0.3333333333333335 0.3333333333333335 0.333333333333333 0.3333333333333335 0.3333333333333335 0.333333333333333 0.3333333333333335 0.3333333333333335 0.333333333333333 0.3333333333333335 0.3333333333333335 0.333333333333333 0.3333333333333335 0.3333333333333335 0.333333333333333 0.3333333333333335 0.3333333333333335 0.333333333333333 0.3333333333333335 0.3333333333333335 0.333333333333333 0.3333333333333335 0.3333333333333335 0.333333333333333 0.3333333333333335 0.3333333333333335 0.333333333333333 0.3333333333333335 0.3333333333333335 0.333333333333333 0.3333333333333335 0.3333333333333335 0.333333333333333 0.3333333333333335 0.3333333333333335 0.333333333333333 0.3333333333333335 0.3333333333333335 0.333333333333333 0.3333333333333335 0.3333333333333335 0.333333333333333 0.3333333333333335 0.3333333333333335 0.333333333333333 0.3333333333333335 0.3333333333333335 0.333333333333333 0.3333333333333335 0.3333333333333335 0.333333333333333 0.3333333333333335 0.3333333333333335 0.333333333333333 0.3333333333333335 0.3333333333333335 0.333333333333333 0.3333333333333335 0.3333333333333335 0.333333333333333 0.3333333333333335 0.3333333333333335 0.333333333333333 0.3333333333333335 0.3333333333333335 0.333333333333333 0.3333333333333335 0.3333333333333335 0.333333333333333 0.3333333333333335 0.3333333333333335 0.333333333333333 0.3333333333333335 0.3333333333333335 0.333333333333333 0.3333333333333335 0.3333333333333335 0.333333333333333 0.3333333333333335 0.3333333333333335 0.333333333333333 0.3333333333333335 0.3333333333333335 0.333333333333333 0.3333333333333335 0.3333333333333335 0.333333333333333 0.3333333333333335 0.3333333333333335 0.333333333333333 0.3333333333333335 0.3333333333333335 0.333333333333333 0.3333333333333335 0.3333333333333335 0.333333333333333 0.3333333333333335 0.3333333333333335 0.333333333333333 0.3333333333333335 0.3333333333333335 0.333333333333333 0.3333333333333335 0.3333333333333335 0.333333333333333 0.3333333333333335 0.3333333333333335 0.333333333333333 0.3333333333333335 0.3333333333333335 0.333333333333333 0.3333333333333335 0.3333333333333335 0.333333333333333 0.3333333333333335 0.3333333333333335 0.333333333333333 0.3333333333333335 0.3333333333333335 0.333333333333333 0.3333333333333335 0.3333333333333335 0.333333333333333 0.3333333333333335 0.3333333333333335 0.333333333333333 0.3333333333333335 0.3333333333333335 0.333333333333333 0.3333333333333335 0.3333333333333335 0.333333333333333 0.3333333333333335 0.3333333333333335 0.333333333333333 0.3333333333333335 0.3333333333333335 0.333333333333333 0.3333333333333335 0.3333333333333335 0.333333333333333 0.3333333333333335 0.3333333333333335 0.333333333333333 0.3333333333333335 0.3333333333333335 0.333333333333333 0.3333333333333335 0.3333333333333335 0.333333333333333 0.3333333333333335 0.3333333333333335 0.333333333333333 0.3333333333333335 0.3333333333333335 0.333333333333333 0.3333333333333335 0.3333333333333335 0.333333333333333 0.3333333333333335 0.3333333333333335 0.333333333333333 0.3333333333333335 0.3333333333333335 0.333333333333333 0.3333333333333335 0.3333333333333335 0.333333333333333 0.3333333333333335 0.3333333333333335 0.333333333333333 0.3333333333333335 0.3333333333333335 0.333333333333333 0.3333333333333335 0.3333333333333335 0.333333333333333 0.3333333333333335 0.3333333333333335 0.333333333333333 0.3333333333333335 0.3333333333333335 0.333333333333333 0.3333333333333335 0.3333333333333335 0.333333333333333 0.3333333333333335 0.3333333333333335 0.333333333333333 0.3333333333333335 0.3333333333333335 0.333333333333333 0.3333333333333335 0.3333333333333335 0.333333333333333 0.3333333333333335 0.3333333333333335 0.333333333333333 0.3333333333333335 0.3333333333333335 0.333333333333333 0.3333333333333335 0.3333333333333335 0.333333333333333 0.3333333333333335 0.3333333333333335 0.333333333333333 0.3333333333333335 0.3333333333333335 0.333333333333333 0.3333333333333335 0.3333333333333335 0.333333333333333 0.3333333333333335 0.3333333333333335 0.333333333333333 0.3333333333333335 0.3333333333333335 0.333333333333333 0.3333333333333335 0.3333333333333335 0.333333333333333 0.3333333333333335 0.3333333333333335 0.333333333333333 0.3333333333333335 0.3333333333333335 0.333333333333333 0.3333333333333335 0.3333333333333335 0.333333333333333 0.3333333333333335 0.3333333333333335 0.333333333333333 0.3333333333333335 0.3333333333333335 0.333333333333333 0.3333333333333335 0.3333333333333335 0.333333333333333 0.3333333333333335 0.3333333333333335 0.333333333333333 0.3333333333333335 0.3333333333333335 0.333333333333333 0.3333333333333335 0.3333333333333335 0.333333333333333 0.3333333333333335 0.3333333333333335 0.333333333333333 0.3333333333333335 0.3333333333333335 0.333333333333333 0.3333333333333335 0.3333333333333335 0.333333333333333 0.3333333333333335 0.3333333333333335 0.333333333333333 0.3333333333333335 0.3333333333333335 0.333333333333333 0.3333333333333335 0.3333333333333335 0.333333333333333 0.3333333333333335 0.3333333333333335 0.333333333333333 0.3333333333333335 0.3333333333333335 0.333333333333333 0.3333333333333335 0.3333333333333335 0.333333333333333 0.3333333333333335 0.3333333333333335 0.333333333333333 0.3333333333333335 0.3333333333333335 0.333333333333333 0.3333333333333335 0.3333333333333335 0.333333333333333 0.3333333333333335 0.3333333333333335 0.333333333333333 0.3333333333333335 0.3333333333333335 0.333333333333333 0.3333333333333335 0.3333333333333335 0.333333333333333 0.3333333333333335 0.3333333333333335 0.333333333333333 0.3333333333333335 0.3333333333333335 0.333333333333333 0.3333333333333335 0.3333333333333335 0.333333333333333 0.3333333333333335 0.3333333333333335 0.333333333333333 0.3333333333333335 0.3333333333333335 0.333333333333333 0.3333333333333335 0.3333333333333335 0.333333333333333 0.3333333333333335 0.3333333333333335 0.333333333333333 0.3333333333333335 0.3333333333333335 0.333333333333333 0.3333333333333335 0.3333333333333335 0.333333333333333 0.3333333333333335 0.3333333333333335 0.333333333333333 0.3333333333333335 0.3333333333333335 0.333333333333333 0.3333333333333335 0.3333333333333335 0.333333333333333 0.3333333333333335 0.3333333333333335 0.333333333333333 0.3333333333333335 0.3333333333333335 0.333333333333333 0.3333333333333335 0.3333333333333335 0.333333333333333 0.3333333333333335 0.3333333333333335 0.333333333333333 0.3333333333333335 0.3333333333333335 0.333333333333333 0.3333333333333335 0.3333333333333335 0.333333333333333 0.3333333333333335 0.3333333333333335 0.333333333333333 0.3333333333333335 0.3333333333333335 0.333333333333333 0.3333333333333335 0.3333333333333335 0.333333333333333 0.3333333333333335 0.3333333333333335 0.333333333333333 0.3333333333333335 0.3333333333333335 0.333333333333333 0.3333333333333335 0.3333333333333335 0.333333333333333 0.3333333333333335 0.3333333333333335 0.333333333333333 0.3333333333333335 0.3333333333333335 0.333333333333333 0.3333333333333335 0.3333333333333335 0.333333333333333 0.3333333333333335 0.3333333333333335 0.333333333333333 0.3333333333333335 0.3333333333333335 0.333333333333333 0.3333333333333335 0.3333333333333335 0.333333333333333 0.3333333333333335 0.3333333333333335 0.333333333333333 0.3333333333333335 0.3333333333333335 0.333333333333333 0.3333333333333335 0.3333333333333335 0.333333333333333 0.3333333333333335 0.3333333333333335 0.333333333333333 0.3333333333333335 0.3333333333333335 0.333333333333333 0.3333333333333335 0.3333333333333335 0.333333333333333 0.3333333333333335 0.3333333333333335 0.333333333333333 0.3333333333333335 0.3333333333333335 0.333333333333333 0.3333333333333335 0.3333333333333335 0.333333333333333 0.3333333333333335 0.3333333333333335 0.333333333333333 0.3333333333333335 0.3333333333333335 0.333333333333333 0.3333333333333335 0.3333333333333335 0.333333333333333 0.3333333333333335 0.3333333333333335 0.333333333333333 0.3333333333333335 0.3333333333333335 0.333333333333333 0.3333333333333335 0.3333333333333335 0.333333333333333 0.3333333333333335 0.3333333333333335 0.333333333333333 0.3333333333333335 0.3333333333333335 0.333333333333333 0.3333333333333335 0.3333333333333335 0.333333333333333 0.3333333333333335 0.3333333333333335 0.333333333333333 0.3333333333333335 0.3333333333333335 0.333333333333333 0.3333333333333335 0.3333333333333335 0.333333333333333 0.3333333333333335 0.3333333333333335 0.333333333333333 0.3333333333333335 0.3333333333333335 0.333333333333333 0.3333333333333335 0.3333333333333335 0.333333333333333 0.3333333333333335 0.3333333333333335 0.333333333333333 0.3333333333333335 0.3333333333333335 0.333333333333333 0.3333333333333335 0.3333333333333335 0.333333333333333 0.3333333333333335 0.3333333333333335 0.333333333333333 0.3333333333333335 0.3333333333333335 0.333333333333333 0.3333333333333335 0.3333333333333335 0.333333333333333 0.3333333333333335 0.3333333333333335 0.333333333333333 0.3333333333333335 0.3333333333333335 0.333333333333333 0.3333333333333335 0.3333333333333335 0.333333333333333 0.3333333333333335 0.3333333333333335 0.333333333333333 0.3333333333333335 0.3333333333333335 0.333333333333333 0.3333333333333335 0.3333333333333335 0.333333333333333 0.3333333333333335 0.3333333333333335 0.333333333333333 0.3333333333333335 0.3333333333333335 0.333333333333333 0.3333333333333335 0.3333333333333335 0.333333333333333 0.3333333333333335 0.3333333333333335 0.333333333333333 0.3333333333333335 0.3333333333333335 0.333333333333333 0.3333333333333335 0.3333333333333335 0.333333333333333 0.3333333333333335 0.3333333333333335 0.333333333333333 0.3333333333333335 0.3333333333333335 0.333333333333333 0.3333333333333335 0.3333333333333335 0.333333333333333 0.3333333333333335 0.3333333333333335 0.333333333333333 0.3333333333333335 0.3333333333333335 0.333333333333333 0.3333333333333335 0.3333333333333335 0.333333333333333 0.3333333333333335 0.3333333333333335 0.333333333333333 0.3333333333333335 0.3333333333333335 0.333333333333333 0.3333333333333335 0.3333333333333335 0.333333333333333 0.3333333333333335 0.3333333333333335 0.333333333333333 0.3333333333333335 0.3333333333333335 0.333333333333333 0.3333333333333335 0.3333333333333335 0.333333333333333 0.3333333333333335 0.3333333333333335 0.333333333333333 0.3333333333333335 0.3333333333333335 0.333333333333333 0.3333333333333335 0.3333333333333335 0.333333333333333 0.3333333333333335 0.3333333333333335 0.333333333333333 0.3333333333333335 0.3333333333333335 0.333333333333333 0.3333333333333335 0.3333333333333335 0.333333333333333 0.3333333333333335 0.3333333333333335 0.333333333333333 0.3333333333333335 0.3333333333333335 0.333333333333333 0.3333333333333335 0.3333333333333335 0.333333333333333 0.3333333333333335 0.3333333333333335 0.333333333333333 0.3333333333333335 0.3333333333333335 0.333333333333333 0.3333333333333335 0.3333333333333335 0.333333333333333 0.3333333333333335 0.3333333333333335 0.333333333333333 0.3333333333333335 0.3333333333333335 0.333333333333333 0.3333333333333335 0.3333333333333335 0.333333333333333 0.3333333333333335 0.3333333333333335 0.333333333333333 0.3333333333333335 0.3333333333333335 0.333333333333333 0.3333333333333335 0.3333333333333335 0.333333333333333 0.3333333333333335 0.3333333333333335 0.333333333333333 0.3333333333333335 0.3333333333333335 0.333333333333333 0.3333333333333335 0.3333333333333335 0.333333333333333 0.3333333333333335 0.3333333333333335 0.333333333333333 0.3333333333333335 0.3333333333333335 0.333333333333333 0.3333333333333335 0.3333333333333335 0.333333333333333 0.3333333333333335 0.3333333333333335 0.333333333333333 0.3333333333333335 0.3333333333333335 0.333333333333333 0.3333333333333335 0.3333333333333335 0.333333333333333 0.3333333333333335 0.3333333333333335 0.333333333333333 0.3333333333333335 0.3333333333333335 0.333333333333333 0.3333333333333335 0.3333333333333335 0.333333333333333 0.3333333333333335 0.3333333333333335 0.333333333333333 0.3333333333333335 0.3333333333333335 0.333333333333333 0.3333333333333335 0.3333333333333335 0.333333333333333 0.3333333333333335 0.3333333333333335 0.333333333333333 0.3333333333333335 0.3333333333333335 0.333333333333333 0.3333333333333335 0.3333333333333335 0.333333333333333 0.3333333333333335 0.3333333333333335 0.333333333333333 0.3333333333333335 0.3333333333333335 0.333333333333333 0.3333333333333335 0.3333333333333335 0.333333333333333 0.3333333333333335 0.3333333333333335 0.333333333333333 0.3333333333333335 0.3333333333333335 0.333333333333333 0.3333333333333335 0.3333333333333335 0.333333333333333 0.3333333333333335 0.3333333333333335 0.333333333333333 0.3333333333333335 0.3333333333333335 0.333333333333333 0.3333333333333335 0.3333333333333335 0.333333333333333 0.3333333333333335 0.3333333333333335 0.333333333333333 0.3333333333333335 0.3333333333333335 0.333333333333333 0.3333333333333335 0.3333333333333335 0.333333333333333 0.3333333333333335 0.3333333333333335 0.333333333333333 0.3333333333333335 0.3333333333333335 0.333333333333333 0.3333333333333335 0.3333333333333335 0.333333333333333 0.3333333333333335 0.3333333333333335 0.333333333333333 0.3333333333333335 0.3333333333333335 0.333333333333333 0.3333333333333335 0.3333333333333335 0.333333333333333 0.3333333333333335 0.3333333333333335 0.333333333333333 0.3333333333333335 0.3333333333333335 0.333333333333333 0.3333333333333335 0.3333333333333335 0.333333333333333 0.3333333333333335 0.3333333333333335 0.333333333333333 0.3333333333333335 0.3333333333333335 0.333333333333333 0.3333333333333335 0.3333333333333335 0.333333333333333 0.3333333333333335 0.3333333333333335 0.333333333333333 0.3333333333333335 0.3333333333333335 0.333333333333333 0.3333333333333335 0.3333333333333335 0.333333333333333 0.3333333333333335 0.3333333333333335 0.333333333333333 0.3333333333333335 0.3333333333333335 0.333333333333333 0.3333333333333335 0.3333333333333335 0.333333333333333 0.3333333333333335 0.3333333333333335 0.333333333333333 0.3333333333333335 0.3333333333333335 0.333333333333333 0.3333333333333335 0.3333333333333335 0.333333333333333 0.3333333333333335 0.3333333333333335 0.333333333333333 0.3333333333333335 0.3333333333333335 0.333333333333333 0.3333333333333335 0.3333333333333335 0.333333333333333 0.3333333333333335 0.3333333333333335 0.333333333333333 0.3333333333333335 0.3333333333333335 0.333333333333333 0.3333333333333335 0.3333333333333335 0.333333333333333 0.3333333333333335 0.3333333333333335 0.333333333333333 0.3333333333333335 0.3333333333333335 0.333333333333333 0.3333333333333335 0.3333333333333335 0.333333333333333 0.3333333333333335 0.3333333333333335 0.333333333333333 0.3333333333333335 0.3333333333333335 0.333333333333333 0.3333333333333335 0.3333333333333335 0.333333333333333 0.3333333333333335 0.3333333333333335 0.333333333333333 0.3333333333333335 0.3333333333333335 0.333333333333333 0.3333333333333335 0.3333333333333335 0.333333333333333 0.3333333333333335 0.3333333333333335 0.333333333333333 0.3333333333333335 0.3333333333333335 0.333333333333333 0.3333333333333335 0.3333333333333335 0.333333333333333 0.3333333333333335 0.3333333333333335 0.333333333333333 0.3333333333333335 0.3333333333333335 0.333333333333333 0.3333333333333335 0.3333333333333335 0.333333333333333 0.3333333333333335 0.3333333333333335 0.333333333333333 0.3333333333333335 0.3333333333333335 0.333333333333333 0.3333333333333335 0.3333333333333335 0.333333333333333 0.3333333333333335 0.3333333333333335 0.333333333333333 0.3333333333333335 0.3333333333333335 0.333333333333333 0.3333333333333335 0.3333333333333335 0.333333333333333 0.3333333333333335 0.3333333333333335 0.333333333333333 0.3333333333333335 0.3333333333333335 0.333333333333333 0.3333333333333335 0.3333333333333335 0.333333333333333 0.3333333333333335 0.3333333333333335 0.333333333333333 0.3333333333333335 0.3333333333333335 0.333333333333333 0.3333333333333335 0.3333333333333335 0.333333333333333 0.3333333333333335 0.3333333333333335 0.333333333333333 0.3333333333333335 0.3333333333333335 0.333333333333333 0.3333333333333335 0.3333333333333335 0.333333333333333 0.3333333333333335 0.3333333333333335 0.333333333333333 0.3333333333333335 0.3333333333333335 0.333333333333333 0.3333333333333335 0.3333333333333335 0.333333333333333 0.3333333333333335 0.3333333333333335 0.333333333333333 0.3333333333333335 0.3333333333333335 0.333333333333333 0.3333333333333335 0.3333333333333335 0.333333333333333 0.3333333333333335 0.3333333333333335 0.333333333333333 0.3333333333333335 0.3333333333333335 0.333333333333333 0.3333333333333335 0.3333333333333335 0.333333333333333 0.3333333333333335 0.3333333333333335 0.333333333333333 0.3333333333333335 0.3333333333333335 0.333333333333333 0.3333333333333335 0.3333333333333335 0.333333333333333 0.3333333333333335 0.3333333333333335 0.333333333333333 0.3333333333333335 0.3333333333333335 0.333333333333333 0.3333333333333335 0.3333333333333335 0.333333333333333 0.3333333333333335 0.3333333333333335 0.333333333333333 0.3333333333333335 0.3333333333333335 0.333333333333333 0.3333333333333335 0.3333333333333335 0.333333333333333 0.3333333333333335 0.3333333333333335 0.333333333333333 0.3333333333333335 0.3333333333333335 0.333333333333333 0.3333333333333335 0.3333333333333335 0.333333333333333 0.3333333333333335 0.3333333333333335 0.333333333333333 0.3333333333333335 0.3333333333333335 0.333333333333333 0.3333333333333335 0.3333333333333335 0.333333333333333 0.3333333333333335 0.3333333333333335 0.333333333333333 0.3333333333333335 0.3333333333333335 0.333333333333333 0.3333333333333335 0.3333333333333335 0.333333333333333 0.3333333333333335 0.3333333333333335 0.333333333333333 0.3333333333333335 0.3333333333333335 0.333333333333333 0.3333333333333335 0.3333333333333335 0.333333333333333 0.3333333333333335 0.3333333333333335 0.333333333333333 0.3333333333333335 0.3333333333333335 0.333333333333333 0.3333333333333335 0.3333333333333335 0.333333333333333 0.3333333333333335 0.3333333333333335 0.333333333333333 0.3333333333333335 0.3333333333333335 0.333333333333333 0.3333333333333335 0.3333333333333335 0.333333333333333 0.3333333333333335 0.3333333333333335 0.333333333333333 0.3333333333333335 0.3333333333333335 0.333333333333333 0.3333333333333335 0.3333333333333335 0.333333333333333 0.3333333333333335 0.3333333333333335 0.333333333333333 0.3333333333333335 0.3333333333333335 0.333333333333333 0.3333333333333335 0.3333333333333335 0.333333333333333 0.3333333333333335 0.3333333333333335 0.333333333333333 0.3333333333333335 0.3333333333333335 0.333333333333333 0.3333333333333335 0.3333333333333335 0.333333333333333 0.3333333333333335 0.3333333333333335 0.333333333333333 0.3333333333333335 0.3333333333333335 0.333333333333333 0.3333333333333335 0.3333333333333335 0.333333333333333 0.3333333333333335 0.3333333333333335 0.333333333333333 0.3333333333333335 0.3333333333333335 0.333333333333333 0.3333333333333335 0.3333333333333335 0.333333333333333 0.3333333333333335 0.3333333333333335 0.333333333333333 0.3333333333333335 0.3333333333333335 0.333333333333333 0.3333333333333335 0.3333333333333335 0.333333333333333 0.3333333333333335 0.3333333333333335 0.333333333333333 0.3333333333333335 0.3333333333333335 0.333333333333333 0.3333333333333335 0.3333333333333335 0.333333333333333 0.3333333333333335 0.3333333333333335 0.333333333333333 0.3333333333333335 0.3333333333333335 0.333333333333333 0.3333333333333335 0.3333333333333335 0.333333333333333 0.3333333333333335 0.3333333333333335 0.333333333333333 0.3333333333333335 0.3333333333333335 0.333333333333333 0.3333333333333335 0.3333333333333335 0.333333333333333 0.3333333333333335 0.3333333333333335 0.333333333333333 0.3333333333333335 0.3333333333333335 0.333333333333333 0.3333333333333335 0.3333333333333335 0.333333333333333 0.3333333333333335 0.3333333333333335 0.333333333333333 0.3333333333333335 0.3333333333333335 0.333333333333333 0.3333333333333335 0.3333333333333335 0.333333333333333 0.3333333333333335 0.3333333333333335 0.333333333333333 0.3333333333333335 0.3333333333333335 0.333333333333333 0.3333333333333335 0.3333333333333335 0.333333333333333 0.3333333333333335 0.3333333333333335 0.333333333333333 0.3333333333333335 0.3333333333333335 0.333333333333333 0.3333333333333335 0.3333333333333335 0.333333333333333 0.3333333333333335 0.3333333333333335 0.333333333333333 0.3333333333333335 0.3333333333333335 0.333333333333333 0.3333333333333335 0.3333333333333335 0.333333333333333 0.3333333333333335 0.3333333333333335 0.333333333333333 0.3333333333333335 0.3333333333333335 0.333333333333333 0.3333333333333335 0.3333333333333335 0.333333333333333 0.3333333333333335 0.3333333333333335 0.333333333333333 0.3333333333333335 0.3333333333333335 0.333333333333333 0.3333333333333335 0.3333333333333335 0.333333333333333 0.3333333333333335 0.3333333333333335 0.333333333333333 0.3333333333333335 0.3333333333333335 0.333333333333333 0.3333333333333335 0.3333333333333335 0.333333333333333 0.3333333333333335 0.3333333333333335 0.333333333333333 0.3333333333333335 0.3333333333333335 0.333333333333333 0.3333333333333335 0.3333333333333335 0.333333333333333 0.3333333333333335 0.3333333333333335 0.333333333333333 0.3333333333333335 0.3333333333333335 0.333333333333333 0.3333333333333335 0.3333333333333335 0.333333333333333 0.3333333333333335 0.3333333333333335 0.333333333333333 0.3333333333333335 0.3333333333333335 0.333333333333333 0.3333333333333335 0.3333333333333335 0.333333333333333 0.3333333333333335 0.3333333333333335 0.333333333333333 0.3333333333333335 0.3333333333333335 0.333333333333333 0.3333333333333335 0.3333333333333335 0.333333333333333 0.3333333333333335 0.3333333333333335 0.333333333333333 0.3333333333333335 0.3333333333333335 0.333333333333333 0.3333333333333335 0.3333333333333335 0.333333333333333 0.3333333333333335 0.3333333333333335 0.333333333333333 0.3333333333333335 0.3333333333333335 0.333333333333333 0.3333333333333335 0.3333333333333335 0.333333333333333 0.3333333333333335 0.3333333333333335 0.333333333333333 0.3333333333333335 0.3333333333333335 0.333333333333333 0.3333333333333335 0.3333333333333335 0.333333333333333 0.3333333333333335 0.3333333333333335 0.333333333333333 0.3333333333333335 0.3333333333333335 0.333333333333333 0.3333333333333335 0.3333333333333335 0.333333333333333 0.3333333333333335 0.3333333333333335 0.333333333333333 0.3333333333333335 0.3333333333333335 0.333333333333333 0.3333333333333335 0.3333333333333335 0.333333333333333 0.3333333333333335 0.3333333333333335 0.333333333333333 0.3333333333333335 0.3333333333333335 0.333333333333333 0.3333333333333335 0.3333333333333335 0.333333333333333 0.3333333333333335 0.3333333333333335 0.333333333333333 0.3333333333333335 0.3333333333333335 0.333333333333333 0.3333333333333335 0.3333333333333335 0.333333333333333 0.3333333333333335 0.3333333333333335 0.333333333333333 0.3333333333333335 0.3333333333333335 0.333333333333333 0.3333333333333335 0.3333333333333335 0.333333333333333 0.3333333333333335 0.3333333333333335 0.333333333333333 0.3333333333333335 0.3333333333333335 0.333333333333333 0.3333333333333335 0.3333333333333335 0.333333333333333 0.3333333333333335 0.3333333333333335 0.333333333333333 0.3333333333333335 0.3333333333333335 0.333333333333333 0.3333333333333335 0.3333333333333335 0.333333333333333 0.3333333333333335 0.3333333333333335 0.333333333333333 0.3333333333333335 0.3333333333333335 0.333333333333333 0.3333333333333335 0.3333333333333335 0.333333333333333 0.3333333333333335 0.3333333333333335 0.333333333333333 0.3333333333333335 0.3333333333333335 0.333333333333333 0.3333333333333335 0.3333333333333335 0.333333333333333 0.3333333333333335 0.3333333333333335 0.333333333333333 0.3333333333333335 0.3333333333333335 0.333333333333333 0.3333333333333335 0.3333333333333335 0.333333333333333 0.3333333333333335 0.3333333333333335 0.333333333333333 0.3333333333333335 0.3333333333333335 0.333333333333333 0.3333333333333335 0.3333333333333335 0.333333333333333 0.3333333333333335 0.3333333333333335 0.333333333333333 0.3333333333333335 0.3333333333333335 0.333333333333333 0.3333333333333335 0.3333333333333335 0.333333333333333 0.3333333333333335 0.3333333333333335 0.333333333333333 0.3333333333333335 0.3333333333333335 0.333333333333333 0.3333333333333335 0.3333333333333335 0.333333333333333 0.3333333333333335 0.3333333333333335 0.333333333333333 0.3333333333333335 0.3333333333333335 0.333333333333333 0.3333333333333335 0.3333333333333335 0.333333333333333 0.3333333333333335 0.3333333333333335 0.333333333333333 0.3333333333333335 0.3333333333333335 0.333333333333333 0.3333333333333335 0.3333333333333335 0.333333333333333 0.3333333333333335 0.3333333333333335 0.333333333333333 0.3333333333333335 0.3333333333333335 0.333333333333333 0.3333333333333335 0.3333333333333335 0.333333333333333 0.3333333333333335 0.3333333333333335 0.333333333333333 0.3333333333333335 0.3333333333333335 0.333333333333333 0.3333333333333335 0.3333333333333335 0.333333333333333 0.3333333333333335 0.3333333333333335 0.333333333333333 0.3333333333333335 0.3333333333333335 0.333333333333333 0.3333333333333335 0.3333333333333335 0.333333333333333 0.3333333333333335 0.3333333333333335 0.333333333333333 0.3333333333333335 0.3333333333333335 0.333333333333333 0.3333333333333335 0.3333333333333335 0.333333333333333 0.3333333333333335 0.3333333333333335 0.333333333333333 0.3333333333333335 0.3333333333333335 0.333333333333333 0.3333333333333335 0.3333333333333335 0.333333333333333 0.3333333333333335 0.3333333333333335 0.333333333333333 0.3333333333333335 0.3333333333333335 0.333333333333333 0.3333333333333335 0.3333333333333335 0.333333333333333 0.3333333333333335 0.3333333333333335 0.333333333333333 0.3333333333333335 0.3333333333333335 0.333333333333333 0.3333333333333335 0.3333333333333335 0.333333333333333 0.3333333333333335 0.3333333333333335 0.333333333333333 0.3333333333333335 0.3333333333333335 0.333333333333333 0.3333333333333335 0.3333333333333335 0.333333333333333 0.3333333333333335 0.3333333333333335 0.333333333333333 0.3333333333333335 0.3333333333333335 0.333333333333333 0.3333333333333335 0.3333333333333335 0.333333333333333 0.3333333333333335 0.3333333333333335 0.333333333333333 0.3333333333333335 0.3333333333333335 0.333333333333333 0.3333333333333335 0.3333333333333335 0.333333333333333 0.3333333333333335 0.3333333333333335 0.333333333333333 0.3333333333333335 0.3333333333333335 0.333333333333333 0.3333333333333335 0.3333333333333335 0.333333333333333 0.3333333333333335 0.3333333333333335 0.333333333333333 0.3333333333333335 0.3333333333333335 0.333333333333333 0.3333333333333335 0.3333333333333335 0.333333333333333 0.3333333333333335 0.3333333333333335 0.333333333333333 0.3333333333333335 0.3333333333333335 0.333333333333333 0.3333333333333335 0.3333333333333335 0.333333333333333 0.3333333333333335 0.3333333333333335 0.333333333333333 0.3333333333333335 0.3333333333333335 0.333333333333333 0.3333333333333335 0.3333333333333335 0.333333333333333 0.3333333333333335 0.3333333333333335 0.333333333333333 0.3333333333333335 0.3333333333333335 0.333333333333333 0.3333333333333335 0.3333333333333335 0.333333333333333 0.3333333333333335 0.3333333333333335 0.333333333333333 0.3333333333333335 0.3333333333333335 0.333333333333333 0.3333333333333335 0.3333333333333335 0.333333333333333 0.3333333333333335 0.3333333333333335 0.333333333333333 0.3333333333333335 0.3333333333333335 0.333333333333333 0.3333333333333335 0.3333333333333335 0.333333333333333 0.3333333333333335 0.3333333333333335 0.333333333333333 0.3333333333333335 0.3333333333333335 0.333333333333333 0.3333333333333335 0.3333333333333335 0.333333333333333 0.3333333333333335 0.3333333333333335 0.333333333333333 0.3333333333333335 0.3333333333333335 0.333333333333333 0.3333333333333335 0.3333333333333335 0.333333333333333 0.3333333333333335 0.3333333333333335 0.333333333333333 0.3333333333333335 0.3333333333333335 0.333333333333333 0.3333333333333335 0.3333333333333335 0.333333333333333 0.3333333333333335 0.3333333333333335 0.333333333333333 0.3333333333333335 0.3333333333333335 0.333333333333333 0.3333333333333335 0.3333333333333335 0.333333333333333 0.3333333333333335 0.3333333333333335 0.333333333333333 0.3333333333333335 0.3333333333333335 0.333333333333333 0.3333333333333335 0.3333333333333335 0.333333333333333 0.3333333333333335 0.3333333333333335 0.333333333333333 0.3333333333333335 0.3333333333333335 0.333333333333333 0.3333333333333335 0.3333333333333335 0.333333333333333 0.3333333333333335 0.3333333333333335 0.333333333333333 0.3333333333333335 0.3333333333333335 0.333333333333333 0.3333333333333335 0.3333333333333335 0.333333333333333 0.3333333333333335 0.3333333333333335 0.333333333333333 0.3333333333333335 0.3333333333333335 0.333333333333333 0.3333333333333335 0.3333333333333335 0.333333333333333 0.3333333333333335 0.3333333333333335 0.333333333333333 0.3333333333333335 0.3333333333333335 0.333333333333333 0.3333333333333335 0.3333333333333335 0.333333333333333 0.3333333333333335 0.3333333333333335 0.333333333333333 0.3333333333333335 0.3333333333333335 0.333333333333333 0.3333333333333335 0.3333333333333335 0.333333333333333 0.3333333333333335 0.3333333333333335 0.333333333333333 0.3333333333333335 0.3333333333333335 0.333333333333333 0.3333333333333335 0.3333333333333335 0.333333333333333 0.3333333333333335 0.3333333333333335 0.333333333333333 0.3333333333333335 0.3333333333333335 0.333333333333333 0.3333333333333335 0.3333333333333335 0.333333333333333 0.3333333333333335 0.3333333333333335 0.333333333333333 0.3333333333333335 0.3333333333333335 0.333333333333333 0.3333333333333335 0.3333333333333335 0.333333333333333 0.3333333333333335 0.3333333333333335 0.333333333333333 0.3333333333333335 0.3333333333333335 0.333333333333333 0.3333333333333335 0.3333333333333335 0.333333333333333 0.3333333333333335 0.3333333333333335 0.333333333333333 0.3333333333333335 0.3333333333333335 0.333333333333333 0.3333333333333335 0.3333333333333335 0.333333333333333 0.3333333333333335 0.3333333333333335 0.333333333333333 0.3333333333333335 0.3333333333333335 0.333333333333333 0.3333333333333335 0.3333333333333335 0.333333333333333 0.3333333333333335 0.3333333333333335 0.333333333333333 0.3333333333333335 0.3333333333333335 0.333333333333333 0.3333333333333335 0.3333333333333335 0.333333333333333 0.3333333333333335 0.3333333333333335 0.333333333333333 0.3333333333333335 0.3333333333333335 0.333333333333333 0.3333333333333335 0.3333333333333335 0.333333333333333 0.3333333333333335 0.3333333333333335 0.333333333333333 0.3333333333333335 0.3333333333333335 0.333333333333333 0.3333333333333335 0.3333333333333335 0.333333333333333 0.3333333333333335 0.3333333333333335 0.333333333333333 0.3333333333333335 0.3333333333333335 0.333333333333333 0.3333333333333335 0.3333333333333335 0.333333333333333 0.3333333333333335 0.3333333333333335 0.333333333333333 0.3333333333333335 0.3333333333333335 0.333333333333333 0.3333333333333335 0.3333333333333335 0.333333333333333 0.3333333333333335 0.3333333333333335 0.333333333333333 0.3333333333333335 0.3333333333333335 0.333333333333333 0.3333333333333335 0.3333333333333335 0.333333333333333 0.3333333333333335 0.3333333333333335 0.333333333333333 0.3333333333333335 0.3333333333333335 0.333333333333333 0.3333333333333335 0.3333333333333335 0.333333333333333 0.3333333333333335 0.3333333333333335 0.333333333333333 0.3333333333333335 0.3333333333333335 0.333333333333333 0.3333333333333335 0.3333333333333335 0.333333333333333 0.3333333333333335 0.3333333333333335 0.333333333333333 0.3333333333333335 0.3333333333333335 0.333333333333333 0.3333333333333335 0.3333333333333335 0.333333333333333 0.3333333333333335 0.3333333333333335 0.333333333333333 0.3333333333333335 0.3333333333333335 0.333333333333333 0.3333333333333335 0.3333333333333335 0.333333333333333 0.3333333333333335 0.3333333333333335 0.333333333333333 0.3333333333333335 0.3333333333333335 0.333333333333333 0.3333333333333335 0.3333333333333335 0.333333333333333 0.3333333333333335 0.3333333333333335 0.333333333333333 0.3333333333333335 0.3333333333333335 0.333333333333333 0.3333333333333335 0.3333333333333335 0.333333333333333 0.3333333333333335 0.3333333333333335 0.333333333333333 0.3333333333333335 0.3333333333333335 0.333333333333333 0.3333333333333335 0.3333333333333335 0.333333333333333 0.3333333333333335 0.3333333333333335 0.333333333333333 0.3333333333333335 0.3333333333333335 0.333333333333333 0.3333333333333335 0.3333333333333335 0.333333333333333 0.3333333333333335 0.3333333333333335 0.333333333333333 0.3333333333333335 0.3333333333333335 0.333333333333333 0.3333333333333335 0.3333333333333335 0.333333333333333 0.3333333333333335 0.3333333333333335 0.333333333333333 0.3333333333333335 0.3333333333333335 0.333333333333333 0.3333333333333335 0.3333333333333335 0.333333333333333 0.3333333333333335 0.3333333333333335 0.333333333333333 0.3333333333333335 0.3333333333333335 0.333333333333333 0.3333333333333335 0.3333333333333335 0.333333333333333 0.3333333333333335 0.3333333333333335 0.333333333333333 0.3333333333333335 0.3333333333333335 0.333333333333333 0.3333333333333335 0.3333333333333335 0.333333333333333 0.3333333333333335 0.3333333333333335 0.333333333333333 0.3333333333333335 0.3333333333333335 0.333333333333333 0.3333333333333335 0.3333333333333335 0.333333333333333 0.3333333333333335 0.3333333333333335 0.333333333333333 0.3333333333333335 0.3333333333333335 0.333333333333333 0.3333333333333335 0.3333333333333335 0.333333333333333 0.3333333333333335 0.3333333333333335 0.333333333333333 0.3333333333333335 0.3333333333333335 0.333333333333333 0.3333333333333335 0.3333333333333335 0.333333333333333 0.3333333333333335 0.3333333333333335 0.333333333333333 0.3333333333333335 0.3333333333333335 0.333333333333333 0.3333333333333335 0.3333333333333335 0.333333333333333 0.3333333333333335 0.3333333333333335 0.333333333333333 0.3333333333333335 0.3333333333333335 0.333333333333333 0.3333333333333335 0.3333333333333335 0.333333333333333 0.3333333333333335 0.3333333333333335 0.333333333333333 0.3333333333333335 0.3333333333333335 0.333333333333333 0.3333333333333335 0.3333333333333335 0.333333333333333 0.3333333333333335 0.3333333333333335 0.333333333333333 0.3333333333333335 0.3333333333333335 0.333333333333333 0.3333333333333335 0.3333333333333335 0.333333333333333 0.3333333333333335 0.3333333333333335 0.333333333333333 0.3333333333333335 0.3333333333333335 0.333333333333333 0.3333333333333335 0.3333333333333335 0.333333333333333 0.3333333333333335 0.3333333333333335 0.333333333333333 0.3333333333333335 0.3333333333333335 0.333333333333333 0.3333333333333335 0.3333333333333335 0.333333333333333 0.3333333333333335 0.3333333333333335 0.333333333333333 0.3333333333333335 0.3333333333333335 0.333333333333333 0.3333333333333335 0.3333333333333335 0.333333333333333 0.3333333333333335 0.3333333333333335 0.333333333333333 0.3333333333333335 0.3333333333333335 0.333333333333333 0.3333333333333335 0.3333333333333335 0.333333333333333 0.3333333333333335 0.3333333333333335 0.333333333333333 0.3333333333333335 0.3333333333333335 0.333333333333333 0.3333333333333335 0.3333333333333335 0.333333333333333 0.3333333333333335 0.3333333333333335 0.333333333333333 0.3333333333333335 0.3333333333333335 0.333333333333333 0.3333333333333335 0.3333333333333335 0.333333333333333 0.3333333333333335 0.3333333333333335 0.333333333333333 0.3333333333333335 0.3333333333333335 0.333333333333333 0.3333333333333335 0.3333333333333335 0.333333333333333 0.3333333333333335 0.3333333333333335 0.333333333333333 0.3333333333333335 0.3333333333333335 0.333333333333333 0.3333333333333335 0.3333333333333335 0.333333333333333 0.3333333333333335 0.3333333333333335 0.333333333333333 0.3333333333333335 0.3333333333333335 0.333333333333333 0.3333333333333335 0.3333333333333335 0.333333333333333 0.3333333333333335 0.3333333333333335 0.333333333333333 0.3333333333333335 0.3333333333333335 0.333333333333333 0.3333333333333335 0.3333333333333335 0.333333333333333 0.3333333333333335 0.3333333333333335 0.333333333333333 0.3333333333333335 0.3333333333333335 0.333333333333333 0.3333333333333335 0.3333333333333335 0.333333333333333 0.3333333333333335 0.3333333333333335 0.333333333333333 0.3333333333333335 0.3333333333333335 0.333333333333333 0.3333333333333335 0.3333333333333335 0.333333333333333 0.3333333333333335 0.3333333333333335 0.333333333333333 0.3333333333333335 0.3333333333333335 0.333333333333333 0.3333333333333335 0.3333333333333335 0.333333333333333 0.3333333333333335 0.3333333333333335 0.333333333333333 0.3333333333333335 0.3333333333333335 0.333333333333333 0.3333333333333335 0.3333333333333335 0.333333333333333 0.3333333333333335 0.3333333333333335 0.333333333333333 0.3333333333333335 0.3333333333333335 0.333333333333333 0.3333333333333335 0.3333333333333335 0.333333333333333 0.3333333333333335 0.3333333333333335 0.333333333333333 0.3333333333333335 0.3333333333333335 0.333333333333333 0.3333333333333335 0.3333333333333335 0.333333333333333 0.3333333333333335 0.3333333333333335 0.333333333333333 0.3333333333333335 0.3333333333333335 0.333333333333333 0.3333333333333335 0.3333333333333335 0.333333333333333 0.3333333333333335 0.3333333333333335 0.333333333333333 0.3333333333333335 0.3333333333333335 0.333333333333333 0.3333333333333335 0.3333333333333335 0.333333333333333 0.3333333333333335 0.3333333333333335 0.333333333333333 0.3333333333333335 0.3333333333333335 0.333333333333333 0.3333333333333335 0.3333333333333335 0.333333333333333 0.3333333333333335 0.3333333333333335 0.333333333333333 0.3333333333333335 0.3333333333333335 0.333333333333333 0.3333333333333335 0.3333333333333335 0.333333333333333 0.3333333333333335 0.3333333333333335 0.333333333333333 0.3333333333333335 0.3333333333333335 0.333333333333333 0.3333333333333335 0.3333333333333335 0.333333333333333 0.3333333333333335 0.3333333333333335 0.333333333333333 0.3333333333333335 0.3333333333333335 0.333333333333333 0.3333333333333335 0.3333333333333335 0.333333333333333 0.3333333333333335 0.3333333333333335 0.333333333333333 0.3333333333333335 0.3333333333333335 0.333333333333333 0.3333333333333335 0.3333333333333335 0.333333333333333 0.3333333333333335 0.3333333333333335 0.333333333333333 0.3333333333333335 0.3333333333333335 0.333333333333333 0.3333333333333335 0.3333333333333335 0.333333333333333 0.3333333333333335 0.3333333333333335 0.333333333333333 0.3333333333333335 0.3333333333333335 0.333333333333333 0.3333333333333335 0.3333333333333335 0.333333333333333 0.3333333333333335 0.3333333333333335 0.333333333333333 0.3333333333333335 0.3333333333333335 0.333333333333333 0.3333333333333335 0.3333333333333335 0.333333333333333 0.3333333333333335 0.3333333333333335 0.333333333333333 0.3333333333333335 0.3333333333333335 0.333333333333333 0.3333333333333335 0.3333333333333335 0.333333333333333 0.3333333333333335 0.3333333333333335 0.333333333333333 0.3333333333333335 0.3333333333333335 0.333333333333333 0.3333333333333335 0.3333333333333335 0.333333333333333 0.3333333333333335 0.3333333333333335 0.333333333333333 0.3333333333333335 0.3333333333333335 0.333333333333333 0.3333333333333335 0.3333333333333335 0.333333333333333 0.3333333333333335 0.3333333333333335 0.333333333333333 0.3333333333333335 0.3333333333333335 0.333333333333333 0.3333333333333335 0.3333333333333335 0.333333333333333 0.3333333333333335 0.3333333333333335 0.333333333333333 0.3333333333333335 0.3333333333333335 0.333333333333333 0.3333333333333335 0.3333333333333335 0.333333333333333 0.3333333333333335 0.3333333333333335 0.333333333333333 0.3333333333333335 0.3333333333333335 0.333333333333333 0.3333333333333335 0.3333333333333335 0.333333333333333 0.3333333333333335 0.3333333333333335 0.333333333333333 0.3333333333333335 0.3333333333333335 0.333333333333333 0.3333333333333335 0.3333333333333335 0.333333333333333 0.3333333333333335 0.3333333333333335 0.333333333333333 0.3333333333333335 0.3333333333333335 0.333333333333333 0.3333333333333335 0.3333333333333335 0.333333333333333 0.3333333333333335 0.3333333333333335 0.333333333333333 0.3333333333333335 0.3333333333333335 0.333333333333333 0.3333333333333335 0.3333333333333335 0.333333333333333 0.3333333333333335 0.3333333333333335 0.333333333333333 0.3333333333333335 0.3333333333333335 0.333333333333333 0.3333333333333335 0.3333333333333335 0.333333333333333 0.3333333333333335 0.3333333333333335 0.333333333333333 0.3333333333333335 0.3333333333333335 0.333333333333333 0.3333333333333335 0.3333333333333335 0.333333333333333 0.3333333333333335 0.3333333333333335 0.333333333333333 0.3333333333333335 0.3333333333333335 0.333333333333333 0.3333333333333335 0.3333333333333335 0.333333333333333 0.3333333333333335 0.3333333333333335 0.333333333333333 0.3333333333333335 0.3333333333333335 0.333333333333333 0.3333333333333335 0.3333333333333335 0.333333333333333 0.3333333333333335 0.3333333333333335 0.333333333333333 0.3333333333333335 0.3333333333333335 0.333333333333333 0.3333333333333335 0.3333333333333335 0.333333333333333 0.3333333333333335 0.3333333333333335 0.333333333333333 0.3333333333333335 0.3333333333333335 0.333333333333333 0.3333333333333335 0.3333333333333335 0.333333333333333 0.3333333333333335 0.3333333333333335 0.333333333333333 0.3333333333333335 0.3333333333333335 0.333333333333333 0.3333333333333335 0.3333333333333335 0.333333333333333 0.3333333333333335 0.3333333333333335 0.333333333333333 0.3333333333333335 0.3333333333333335 0.333333333333333 0.3333333333333335 0.3333333333333335 0.333333333333333 0.3333333333333335 0.3333333333333335 0.333333333333333 0.3333333333333335 0.3333333333333335 0.333333333333333 0.3333333333333335 0.3333333333333335 0.333333333333333 0.3333333333333335 0.3333333333333335 0.333333333333333 0.3333333333333335 0.3333333333333335 0.333333333333333 0.3333333333333335 0.3333333333333335 0.333333333333333 0.3333333333333335 0.3333333333333335 0.333333333333333 0.3333333333333335 0.3333333333333335 0.333333333333333 0.3333333333333335 0.3333333333333335 0.333333333333333 0.3333333333333335 0.3333333333333335 0.333333333333333 0.3333333333333335 0.3333333333333335 0.333333333333333 0.3333333333333335 0.3333333333333335 0.333333333333333 0.3333333333333335 0.3333333333333335 0.333333333333333 0.3333333333333335 0.3333333333333335 0.333333333333333 0.3333333333333335 0.3333333333333335 0.333333333333333 0.3333333333333335 0.3333333333333335 0.333333333333333 0.3333333333333335 0.3333333333333335 0.333333333333333 0.3333333333333335 0.3333333333333335 0.333333333333333 0.3333333333333335 0.3333333333333335 0.333333333333333 0.3333333333333335 0.3333333333333335 0.333333333333333 0.3333333333333335 0.3333333333333335 0.333333333333333 0.3333333333333335 0.3333333333333335 0.333333333333333 0.3333333333333335 0.3333333333333335 0.333333333333333 0.3333333333333335 0.3333333333333335 0.333333333333333 0.3333333333333335 0.3333333333333335 0.333333333333333 0.3333333333333335 0.3333333333333335 0.333333333333333 0.3333333333333335 0.3333333333333335 0.333333333333333 0.3333333333333335 0.3333333333333335 0.333333333333333 0.3333333333333335 0.3333333333333335 0.333333333333333 0.3333333333333335 0.3333333333333335 0.333333333333333 0.3333333333333335 0.3333333333333335 0.333333333333333 0.3333333333333335 0.3333333333333335 0.333333333333333 0.3333333333333335 0.3333333333333335 0.333333333333333 0.3333333333333335 0.3333333333333335 0.333333333333333 0.3333333333333335 0.3333333333333335 0.333333333333333 0.3333333333333335 0.3333333333333335 0.333333333333333 0.3333333333333335 0.3333333333333335 0.333333333333333 0.3333333333333335 0.3333333333333335 0.333333333333333 0.3333333333333335 0.3333333333333335 0.333333333333333 0.3333333333333335 0.3333333333333335 0.333333333333333 0.3333333333333335 0.3333333333333335 0.333333333333333 0.3333333333333335 0.3333333333333335 0.333333333333333 0.3333333333333335 0.3333333333333335 0.333333333333333 0.3333333333333335 0.3333333333333335 0.333333333333333 0.3333333333333335 0.3333333333333335 0.333333333333333 0.3333333333333335 0.3333333333333335 0.333333333333333 0.3333333333333335 0.3333333333333335 0.333333333333333 0.3333333333333335 0.3333333333333335 0.333333333333333 0.3333333333333335 0.3333333333333335 0.333333333333333 0.3333333333333335 0.3333333333333335 0.333333333333333 0.3333333333333335 0.3333333333333335 0.333333333333333 0.3333333333333335 0.3333333333333335 0.333333333333333 0.3333333333333335 0.3333333333333335 0.333333333333333 0.3333333333333335 0.3333333333333335 0.333333333333333 0.3333333333333335 0.3333333333333335 0.333333333333333 0.3333333333333335 0.3333333333333335 0.333333333333333 0.3333333333333335 0.3333333333333335 0.333333333333333 0.3333333333333335 0.3333333333333335 0.333333333333333 0.3333333333333335 0.3333333333333335 0.333333333333333 0.3333333333333335 0.3333333333333335 0.333333333333333 0.3333333333333335 0.3333333333333335 0.333333333333333 0.3333333333333335 0.3333333333333335 0.333333333333333 0.3333333333333335 0.3333333333333335 0.333333333333333 0.3333333333333335 0.3333333333333335 0.333333333333333 0.3333333333333335 0.3333333333333335 0.333333333333333 0.3333333333333335 0.3333333333333335 0.333333333333333 0.3333333333333335 0.3333333333333335 0.333333333333333 0.3333333333333335 0.3333333333333335 0.333333333333333 0.3333333333333335 0.3333333333333335 0.333333333333333 0.3333333333333335 0.3333333333333335 0.333333333333333 0.3333333333333335 0.3333333333333335 0.333333333333333 0.3333333333333335 0.3333333333333335 0.333333333333333 0.3333333333333335 0.3333333333333335 0.333333333333333 0.3333333333333335 0.3333333333333335 0.333333333333333 0.3333333333333335 0.3333333333333335 0.333333333333333 0.3333333333333335 0.3333333333333335 0.333333333333333 0.3333333333333335 0.3333333333333335 0.333333333333333 0.3333333333333335 0.3333333333333335 0.333333333333333 0.3333333333333335 0.3333333333333335 0.333333333333333 0.3333333333333335 0.3333333333333335 0.333333333333333 0.3333333333333335 0.3333333333333335 0.333333333333333 0.3333333333333335 0.3333333333333335 0.333333333333333 0.3333333333333335 0.3333333333333335 0.333333333333333 0.3333333333333335 0.3333333333333335 0.333333333333333 0.3333333333333335 0.3333333333333335 0.333333333333333 0.3333333333333335 0.3333333333333335 0.333333333333333 0.3333333333333335 0.3333333333333335 0.333333333333333 0.3333333333333335 0.3333333333333335 0.333333333333333 0.3333333333333335 0.3333333333333335 0.333333333333333 0.3333333333333335 0.3333333333333335 0.333333333333333 0.3333333333333335 0.3333333333333335 0.333333333333333 0.3333333333333335 0.3333333333333335 0.333333333333333 0.3333333333333335 0.3333333333333335 0.333333333333333 0.3333333333333335 0.3333333333333335 0.333333333333333 0.3333333333333335 0.3333333333333335 0.333333333333333 0.3333333333333335 0.3333333333333335 0.333333333333333 0.3333333333333335 0.3333333333333335 0.333333333333333 0.3333333333333335 0.3333333333333335 0.333333333333333 0.3333333333333335 0.3333333333333335 0.333333333333333 0.3333333333333335 0.3333333333333335 0.333333333333333 0.3333333333333335 0.3333333333333335 0.333333333333333 0.3333333333333335 0.3333333333333335 0.333333333333333 0.3333333333333335 0.3333333333333335 0.333333333333333 0.3333333333333335 0.3333333333333335 0.333333333333333 0.3333333333333335 0.3333333333333335 0.333333333333333 0.3333333333333335 0.3333333333333335 0.333333333333333 0.3333333333333335 0.3333333333333335 0.333333333333333 0.3333333333333335 0.3333333333333335 0.333333333333333 0.3333333333333335 0.3333333333333335 0.333333333333333 0.3333333333333335 0.3333333333333335 0.333333333333333 0.3333333333333335 0.3333333333333335 0.333333333333333 0.3333333333333335 0.3333333333333335 0.333333333333333 0.3333333333333335 0.3333333333333335 0.333333333333333 0.3333333333333335 0.3333333333333335 0.333333333333333 0.3333333333333335 0.3333333333333335 0.333333333333333 0.3333333333333335 0.3333333333333335 0.333333333333333 0.3333333333333335 0.3333333333333335 0.333333333333333 0.3333333333333335 0.3333333333333335 0.333333333333333 0.3333333333333335 0.3333333333333335 0.333333333333333 0.3333333333333335 0.3333333333333335 0.333333333333333 0.3333333333333335 0.3333333333333335 0.333333333333333 0.3333333333333335 0.3333333333333335 0.333333333333333 0.3333333333333335 0.3333333333333335 0.333333333333333 0.3333333333333335 0.3333333333333335 0.333333333333333 0.3333333333333335 0.3333333333333335 0.333333333333333 0.3333333333333335 0.3333333333333335 0.333333333333333 0.3333333333333335 0.3333333333333335 0.333333333333333 0.3333333333333335 0.3333333333333335 0.333333333333333 0.3333333333333335 0.3333333333333335 0.333333333333333 0.3333333333333335 0.3333333333333335 0.333333333333333 0.3333333333333335 0.3333333333333335 0.333333333333333 0.3333333333333335 0.3333333333333335 0.333333333333333 0.3333333333333335 0.3333333333333335 0.333333333333333 0.3333333333333335 0.3333333333333335 0.333333333333333 0.3333333333333335 0.3333333333333335 0.333333333333333 0.3333333333333335 0.3333333333333335 0.333333333333333 0.3333333333333335 0.3333333333333335 0.333333333333333 0.3333333333333335 0.3333333333333335 0.333333333333333 0.3333333333333335 0.3333333333333335 0.333333333333333 0.3333333333333335 0.3333333333333335 0.333333333333333 0.3333333333333335 0.3333333333333335 0.333333333333333 0.3333333333333335 0.3333333333333335 0.333333333333333 0.3333333333333335 0.3333333333333335 0.333333333333333 0.3333333333333335 0.3333333333333335 0.333333333333333 0.3333333333333335 0.3333333333333335 0.333333333333333 0.3333333333333335 0.3333333333333335 0.333333333333333 0.3333333333333335 0.3333333333333335 0.333333333333333 0.3333333333333335 0.3333333333333335 0.333333333333333 0.3333333333333335 0.3333333333333335 0.333333333333333 0.3333333333333335 0.3333333333333335 0.333333333333333 0.3333333333333335 0.3333333333333335 0.333333333333333 0.3333333333333335 0.3333333333333335 0.333333333333333 0.3333333333333335 0.3333333333333335 0.333333333333333 0.3333333333333335 0.3333333333333335 0.333333333333333 0.3333333333333335 0.3333333333333335 0.333333333333333 0.3333333333333335 0.3333333333333335 0.333333333333333 0.3333333333333335 0.3333333333333335 0.333333333333333 0.3333333333333335 0.3333333333333335 0.333333333333333 0.3333333333333335 0.3333333333333335 0.333333333333333 0.3333333333333335 0.3333333333333335 0.333333333333333 0.3333333333333335 0.3333333333333335 0.333333333333333 0.3333333333333335 0.3333333333333335 0.333333333333333 0.3333333333333335 0.3333333333333335 0.333333333333333 0.3333333333333335 0.3333333333333335 0.333333333333333 0.3333333333333335 0.3333333333333335 0.333333333333333 0.3333333333333335 0.3333333333333335 0.333333333333333 0.3333333333333335 0.3333333333333335 0.333333333333333 0.3333333333333335 0.3333333333333335 0.333333333333333 0.3333333333333335 0.3333333333333335 0.333333333333333 0.3333333333333335 0.3333333333333335 0.333333333333333 0.3333333333333335 0.3333333333333335 0.333333333333333 0.3333333333333335 0.3333333333333335 0.333333333333333 0.3333333333333335 0.3333333333333335 0.333333333333333 0.3333333333333335 0.3333333333333335 0.333333333333333 0.3333333333333335 0.3333333333333335 0.333333333333333 0.3333333333333335 0.3333333333333335 0.333333333333333 0.3333333333333335 0.3333333333333335 0.333333333333333 0.3333333333333335 0.3333333333333335 0.333333333333333 0.3333333333333335 0.3333333333333335 0.333333333333333 0.3333333333333335 0.3333333333333335 0.333333333333333 0.3333333333333335 0.3333333333333335 0.333333333333333 0.3333333333333335 0.3333333333333335 0.333333333333333 0.3333333333333335 0.3333333333333335 0.333333333333333 0.3333333333333335 0.3333333333333335 0.333333333333333 0.3333333333333335 0.3333333333333335 0.333333333333333 0.3333333333333335 0.3333333333333335 0.333333333333333 0.3333333333333335 0.3333333333333335 0.333333333333333 0.3333333333333335 0.3333333333333335 0.333333333333333 0.3333333333333335 0.3333333333333335 0.333333333333333 0.3333333333333335 0.3333333333333335 0.333333333333333 0.3333333333333335 0.3333333333333335 0.333333333333333 0.3333333333333335 0.3333333333333335 0.333333333333333 0.3333333333333335 0.3333333333333335 0.333333333333333 0.3333333333333335 0.3333333333333335 0.333333333333333 0.3333333333333335 0.3333333333333335 0.333333333333333 0.3333333333333335 0.3333333333333335 0.333333333333333 0.3333333333333335 0.3333333333333335 0.333333333333333 0.3333333333333335 0.3333333333333335 0.333333333333333 0.3333333333333335 0.3333333333333335 0.333333333333333 0.3333333333333335 0.3333333333333335 0.333333333333333 0.3333333333333335 0.3333333333333335 0.333333333333333 0.3333333333333335 0.3333333333333335 0.333333333333333 0.3333333333333335 0.3333333333333335 0.333333333333333 0.3333333333333335 0.3333333333333335 0.333333333333333 0.3333333333333335 0.3333333333333335 0.333333333333333 0.3333333333333335 0.3333333333333335 0.333333333333333 0.3333333333333335 0.3333333333333335 0.333333333333333 0.3333333333333335 0.3333333333333335 0.333333333333333 0.3333333333333335 0.3333333333333335 0.333333333333333 0.3333333333333335 0.3333333333333335 0.333333333333333 0.3333333333333335 0.3333333333333335 0.333333333333333 0.3333333333333335 0.3333333333333335 0.333333333333333 0.3333333333333335 0.3333333333333335 0.333333333333333 0.3333333333333335 0.3333333333333335 0.333333333333333 0.3333333333333335 0.3333333333333335 0.333333333333333 0.3333333333333335 0.3333333333333335 0.333333333333333 0.3333333333333335 0.3333333333333335 0.333333333333333 0.3333333333333335 0.3333333333333335 0.333333333333333 0.3333333333333335 0.3333333333333335 0.333333333333333 0.3333333333333335 0.3333333333333335 0.333333333333333 0.3333333333333335 0.3333333333333335 0.333333333333333 0.3333333333333335 0.3333333333333335 0.333333333333333 0.3333333333333335 0.3333333333333335 0.333333333333333 0.3333333333333335 0.3333333333333335 0.333333333333333 0.3333333333333335 0.3333333333333335 0.333333333333333 0.3333333333333335 0.3333333333333335 0.333333333333333 0.3333333333333335 0.3333333333333335 0.333333333333333 0.3333333333333335 0.3333333333333335 0.333333333333333 0.3333333333333335 0.3333333333333335 0.333333333333333 0.3333333333333335 0.3333333333333335 0.333333333333333 0.3333333333333335 0.3333333333333335 0.333333333333333 0.3333333333333335 0.3333333333333335 0.333333333333333 0.3333333333333335 0.3333333333333335 0.333333333333333 0.3333333333333335 0.3333333333333335 0.333333333333333 0.3333333333333335 0.3333333333333335 0.333333333333333 0.3333333333333335 0.3333333333333335 0.333333333333333 0.3333333333333335 0.3333333333333335 0.333333333333333 0.3333333333333335 0.3333333333333335 0.333333333333333 0.3333333333333335 0.3333333333333335 0.333333333333333 0.3333333333333335 0.3333333333333335 0.333333333333333 0.3333333333333335 0.3333333333333335 0.333333333333333 0.3333333333333335 0.3333333333333335 0.333333333333333 0.3333333333333335 0.3333333333333335 0.333333333333333 0.3333333333333335 0.3333333333333335 0.333333333333333 0.3333333333333335 0.3333333333333335 0.333333333333333 0.3333333333333335 0.3333333333333335 0.333333333333333 0.3333333333333335 0.3333333333333335 0.333333333333333 0.3333333333333335 0.3333333333333335 0.333333333333333 0.3333333333333335 0.3333333333333335 0.333333333333333 0.3333333333333335 0.3333333333333335 0.333333333333333 0.3333333333333335 0.3333333333333335 0.333333333333333 0.3333333333333335 0.3333333333333335 0.333333333333333 0.3333333333333335 0.3333333333333335 0.333333333333333 0.3333333333333335 0.3333333333333335 0.333333333333333 0.3333333333333335 0.3333333333333335 0.333333333333333 0.3333333333333335 0.3333333333333335 0.333333333333333 0.3333333333333335 0.3333333333333335 0.333333333333333 0.3333333333333335 0.3333333333333335 0.333333333333333 0.3333333333333335 0.3333333333333335 0.333333333333333 0.3333333333333335 0.3333333333333335 0.333333333333333 0.3333333333333335 0.3333333333333335 0.333333333333333 0.3333333333333335 0.3333333333333335 0.333333333333333 0.3333333333333335 0.3333333333333335 0.333333333333333 0.3333333333333335 0.3333333333333335 0.333333333333333 0.3333333333333335 0.3333333333333335 0.333333333333333 0.3333333333333335 0.3333333333333335 0.333333333333333 0.3333333333333335 0.3333333333333335 0.333333333333333 0.3333333333333335 0.3333333333333335 0.333333333333333 0.3333333333333335 0.3333333333333335 0.333333333333333 0.3333333333333335 0.3333333333333335 0.333333333333333 0.3333333333333335 0.3333333333333335 0.333333333333333 0.3333333333333335 0.3333333333333335 0.333333333333333 0.3333333333333335 0.3333333333333335 0.333333333333333 0.3333333333333335 0.3333333333333335 0.333333333333333 0.3333333333333335 0.3333333333333335 0.333333333333333 0.3333333333333335 0.3333333333333335 0.333333333333333 0.3333333333333335 0.3333333333333335 0.333333333333333 0.3333333333333335 0.3333333333333335 0.333333333333333 0.3333333333333335 0.3333333333333335 0.333333333333333 0.3333333333333335 0.3333333333333335 0.333333333333333 0.3333333333333335 0.3333333333333335 0.333333333333333 0.3333333333333335 0.3333333333333335 0.333333333333333 0.3333333333333335 0.3333333333333335 0.333333333333333 0.3333333333333335 0.3333333333333335 0.333333333333333 0.3333333333333335 0.3333333333333335 0.333333333333333 0.3333333333333335 0.3333333333333335 0.333333333333333 0.3333333333333335 0.3333333333333335 0.333333333333333 0.3333333333333335 0.3333333333333335 0.333333333333333 0.3333333333333335 0.3333333333333335 0.333333333333333 0.3333333333333335 0.3333333333333335 0.333333333333333 0.3333333333333335 0.3333333333333335 0.333333333333333 0.3333333333333335 0.3333333333333335 0.333333333333333 0.3333333333333335 0.3333333333333335 0.333333333333333 0.3333333333333335 0.3333333333333335 0.333333333333333 0.3333333333333335 0.3333333333333335 0.333333333333333 0.3333333333333335 0.3333333333333335 0.333333333333333 0.3333333333333335 0.3333333333333335 0.333333333333333 0.3333333333333335 0.3333333333333335 0.333333333333333 0.3333333333333335 0.3333333333333335 0.333333333333333 0.3333333333333335 0.3333333333333335 0.333333333333333 0.3333333333333335 0.3333333333333335 0.333333333333333 0.3333333333333335 0.3333333333333335 0.333333333333333 0.3333333333333335 0.3333333333333335 0.333333333333333 0.3333333333333335 0.3333333333333335 0.333333333333333 0.3333333333333335 0.3333333333333335 0.333333333333333 0.3333333333333335 0.3333333333333335 