<?xml version="1.0" encoding="ISO-8859-1"?>
<smile version="1.0" id="Network1" numsamples="1000" discsamples="10000">
	<nodes>
		<cpt id="attentionContext">
			<state id="Neutral" />
			<state id="Concentrating" />
			<state id="Sleepy" />
			<state id="Social" />
			<probabilities>0.9987024221453287 0.0004325259515570934 0.0004325259515570934 0.0004325259515570934</probabilities>
		</cpt>
		<cpt id="audioNoise">
			<state id="None" />
			<state id="Low" />
			<state id="Medium" />
			<state id="High" />
			<probabilities>0.9987024221453287 0.0004325259515570934 0.0004325259515570934 0.0004325259515570934</probabilities>
		</cpt>
		<cpt id="robotMotionSpeed">
			<state id="Low" />
			<state id="Medium" />
			<state id="High" />
			<probabilities>0.9988465974625143 0.000576701268742791 0.0005767012687427913</probabilities>
		</cpt>
		<cpt id="robotPose">
			<state id="Far" />
			<state id="Medium" />
			<state id="Close" />
			<probabilities>0.2704728950403691 0.4486735870818915 0.2808535178777393</probabilities>
		</cpt>
		<cpt id="robotSoundVolume">
			<state id="Low" />
			<state id="Medium" />
			<state id="High" />
			<parents>audioNoise</parents>
			<probabilities>0.9988465974625143 0.000576701268742791 0.0005767012687427913 0.3333333333333333 0.3333333333333333 0.3333333333333334 0.3333333333333333 0.3333333333333333 0.3333333333333334 0.3333333333333333 0.3333333333333333 0.3333333333333334</probabilities>
		</cpt>
		<cpt id="attentionLevel">
			<state id="Neglect" />
			<state id="Contingency" />
			<state id="AttentionHigh" />
			<parents>attentionContext audioNoise robotSoundVolume robotPose robotMotionSpeed</parents>
			<probabilities>0.8619957537154989 0.08492569002123142 0.05307855626326962 0.3333333333333335 0.3333333333333335 0.333333333333333 0.3333333333333335 0.3333333333333335 0.333333333333333 0.7282051282051283 0.1820512820512821 0.08974358974358974 0.3333333333333335 0.3333333333333335 0.333333333333333 0.3333333333333335 0.3333333333333335 0.333333333333333 0.2044989775051125 0.1370143149284254 0.6584867075664621 0.3333333333333335 0.3333333333333335 0.333333333333333 0.3333333333333335 0.3333333333333335 0.333333333333333 0.3333333333333335 0.3333333333333335 0.333333333333333 0.3333333333333335 0.3333333333333335 0.333333333333333 0.3333333333333335 0.3333333333333335 0.333333333333333 0.3333333333333335 0.3333333333333335 0.333333333333333 0.3333333333333335 0.3333333333333335 0.333333333333333 0.3333333333333335 0.3333333333333335 0.333333333333333 0.3333333333333335 0.3333333333333335 0.333333333333333 0.3333333333333335 0.3333333333333335 0.333333333333333 0.3333333333333335 0.3333333333333335 0.333333333333333 0.3333333333333335 0.3333333333333335 0.333333333333333 0.3333333333333335 0.3333333333333335 0.333333333333333 0.3333333333333335 0.3333333333333335 0.333333333333333 0.3333333333333335 0.3333333333333335 0.333333333333333 0.3333333333333335 0.3333333333333335 0.333333333333333 0.3333333333333335 0.3333333333333335 0.333333333333333 0.3333333333333335 0.3333333333333335 0.333333333333333 0.3333333333333335 0.3333333333333335 0.333333333333333 0.3333333333333335 0.3333333333333335 0.333333333333333 0.3333333333333335 0.3333333333333335 0.333333333333333 0.3333333333333335 0.3333333333333335 0.333333333333333 0.3333333333333335 0.3333333333333335 0.333333333333333 0.3333333333333335 0.3333333333333335 0.333333333333333 0.3333333333333335 0.3333333333333335 0.333333333333333 0.3333333333333335 0.3333333333333335 0.333333333333333 0.3333333333333335 0.3333333333333335 0.333333333333333 0.3333333333333335 0.3333333333333335 0.333333333333333 0.3333333333333335 0.3333333333333335 0.333333333333333 0.3333333333333335 0.3333333333333335 0.333333333333333 0.3333333333333335 0.3333333333333335 0.333333333333333 0.3333333333333335 0.3333333333333335 0.333333333333333 0.3333333333333335 0.3333333333333335 0.333333333333333 0.3333333333333335 0.3333333333333335 0.333333333333333 0.3333333333333335 0.3333333333333335 0.333333333333333 0.3333333333333335 0.3333333333333335 0.333333333333333 0.3333333333333335 0.3333333333333335 0.333333333333333 0.3333333333333335 0.3333333333333335 0.333333333333333 0.3333333333333335 0.3333333333333335 0.333333333333333 0.3333333333333335 0.3333333333333335 0.333333333333333 0.3333333333333335 0.3333333333333335 0.333333333333333 0.3333333333333335 0.3333333333333335 0.333333333333333 0.3333333333333335 0.3333333333333335 0.333333333333333 0.3333333333333335 0.3333333333333335 0.333333333333333 0.3333333333333335 0.3333333333333335 0.333333333333333 0.3333333333333335 0.3333333333333335 0.333333333333333 0.3333333333333335 0.3333333333333335 0.333333333333333 0.3333333333333335 0.3333333333333335 0.333333333333333 0.3333333333333335 0.3333333333333335 0.333333333333333 0.3333333333333335 0.3333333333333335 0.333333333333333 0.3333333333333335 0.3333333333333335 0.333333333333333 0.3333333333333335 0.3333333333333335 0.333333333333333 0.3333333333333335 0.3333333333333335 0.333333333333333 0.3333333333333335 0.3333333333333335 0.333333333333333 0.3333333333333335 0.3333333333333335 0.333333333333333 0.3333333333333335 0.3333333333333335 0.333333333333333 0.3333333333333335 0.3333333333333335 0.333333333333333 0.3333333333333335 0.3333333333333335 0.333333333333333 0.3333333333333335 0.3333333333333335 0.333333333333333 0.3333333333333335 0.3333333333333335 0.333333333333333 0.3333333333333335 0.3333333333333335 0.333333333333333 0.3333333333333335 0.3333333333333335 0.333333333333333 0.3333333333333335 0.3333333333333335 0.333333333333333 0.3333333333333335 0.3333333333333335 0.333333333333333 0.3333333333333335 0.3333333333333335 0.333333333333333 0.3333333333333335 0.3333333333333335 0.333333333333333 0.3333333333333335 0.3333333333333335 0.333333333333333 0.3333333333333335 0.3333333333333335 0.333333333333333 0.3333333333333335 0.3333333333333335 0.333333333333333 0.3333333333333335 0.3333333333333335 0.333333333333333 0.3333333333333335 0.3333333333333335 0.333333333333333 0.3333333333333335 0.3333333333333335 0.333333333333333 0.3333333333333335 0.3333333333333335 0.333333333333333 0.3333333333333335 0.3333333333333335 0.333333333333333 0.3333333333333335 0.3333333333333335 0.333333333333333 0.3333333333333335 0.3333333333333335 0.333333333333333 0.3333333333333335 0.3333333333333335 0.333333333333333 0.3333333333333335 0.3333333333333335 0.333333333333333 0.3333333333333335 0.3333333333333335 0.333333333333333 0.3333333333333335 0.3333333333333335 0.333333333333333 0.3333333333333335 0.3333333333333335 0.333333333333333 0.3333333333333335 0.3333333333333335 0.333333333333333 0.3333333333333335 0.3333333333333335 0.333333333333333 0.3333333333333335 0.3333333333333335 0.333333333333333 0.3333333333333335 0.3333333333333335 0.333333333333333 0.3333333333333335 0.3333333333333335 0.333333333333333 0.3333333333333335 0.3333333333333335 0.333333333333333 0.3333333333333335 0.3333333333333335 0.333333333333333 0.3333333333333335 0.3333333333333335 0.333333333333333 0.3333333333333335 0.3333333333333335 0.333333333333333 0.3333333333333335 0.3333333333333335 0.333333333333333 0.3333333333333335 0.3333333333333335 0.333333333333333 0.3333333333333335 0.3333333333333335 0.333333333333333 0.3333333333333335 0.3333333333333335 0.333333333333333 0.3333333333333335 0.3333333333333335 0.333333333333333 0.3333333333333335 0.3333333333333335 0.333333333333333 0.3333333333333335 0.3333333333333335 0.333333333333333 0.3333333333333335 0.3333333333333335 0.333333333333333 0.3333333333333335 0.3333333333333335 0.333333333333333 0.3333333333333335 0.3333333333333335 0.333333333333333 0.3333333333333335 0.3333333333333335 0.333333333333333 0.3333333333333335 0.3333333333333335 0.333333333333333 0.3333333333333335 0.3333333333333335 0.333333333333333 0.3333333333333335 0.3333333333333335 0.333333333333333 0.3333333333333335 0.3333333333333335 0.333333333333333 0.3333333333333335 0.3333333333333335 0.333333333333333 0.3333333333333335 0.3333333333333335 0.333333333333333 0.3333333333333335 0.3333333333333335 0.333333333333333 0.3333333333333335 0.3333333333333335 0.333333333333333 0.3333333333333335 0.3333333333333335 0.333333333333333 0.3333333333333335 0.3333333333333335 0.333333333333333 0.3333333333333335 0.3333333333333335 0.333333333333333 0.3333333333333335 0.3333333333333335 0.333333333333333 0.3333333333333335 0.3333333333333335 0.333333333333333 0.3333333333333335 0.3333333333333335 0.333333333333333 0.3333333333333335 0.3333333333333335 0.333333333333333 0.3333333333333335 0.3333333333333335 0.333333333333333 0.3333333333333335 0.3333333333333335 0.333333333333333 0.3333333333333335 0.3333333333333335 0.333333333333333 0.3333333333333335 0.3333333333333335 0.333333333333333 0.3333333333333335 0.3333333333333335 0.333333333333333 0.3333333333333335 0.3333333333333335 0.333333333333333 0.3333333333333335 0.3333333333333335 0.333333333333333 0.3333333333333335 0.3333333333333335 0.333333333333333 0.3333333333333335 0.3333333333333335 0.333333333333333 0.3333333333333335 0.3333333333333335 0.333333333333333 0.3333333333333335 0.3333333333333335 0.333333333333333 0.3333333333333335 0.3333333333333335 0.333333333333333 0.3333333333333335 0.3333333333333335 0.333333333333333 0.3333333333333335 0.3333333333333335 0.333333333333333 0.3333333333333335 0.3333333333333335 0.333333333333333 0.3333333333333335 0.3333333333333335 0.333333333333333 0.3333333333333335 0.3333333333333335 0.333333333333333 0.3333333333333335 0.3333333333333335 0.333333333333333 0.3333333333333335 0.3333333333333335 0.333333333333333 0.3333333333333335 0.3333333333333335 0.333333333333333 0.3333333333333335 0.3333333333333335 0.333333333333333 0.3333333333333335 0.3333333333333335 0.333333333333333 0.3333333333333335 0.3333333333333335 0.333333333333333 0.3333333333333335 0.3333333333333335 0.333333333333333 0.3333333333333335 0.3333333333333335 0.333333333333333 0.3333333333333335 0.3333333333333335 0.333333333333333 0.3333333333333335 0.3333333333333335 0.333333333333333 0.3333333333333335 0.3333333333333335 0.333333333333333 0.3333333333333335 0.3333333333333335 0.333333333333333 0.3333333333333335 0.3333333333333335 0.333333333333333 0.3333333333333335 0.3333333333333335 0.333333333333333 0.3333333333333335 0.3333333333333335 0.333333333333333 0.3333333333333335 0.3333333333333335 0.333333333333333 0.3333333333333335 0.3333333333333335 0.333333333333333 0.3333333333333335 0.3333333333333335 0.333333333333333 0.3333333333333335 0.3333333333333335 0.333333333333333 0.3333333333333335 0.3333333333333335 0.333333333333333 0.3333333333333335 0.3333333333333335 0.333333333333333 0.3333333333333335 0.3333333333333335 0.333333333333333 0.3333333333333335 0.3333333333333335 0.333333333333333 0.3333333333333335 0.3333333333333335 0.333333333333333 0.3333333333333335 0.3333333333333335 0.333333333333333 0.3333333333333335 0.3333333333333335 0.333333333333333 0.3333333333333335 0.3333333333333335 0.333333333333333 0.3333333333333335 0.3333333333333335 0.333333333333333 0.3333333333333335 0.3333333333333335 0.333333333333333 0.3333333333333335 0.3333333333333335 0.333333333333333 0.3333333333333335 0.3333333333333335 0.333333333333333 0.3333333333333335 0.3333333333333335 0.333333333333333 0.3333333333333335 0.3333333333333335 0.333333333333333 0.3333333333333335 0.3333333333333335 0.333333333333333 0.3333333333333335 0.3333333333333335 0.333333333333333 0.3333333333333335 0.3333333333333335 0.333333333333333 0.3333333333333335 0.3333333333333335 0.333333333333333 0.3333333333333335 0.3333333333333335 0.333333333333333 0.3333333333333335 0.3333333333333335 0.333333333333333 0.3333333333333335 0.3333333333333335 0.333333333333333 0.3333333333333335 0.3333333333333335 0.333333333333333 0.3333333333333335 0.3333333333333335 0.333333333333333 0.3333333333333335 0.3333333333333335 0.333333333333333 0.3333333333333335 0.3333333333333335 0.333333333333333 0.3333333333333335 0.3333333333333335 0.333333333333333 0.3333333333333335 0.3333333333333335 0.333333333333333 0.3333333333333335 0.3333333333333335 0.333333333333333 0.3333333333333335 0.3333333333333335 0.333333333333333 0.3333333333333335 0.3333333333333335 0.333333333333333 0.3333333333333335 0.3333333333333335 0.333333333333333 0.3333333333333335 0.3333333333333335 0.333333333333333 0.3333333333333335 0.3333333333333335 0.333333333333333 0.3333333333333335 0.3333333333333335 0.333333333333333 0.3333333333333335 0.3333333333333335 0.333333333333333 0.3333333333333335 0.3333333333333335 0.333333333333333 0.3333333333333335 0.3333333333333335 0.333333333333333 0.3333333333333335 0.3333333333333335 0.333333333333333 0.3333333333333335 0.3333333333333335 0.333333333333333 0.3333333333333335 0.3333333333333335 0.333333333333333 0.3333333333333335 0.3333333333333335 0.333333333333333 0.3333333333333335 0.3333333333333335 0.333333333333333 0.3333333333333335 0.3333333333333335 0.333333333333333 0.3333333333333335 0.3333333333333335 0.333333333333333 0.3333333333333335 0.3333333333333335 0.333333333333333 0.3333333333333335 0.3333333333333335 0.333333333333333 0.3333333333333335 0.3333333333333335 0.333333333333333 0.3333333333333335 0.3333333333333335 0.333333333333333 0.3333333333333335 0.3333333333333335 0.333333333333333 0.3333333333333335 0.3333333333333335 0.333333333333333 0.3333333333333335 0.3333333333333335 0.333333333333333 0.3333333333333335 0.3333333333333335 0.333333333333333 0.3333333333333335 0.3333333333333335 0.333333333333333 0.3333333333333335 0.3333333333333335 0.333333333333333 0.3333333333333335 0.3333333333333335 0.333333333333333 0.3333333333333335 0.3333333333333335 0.333333333333333 0.3333333333333335 0.3333333333333335 0.333333333333333 0.3333333333333335 0.3333333333333335 0.333333333333333 0.3333333333333335 0.3333333333333335 0.333333333333333 0.3333333333333335 0.3333333333333335 0.333333333333333 0.3333333333333335 0.3333333333333335 0.333333333333333 0.3333333333333335 0.3333333333333335 0.333333333333333 0.3333333333333335 0.3333333333333335 0.333333333333333 0.3333333333333335 0.3333333333333335 0.333333333333333 0.3333333333333335 0.3333333333333335 0.333333333333333 0.3333333333333335 0.3333333333333335 0.333333333333333 0.3333333333333335 0.3333333333333335 0.333333333333333 0.3333333333333335 0.3333333333333335 0.333333333333333 0.3333333333333335 0.3333333333333335 0.333333333333333 0.3333333333333335 0.3333333333333335 0.333333333333333 0.3333333333333335 0.3333333333333335 0.333333333333333 0.3333333333333335 0.3333333333333335 0.333333333333333 0.3333333333333335 0.3333333333333335 0.333333333333333 0.3333333333333335 0.3333333333333335 0.333333333333333 0.3333333333333335 0.3333333333333335 0.333333333333333 0.3333333333333335 0.3333333333333335 0.333333333333333 0.3333333333333335 0.3333333333333335 0.333333333333333 0.3333333333333335 0.3333333333333335 0.333333333333333 0.3333333333333335 0.3333333333333335 0.333333333333333 0.3333333333333335 0.3333333333333335 0.333333333333333 0.3333333333333335 0.3333333333333335 0.333333333333333 0.3333333333333335 0.3333333333333335 0.333333333333333 0.3333333333333335 0.3333333333333335 0.333333333333333 0.3333333333333335 0.3333333333333335 0.333333333333333 0.3333333333333335 0.3333333333333335 0.333333333333333 0.3333333333333335 0.3333333333333335 0.333333333333333 0.3333333333333335 0.3333333333333335 0.333333333333333 0.3333333333333335 0.3333333333333335 0.333333333333333 0.3333333333333335 0.3333333333333335 0.333333333333333 0.3333333333333335 0.3333333333333335 0.333333333333333 0.3333333333333335 0.3333333333333335 0.333333333333333 0.3333333333333335 0.3333333333333335 0.333333333333333 0.3333333333333335 0.3333333333333335 0.333333333333333 0.3333333333333335 0.3333333333333335 0.333333333333333 0.3333333333333335 0.3333333333333335 0.333333333333333 0.3333333333333335 0.3333333333333335 0.333333333333333 0.3333333333333335 0.3333333333333335 0.333333333333333 0.3333333333333335 0.3333333333333335 0.333333333333333 0.3333333333333335 0.3333333333333335 0.333333333333333 0.3333333333333335 0.3333333333333335 0.333333333333333 0.3333333333333335 0.3333333333333335 0.333333333333333 0.3333333333333335 0.3333333333333335 0.333333333333333 0.3333333333333335 0.3333333333333335 0.333333333333333 0.3333333333333335 0.3333333333333335 0.333333333333333 0.3333333333333335 0.3333333333333335 0.333333333333333 0.3333333333333335 0.3333333333333335 0.333333333333333 0.3333333333333335 0.3333333333333335 0.333333333333333 0.3333333333333335 0.3333333333333335 0.333333333333333 0.3333333333333335 0.3333333333333335 0.333333333333333 0.3333333333333335 0.3333333333333335 0.333333333333333 0.3333333333333335 0.3333333333333335 0.333333333333333 0.3333333333333335 0.3333333333333335 0.333333333333333 0.3333333333333335 0.3333333333333335 0.333333333333333 0.3333333333333335 0.3333333333333335 0.333333333333333 0.3333333333333335 0.3333333333333335 0.333333333333333 0.3333333333333335 0.3333333333333335 0.333333333333333 0.3333333333333335 0.3333333333333335 0.333333333333333 0.3333333333333335 0.3333333333333335 0.333333333333333 0.3333333333333335 0.3333333333333335 0.333333333333333 0.3333333333333335 0.3333333333333335 0.333333333333333 0.3333333333333335 0.3333333333333335 0.333333333333333 0.3333333333333335 0.3333333333333335 0.333333333333333 0.3333333333333335 0.3333333333333335 0.333333333333333 0.3333333333333335 0.3333333333333335 0.333333333333333 0.3333333333333335 0.3333333333333335 0.333333333333333 0.3333333333333335 0.3333333333333335 0.333333333333333 0.3333333333333335 0.3333333333333335 0.333333333333333 0.3333333333333335 0.3333333333333335 0.333333333333333 0.3333333333333335 0.3333333333333335 0.333333333333333 0.3333333333333335 0.3333333333333335 0.333333333333333 0.3333333333333335 0.3333333333333335 0.333333333333333 0.3333333333333335 0.3333333333333335 0.333333333333333 0.3333333333333335 0.3333333333333335 0.333333333333333 0.3333333333333335 0.3333333333333335 0.333333333333333 0.3333333333333335 0.3333333333333335 0.333333333333333 0.3333333333333335 0.3333333333333335 0.333333333333333 0.3333333333333335 0.3333333333333335 0.333333333333333 0.3333333333333335 0.3333333333333335 0.333333333333333 0.3333333333333335 0.3333333333333335 0.333333333333333 0.3333333333333335 0.3333333333333335 0.333333333333333 0.3333333333333335 0.3333333333333335 0.333333333333333 0.3333333333333335 0.3333333333333335 0.333333333333333 0.3333333333333335 0.3333333333333335 0.333333333333333 0.3333333333333335 0.3333333333333335 0.333333333333333 0.3333333333333335 0.3333333333333335 0.333333333333333 0.3333333333333335 0.3333333333333335 0.333333333333333 0.3333333333333335 0.3333333333333335 0.333333333333333 0.3333333333333335 0.3333333333333335 0.333333333333333 0.3333333333333335 0.3333333333333335 0.333333333333333 0.3333333333333335 0.3333333333333335 0.333333333333333 0.3333333333333335 0.3333333333333335 0.333333333333333 0.3333333333333335 0.3333333333333335 0.333333333333333 0.3333333333333335 0.3333333333333335 0.333333333333333 0.3333333333333335 0.3333333333333335 0.333333333333333 0.3333333333333335 0.3333333333333335 0.333333333333333 0.3333333333333335 0.3333333333333335 0.333333333333333 0.3333333333333335 0.3333333333333335 0.333333333333333 0.3333333333333335 0.3333333333333335 0.333333333333333 0.3333333333333335 0.3333333333333335 0.333333333333333 0.3333333333333335 0.3333333333333335 0.333333333333333 0.3333333333333335 0.3333333333333335 0.333333333333333 0.3333333333333335 0.3333333333333335 0.333333333333333 0.3333333333333335 0.3333333333333335 0.333333333333333 0.3333333333333335 0.3333333333333335 0.333333333333333 0.3333333333333335 0.3333333333333335 0.333333333333333 0.3333333333333335 0.3333333333333335 0.333333333333333 0.3333333333333335 0.3333333333333335 0.333333333333333 0.3333333333333335 0.3333333333333335 0.333333333333333 0.3333333333333335 0.3333333333333335 0.333333333333333 0.3333333333333335 0.3333333333333335 0.333333333333333 0.3333333333333335 0.3333333333333335 0.333333333333333 0.3333333333333335 0.3333333333333335 0.333333333333333 0.3333333333333335 0.3333333333333335 0.333333333333333 0.3333333333333335 0.3333333333333335 0.333333333333333 0.3333333333333335 0.3333333333333335 0.333333333333333 0.3333333333333335 0.3333333333333335 0.333333333333333 0.3333333333333335 0.3333333333333335 0.333333333333333 0.3333333333333335 0.3333333333333335 0.333333333333333 0.3333333333333335 0.3333333333333335 0.333333333333333 0.3333333333333335 0.3333333333333335 0.333333333333333 0.3333333333333335 0.3333333333333335 0.333333333333333 0.3333333333333335 0.3333333333333335 0.333333333333333 0.3333333333333335 0.3333333333333335 0.333333333333333 0.3333333333333335 0.3333333333333335 0.333333333333333 0.3333333333333335 0.3333333333333335 0.333333333333333 0.3333333333333335 0.3333333333333335 0.333333333333333 0.3333333333333335 0.3333333333333335 0.333333333333333 0.3333333333333335 0.3333333333333335 0.333333333333333 0.3333333333333335 0.3333333333333335 0.333333333333333 0.3333333333333335 0.3333333333333335 0.333333333333333 0.3333333333333335 0.3333333333333335 0.333333333333333 0.3333333333333335 0.3333333333333335 0.333333333333333 0.3333333333333335 0.3333333333333335 0.333333333333333 0.3333333333333335 0.3333333333333335 0.333333333333333 0.3333333333333335 0.3333333333333335 0.333333333333333 0.3333333333333335 0.3333333333333335 0.333333333333333 0.3333333333333335 0.3333333333333335 0.333333333333333 0.3333333333333335 0.3333333333333335 0.333333333333333 0.3333333333333335 0.3333333333333335 0.333333333333333 0.3333333333333335 0.3333333333333335 0.333333333333333 0.3333333333333335 0.3333333333333335 0.333333333333333 0.3333333333333335 0.3333333333333335 0.333333333333333 0.3333333333333335 0.3333333333333335 0.333333333333333 0.3333333333333335 0.3333333333333335 0.333333333333333 0.3333333333333335 0.3333333333333335 0.333333333333333 0.3333333333333335 0.3333333333333335 0.333333333333333 0.3333333333333335 0.3333333333333335 0.333333333333333 0.3333333333333335 0.3333333333333335 0.333333333333333 0.3333333333333335 0.3333333333333335 0.333333333333333 0.3333333333333335 0.3333333333333335 0.333333333333333 0.3333333333333335 0.3333333333333335 0.333333333333333 0.3333333333333335 0.3333333333333335 0.333333333333333 0.3333333333333335 0.3333333333333335 0.333333333333333 0.3333333333333335 0.3333333333333335 0.333333333333333 0.3333333333333335 0.3333333333333335 0.333333333333333 0.3333333333333335 0.3333333333333335 0.333333333333333 0.3333333333333335 0.3333333333333335 0.333333333333333 0.3333333333333335 0.3333333333333335 0.333333333333333 0.3333333333333335 0.3333333333333335 0.333333333333333 0.3333333333333335 0.3333333333333335 0.333333333333333 0.3333333333333335 0.3333333333333335 0.333333333333333 0.3333333333333335 0.3333333333333335 0.333333333333333 0.3333333333333335 0.3333333333333335 0.333333333333333 0.3333333333333335 0.3333333333333335 0.333333333333333 0.3333333333333335 0.3333333333333335 0.333333333333333 0.3333333333333335 0.3333333333333335 0.333333333333333 0.3333333333333335 0.3333333333333335 0.333333333333333 0.3333333333333335 0.3333333333333335 0.333333333333333 0.3333333333333335 0.3333333333333335 0.333333333333333 0.3333333333333335 0.3333333333333335 0.333333333333333 0.3333333333333335 0.3333333333333335 0.333333333333333 0.3333333333333335 0.3333333333333335 0.333333333333333 0.3333333333333335 0.3333333333333335 0.333333333333333 0.3333333333333335 0.3333333333333335 0.333333333333333 0.3333333333333335 0.3333333333333335 0.333333333333333 0.3333333333333335 0.3333333333333335 0.333333333333333 0.3333333333333335 0.3333333333333335 0.333333333333333 0.3333333333333335 0.3333333333333335 0.333333333333333 0.3333333333333335 0.3333333333333335 0.333333333333333 0.3333333333333335 0.3333333333333335 0.333333333333333 0.3333333333333335 0.3333333333333335 0.333333333333333 0.3333333333333335 0.3333333333333335 0.333333333333333 0.3333333333333335 0.3333333333333335 0.333333333333333 0.3333333333333335 0.3333333333333335 0.333333333333333 0.3333333333333335 0.3333333333333335 0.333333333333333 0.3333333333333335 0.3333333333333335 0.333333333333333 0.3333333333333335 0.3333333333333335 0.333333333333333 0.3333333333333335 0.3333333333333335 0.333333333333333 0.3333333333333335 0.3333333333333335 0.333333333333333 0.3333333333333335 0.3333333333333335 0.333333333333333 0.3333333333333335 0.3333333333333335 0.333333333333333 0.3333333333333335 0.3333333333333335 0.333333333333333 0.3333333333333335 0.3333333333333335 0.333333333333333 0.3333333333333335 0.3333333333333335 0.333333333333333 0.3333333333333335 0.3333333333333335 0.333333333333333 0.3333333333333335 0.3333333333333335 0.333333333333333 0.3333333333333335 0.3333333333333335 0.333333333333333 0.3333333333333335 0.3333333333333335 0.333333333333333 0.3333333333333335 0.3333333333333335 0.333333333333333 0.3333333333333335 0.3333333333333335 0.333333333333333 0.3333333333333335 0.3333333333333335 0.333333333333333 0.3333333333333335 0.3333333333333335 0.333333333333333 0.3333333333333335 0.3333333333333335 0.333333333333333 0.3333333333333335 0.3333333333333335 0.333333333333333 0.3333333333333335 0.3333333333333335 0.333333333333333 0.3333333333333335 0.3333333333333335 0.333333333333333 0.3333333333333335 0.3333333333333335 0.333333333333333 0.3333333333333335 0.3333333333333335 0.333333333333333 0.3333333333333335 0.3333333333333335 0.333333333333333 0.3333333333333335 0.3333333333333335 0.333333333333333 0.3333333333333335 0.3333333333333335 0.333333333333333 0.3333333333333335 0.3333333333333335 0.333333333333333 0.3333333333333335 0.3333333333333335 0.333333333333333</probabilities>
		</cpt>
		<cpt id="faceDirection">
			<state id="None_HAE_Face" />
			<state id="Far_Center_Face" />
			<state id="Center_Face" />
			<parents>attentionLevel</parents>
			<probabilities>0.5357226516748653 0.2841414851253221 0.1801358631998126 0.1347517730496454 0.5116514690982776 0.353596757852077 0.007751937984496124 0.1902206320810972 0.8020274299344067</probabilities>
		</cpt>
		<cpt id="bodyDirection">
			<state id="None_HAE_Body" />
			<state id="Far_Center_Body" />
			<state id="Near_Center_Body" />
			<state id="Center_Body" />
			<parents>attentionLevel</parents>
			<probabilities>0.6481026001405481 0.2700281096275474 0.07044975404075896 0.01141953619114547 0.06155015197568389 0.1466565349544073 0.1466565349544073 0.6451367781155015 0.007602862254025045 0.01475849731663685 0.1793381037567084 0.7983005366726297</probabilities>
		</cpt>
		<cpt id="audioInput">
			<state id="None" />
			<state id="Low" />
			<state id="Medium" />
			<state id="High" />
			<parents>attentionLevel audioNoise</parents>
			<probabilities>0.8982782853127196 0.06201686577652846 0.03109627547434997 0.008608573436401968 0.25 0.25 0.25 0.25 0.25 0.25 0.25 0.25 0.25 0.25 0.25 0.25 0.9369300911854104 0.04939209726443769 0.01291793313069909 0.0007598784194528875 0.25 0.25 0.25 0.25 0.25 0.25 0.25 0.25 0.25 0.25 0.25 0.25 0.6659212880143113 0.1006261180679785 0.157871198568873 0.07558139534883721 0.25 0.25 0.25 0.25 0.25 0.25 0.25 0.25 0.25 0.25 0.25 0.25</probabilities>
		</cpt>
		<cpt id="robotMotionSpeed_1">
			<state id="Low" />
			<state id="Medium" />
			<state id="High" />
			<parents>robotMotionSpeed</parents>
			<probabilities>0.9996150885296383 0.0001924557351809084 0.0001924557351809085 0.3333333333333333 0.3333333333333333 0.3333333333333334 0.3333333333333333 0.3333333333333333 0.3333333333333334</probabilities>
		</cpt>
		<cpt id="robotPose_1">
			<state id="Far" />
			<state id="Medium" />
			<state id="Close" />
			<parents>robotPose</parents>
			<probabilities>0.8698140200286124 0.09084406294706726 0.03934191702432046 0.02742073693230505 0.918166238217652 0.05441302485004284 0.07414965986394559 0.04353741496598639 0.882312925170068</probabilities>
		</cpt>
		<cpt id="robotSoundVolume_1">
			<state id="Low" />
			<state id="Medium" />
			<state id="High" />
			<parents>audioNoise robotSoundVolume</parents>
			<probabilities>0.9996150885296383 0.0001924557351809084 0.0001924557351809085 0.3333333333333333 0.3333333333333333 0.3333333333333334 0.3333333333333333 0.3333333333333333 0.3333333333333334 0.3333333333333333 0.3333333333333333 0.3333333333333334 0.3333333333333333 0.3333333333333333 0.3333333333333334 0.3333333333333333 0.3333333333333333 0.3333333333333334 0.3333333333333333 0.3333333333333333 0.3333333333333334 0.3333333333333333 0.3333333333333333 0.3333333333333334 0.3333333333333333 0.3333333333333333 0.3333333333333334 0.3333333333333333 0.3333333333333333 0.3333333333333334 0.3333333333333333 0.3333333333333333 0.3333333333333334 0.3333333333333333 0.3333333333333333 0.3333333333333334</probabilities>
		</cpt>
		<cpt id="attentionLevel_1">
			<state id="Neglect" />
			<state id="Contingency" />
			<state id="AttentionHigh" />
			<parents>attentionContext audioNoise robotSoundVolume_1 robotPose_1 robotMotionSpeed_1 attentionLevel</parents>
			<probabilities>0.9676044330775789 0.03154305200341007 0.0008525149190110819 0.1075268817204301 0.881720430107527 0.010752688172043 0.4263565891472868 0.007751937984496127 0.5658914728682171 0.3333333333333335 0.3333333333333335 0.333333333333333 0.3333333333333335 0.3333333333333335 0.333333333333333 0.3333333333333335 0.3333333333333335 0.333333333333333 0.3333333333333335 0.3333333333333335 0.333333333333333 0.3333333333333335 0.3333333333333335 0.333333333333333 0.3333333333333335 0.3333333333333335 0.333333333333333 0.937428896473265 0.06200227531285551 0.0005688282138794077 0.13189448441247 0.7577937649880095 0.1103117505995204 0.006060606060606063 0.006060606060606063 0.9878787878787879 0.3333333333333335 0.3333333333333335 0.333333333333333 0.3333333333333335 0.3333333333333335 0.333333333333333 0.3333333333333335 0.3333333333333335 0.333333333333333 0.3333333333333335 0.3333333333333335 0.333333333333333 0.3333333333333335 0.3333333333333335 0.333333333333333 0.3333333333333335 0.3333333333333335 0.333333333333333 0.8652482269503546 0.1312056737588653 0.003546099290780139 0.1561181434599156 0.6877637130801688 0.1561181434599156 0.01966873706004141 0.001035196687370601 0.9792960662525879 0.3333333333333335 0.3333333333333335 0.333333333333333 0.3333333333333335 0.3333333333333335 0.333333333333333 0.3333333333333335 0.3333333333333335 0.333333333333333 0.3333333333333335 0.3333333333333335 0.333333333333333 0.3333333333333335 0.3333333333333335 0.333333333333333 0.3333333333333335 0.3333333333333335 0.333333333333333 0.3333333333333335 0.3333333333333335 0.333333333333333 0.3333333333333335 0.3333333333333335 0.333333333333333 0.3333333333333335 0.3333333333333335 0.333333333333333 0.3333333333333335 0.3333333333333335 0.333333333333333 0.3333333333333335 0.3333333333333335 0.333333333333333 0.3333333333333335 0.3333333333333335 0.333333333333333 0.3333333333333335 0.3333333333333335 0.333333333333333 0.3333333333333335 0.3333333333333335 0.333333333333333 0.3333333333333335 0.3333333333333335 0.333333333333333 0.3333333333333335 0.3333333333333335 0.333333333333333 0.3333333333333335 0.3333333333333335 0.333333333333333 0.3333333333333335 0.3333333333333335 0.333333333333333 0.3333333333333335 0.3333333333333335 0.333333333333333 0.3333333333333335 0.3333333333333335 0.333333333333333 0.3333333333333335 0.3333333333333335 0.333333333333333 0.3333333333333335 0.3333333333333335 0.333333333333333 0.3333333333333335 0.3333333333333335 0.333333333333333 0.3333333333333335 0.3333333333333335 0.333333333333333 0.3333333333333335 0.3333333333333335 0.333333333333333 0.3333333333333335 0.3333333333333335 0.333333333333333 0.3333333333333335 0.3333333333333335 0.333333333333333 0.3333333333333335 0.3333333333333335 0.333333333333333 0.3333333333333335 0.3333333333333335 0.333333333333333 0.3333333333333335 0.3333333333333335 0.333333333333333 0.3333333333333335 0.3333333333333335 0.333333333333333 0.3333333333333335 0.3333333333333335 0.333333333333333 0.3333333333333335 0.3333333333333335 0.333333333333333 0.3333333333333335 0.3333333333333335 0.333333333333333 0.3333333333333335 0.3333333333333335 0.333333333333333 0.3333333333333335 0.3333333333333335 0.333333333333333 0.3333333333333335 0.3333333333333335 0.333333333333333 0.3333333333333335 0.3333333333333335 0.333333333333333 0.3333333333333335 0.3333333333333335 0.333333333333333 0.3333333333333335 0.3333333333333335 0.333333333333333 0.3333333333333335 0.3333333333333335 0.333333333333333 0.3333333333333335 0.3333333333333335 0.333333333333333 0.3333333333333335 0.3333333333333335 0.333333333333333 0.3333333333333335 0.3333333333333335 0.333333333333333 0.3333333333333335 0.3333333333333335 0.333333333333333 0.3333333333333335 0.3333333333333335 0.333333333333333 0.3333333333333335 0.3333333333333335 0.333333333333333 0.3333333333333335 0.3333333333333335 0.333333333333333 0.3333333333333335 0.3333333333333335 0.333333333333333 0.3333333333333335 0.3333333333333335 0.333333333333333 0.3333333333333335 0.3333333333333335 0.333333333333333 0.3333333333333335 0.3333333333333335 0.333333333333333 0.3333333333333335 0.3333333333333335 0.333333333333333 0.3333333333333335 0.3333333333333335 0.333333333333333 0.3333333333333335 0.3333333333333335 0.333333333333333 0.3333333333333335 0.3333333333333335 0.333333333333333 0.3333333333333335 0.3333333333333335 0.333333333333333 0.3333333333333335 0.3333333333333335 0.333333333333333 0.3333333333333335 0.3333333333333335 0.333333333333333 0.3333333333333335 0.3333333333333335 0.333333333333333 0.3333333333333335 0.3333333333333335 0.333333333333333 0.3333333333333335 0.3333333333333335 0.333333333333333 0.3333333333333335 0.3333333333333335 0.333333333333333 0.3333333333333335 0.3333333333333335 0.333333333333333 0.3333333333333335 0.3333333333333335 0.333333333333333 0.3333333333333335 0.3333333333333335 0.333333333333333 0.3333333333333335 0.3333333333333335 0.333333333333333 0.3333333333333335 0.3333333333333335 0.333333333333333 0.3333333333333335 0.3333333333333335 0.333333333333333 0.3333333333333335 0.3333333333333335 0.333333333333333 0.3333333333333335 0.3333333333333335 0.333333333333333 0.3333333333333335 0.3333333333333335 0.333333333333333 0.3333333333333335 0.3333333333333335 0.333333333333333 0.3333333333333335 0.3333333333333335 0.333333333333333 0.3333333333333335 0.3333333333333335 0.333333333333333 0.3333333333333335 0.3333333333333335 0.333333333333333 0.3333333333333335 0.3333333333333335 0.333333333333333 0.3333333333333335 0.3333333333333335 0.333333333333333 0.3333333333333335 0.3333333333333335 0.333333333333333 0.3333333333333335 0.3333333333333335 0.333333333333333 0.3333333333333335 0.3333333333333335 0.333333333333333 0.3333333333333335 0.3333333333333335 0.333333333333333 0.3333333333333335 0.3333333333333335 0.333333333333333 0.3333333333333335 0.3333333333333335 0.333333333333333 0.3333333333333335 0.3333333333333335 0.333333333333333 0.3333333333333335 0.3333333333333335 0.333333333333333 0.3333333333333335 0.3333333333333335 0.333333333333333 0.3333333333333335 0.3333333333333335 0.333333333333333 0.3333333333333335 0.3333333333333335 0.333333333333333 0.3333333333333335 0.3333333333333335 0.333333333333333 0.3333333333333335 0.3333333333333335 0.333333333333333 0.3333333333333335 0.3333333333333335 0.333333333333333 0.3333333333333335 0.3333333333333335 0.333333333333333 0.3333333333333335 0.3333333333333335 0.333333333333333 0.3333333333333335 0.3333333333333335 0.333333333333333 0.3333333333333335 0.3333333333333335 0.333333333333333 0.3333333333333335 0.3333333333333335 0.333333333333333 0.3333333333333335 0.3333333333333335 0.333333333333333 0.3333333333333335 0.3333333333333335 0.333333333333333 0.3333333333333335 0.3333333333333335 0.333333333333333 0.3333333333333335 0.3333333333333335 0.333333333333333 0.3333333333333335 0.3333333333333335 0.333333333333333 0.3333333333333335 0.3333333333333335 0.333333333333333 0.3333333333333335 0.3333333333333335 0.333333333333333 0.3333333333333335 0.3333333333333335 0.333333333333333 0.3333333333333335 0.3333333333333335 0.333333333333333 0.3333333333333335 0.3333333333333335 0.333333333333333 0.3333333333333335 0.3333333333333335 0.333333333333333 0.3333333333333335 0.3333333333333335 0.333333333333333 0.3333333333333335 0.3333333333333335 0.333333333333333 0.3333333333333335 0.3333333333333335 0.333333333333333 0.3333333333333335 0.3333333333333335 0.333333333333333 0.3333333333333335 0.3333333333333335 0.333333333333333 0.3333333333333335 0.3333333333333335 0.333333333333333 0.3333333333333335 0.3333333333333335 0.333333333333333 0.3333333333333335 0.3333333333333335 0.333333333333333 0.3333333333333335 0.3333333333333335 0.333333333333333 0.3333333333333335 0.3333333333333335 0.333333333333333 0.3333333333333335 0.3333333333333335 0.333333333333333 0.3333333333333335 0.3333333333333335 0.333333333333333 0.3333333333333335 0.3333333333333335 0.333333333333333 0.3333333333333335 0.3333333333333335 0.333333333333333 0.3333333333333335 0.3333333333333335 0.333333333333333 0.3333333333333335 0.3333333333333335 0.333333333333333 0.3333333333333335 0.3333333333333335 0.333333333333333 0.3333333333333335 0.3333333333333335 0.333333333333333 0.3333333333333335 0.3333333333333335 0.333333333333333 0.3333333333333335 0.3333333333333335 0.333333333333333 0.3333333333333335 0.3333333333333335 0.333333333333333 0.3333333333333335 0.3333333333333335 0.333333333333333 0.3333333333333335 0.3333333333333335 0.333333333333333 0.3333333333333335 0.3333333333333335 0.333333333333333 0.3333333333333335 0.3333333333333335 0.333333333333333 0.3333333333333335 0.3333333333333335 0.333333333333333 0.3333333333333335 0.3333333333333335 0.333333333333333 0.3333333333333335 0.3333333333333335 0.333333333333333 0.3333333333333335 0.3333333333333335 0.333333333333333 0.3333333333333335 0.3333333333333335 0.333333333333333 0.3333333333333335 0.3333333333333335 0.333333333333333 0.3333333333333335 0.3333333333333335 0.333333333333333 0.3333333333333335 0.3333333333333335 0.333333333333333 0.3333333333333335 0.3333333333333335 0.333333333333333 0.3333333333333335 0.3333333333333335 0.333333333333333 0.3333333333333335 0.3333333333333335 0.333333333333333 0.3333333333333335 0.3333333333333335 0.333333333333333 0.3333333333333335 0.3333333333333335 0.333333333333333 0.3333333333333335 0.3333333333333335 0.333333333333333 0.3333333333333335 0.3333333333333335 0.333333333333333 0.3333333333333335 0.3333333333333335 0.333333333333333 0.3333333333333335 0.3333333333333335 0.333333333333333 0.3333333333333335 0.3333333333333335 0.333333333333333 0.3333333333333335 0.3333333333333335 0.333333333333333 0.3333333333333335 0.3333333333333335 0.333333333333333 0.3333333333333335 0.3333333333333335 0.333333333333333 0.3333333333333335 0.3333333333333335 0.333333333333333 0.3333333333333335 0.3333333333333335 0.333333333333333 0.3333333333333335 0.3333333333333335 0.333333333333333 0.3333333333333335 0.3333333333333335 0.333333333333333 0.3333333333333335 0.3333333333333335 0.333333333333333 0.3333333333333335 0.3333333333333335 0.333333333333333 0.3333333333333335 0.3333333333333335 0.333333333333333 0.3333333333333335 0.3333333333333335 0.333333333333333 0.3333333333333335 0.3333333333333335 0.333333333333333 0.3333333333333335 0.3333333333333335 0.333333333333333 0.3333333333333335 0.3333333333333335 0.333333333333333 0.3333333333333335 0.3333333333333335 0.333333333333333 0.3333333333333335 0.3333333333333335 0.333333333333333 0.3333333333333335 0.3333333333333335 0.333333333333333 0.3333333333333335 0.3333333333333335 0.333333333333333 0.3333333333333335 0.3333333333333335 0.333333333333333 0.3333333333333335 0.3333333333333335 0.333333333333333 0.3333333333333335 0.3333333333333335 0.333333333333333 0.3333333333333335 0.3333333333333335 0.333333333333333 0.3333333333333335 0.3333333333333335 0.333333333333333 0.3333333333333335 0.3333333333333335 0.333333333333333 0.3333333333333335 0.3333333333333335 0.333333333333333 0.3333333333333335 0.3333333333333335 0.333333333333333 0.3333333333333335 0.3333333333333335 0.333333333333333 0.3333333333333335 0.3333333333333335 0.333333333333333 0.3333333333333335 0.3333333333333335 0.333333333333333 0.3333333333333335 0.3333333333333335 0.333333333333333 0.3333333333333335 0.3333333333333335 0.333333333333333 0.3333333333333335 0.3333333333333335 0.333333333333333 0.3333333333333335 0.3333333333333335 0.333333333333333 0.3333333333333335 0.3333333333333335 0.333333333333333 0.3333333333333335 0.3333333333333335 0.333333333333333 0.3333333333333335 0.3333333333333335 0.333333333333333 0.3333333333333335 0.3333333333333335 0.333333333333333 0.3333333333333335 0.3333333333333335 0.333333333333333 0.3333333333333335 0.3333333333333335 0.333333333333333 0.3333333333333335 0.3333333333333335 0.333333333333333 0.3333333333333335 0.3333333333333335 0.333333333333333 0.3333333333333335 0.3333333333333335 0.333333333333333 0.3333333333333335 0.3333333333333335 0.333333333333333 0.3333333333333335 0.3333333333333335 0.333333333333333 0.3333333333333335 0.3333333333333335 0.333333333333333 0.3333333333333335 0.3333333333333335 0.333333333333333 0.3333333333333335 0.3333333333333335 0.333333333333333 0.3333333333333335 0.3333333333333335 0.333333333333333 0.3333333333333335 0.3333333333333335 0.333333333333333 0.3333333333333335 0.3333333333333335 0.333333333333333 0.3333333333333335 0.3333333333333335 0.333333333333333 0.3333333333333335 0.3333333333333335 0.333333333333333 0.3333333333333335 0.3333333333333335 0.333333333333333 0.3333333333333335 0.3333333333333335 0.333333333333333 0.3333333333333335 0.3333333333333335 0.333333333333333 0.3333333333333335 0.3333333333333335 0.333333333333333 0.3333333333333335 0.3333333333333335 0.333333333333333 0.3333333333333335 0.3333333333333335 0.333333333333333 0.3333333333333335 0.3333333333333335 0.333333333333333 0.3333333333333335 0.3333333333333335 0.333333333333333 0.3333333333333335 0.3333333333333335 0.333333333333333 0.3333333333333335 0.3333333333333335 0.333333333333333 0.3333333333333335 0.3333333333333335 0.333333333333333 0.3333333333333335 0.3333333333333335 0.333333333333333 0.3333333333333335 0.3333333333333335 0.333333333333333 0.3333333333333335 0.3333333333333335 0.333333333333333 0.3333333333333335 0.3333333333333335 0.333333333333333 0.3333333333333335 0.3333333333333335 0.333333333333333 0.3333333333333335 0.3333333333333335 0.333333333333333 0.3333333333333335 0.3333333333333335 0.333333333333333 0.3333333333333335 0.3333333333333335 0.333333333333333 0.3333333333333335 0.3333333333333335 0.333333333333333 0.3333333333333335 0.3333333333333335 0.333333333333333 0.3333333333333335 0.3333333333333335 0.333333333333333 0.3333333333333335 0.3333333333333335 0.333333333333333 0.3333333333333335 0.3333333333333335 0.333333333333333 0.3333333333333335 0.3333333333333335 0.333333333333333 0.3333333333333335 0.3333333333333335 0.333333333333333 0.3333333333333335 0.3333333333333335 0.333333333333333 0.3333333333333335 0.3333333333333335 0.333333333333333 0.3333333333333335 0.3333333333333335 0.333333333333333 0.3333333333333335 0.3333333333333335 0.333333333333333 0.3333333333333335 0.3333333333333335 0.333333333333333 0.3333333333333335 0.3333333333333335 0.333333333333333 0.3333333333333335 0.3333333333333335 0.333333333333333 0.3333333333333335 0.3333333333333335 0.333333333333333 0.3333333333333335 0.3333333333333335 0.333333333333333 0.3333333333333335 0.3333333333333335 0.333333333333333 0.3333333333333335 0.3333333333333335 0.333333333333333 0.3333333333333335 0.3333333333333335 0.333333333333333 0.3333333333333335 0.3333333333333335 0.333333333333333 0.3333333333333335 0.3333333333333335 0.333333333333333 0.3333333333333335 0.3333333333333335 0.333333333333333 0.3333333333333335 0.3333333333333335 0.333333333333333 0.3333333333333335 0.3333333333333335 0.333333333333333 0.3333333333333335 0.3333333333333335 0.333333333333333 0.3333333333333335 0.3333333333333335 0.333333333333333 0.3333333333333335 0.3333333333333335 0.333333333333333 0.3333333333333335 0.3333333333333335 0.333333333333333 0.3333333333333335 0.3333333333333335 0.333333333333333 0.3333333333333335 0.3333333333333335 0.333333333333333 0.3333333333333335 0.3333333333333335 0.333333333333333 0.3333333333333335 0.3333333333333335 0.333333333333333 0.3333333333333335 0.3333333333333335 0.333333333333333 0.3333333333333335 0.3333333333333335 0.333333333333333 0.3333333333333335 0.3333333333333335 0.333333333333333 0.3333333333333335 0.3333333333333335 0.333333333333333 0.3333333333333335 0.3333333333333335 0.333333333333333 0.3333333333333335 0.3333333333333335 0.333333333333333 0.3333333333333335 0.3333333333333335 0.333333333333333 0.3333333333333335 0.3333333333333335 0.333333333333333 0.3333333333333335 0.3333333333333335 0.333333333333333 0.3333333333333335 0.3333333333333335 0.333333333333333 0.3333333333333335 0.3333333333333335 0.333333333333333 0.3333333333333335 0.3333333333333335 0.333333333333333 0.3333333333333335 0.3333333333333335 0.333333333333333 0.3333333333333335 0.3333333333333335 0.333333333333333 0.3333333333333335 0.3333333333333335 0.333333333333333 0.3333333333333335 0.3333333333333335 0.333333333333333 0.3333333333333335 0.3333333333333335 0.333333333333333 0.3333333333333335 0.3333333333333335 0.333333333333333 0.3333333333333335 0.3333333333333335 0.333333333333333 0.3333333333333335 0.3333333333333335 0.333333333333333 0.3333333333333335 0.3333333333333335 0.333333333333333 0.3333333333333335 0.3333333333333335 0.333333333333333 0.3333333333333335 0.3333333333333335 0.333333333333333 0.3333333333333335 0.3333333333333335 0.333333333333333 0.3333333333333335 0.3333333333333335 0.333333333333333 0.3333333333333335 0.3333333333333335 0.333333333333333 0.3333333333333335 0.3333333333333335 0.333333333333333 0.3333333333333335 0.3333333333333335 0.333333333333333 0.3333333333333335 0.3333333333333335 0.333333333333333 0.3333333333333335 0.3333333333333335 0.333333333333333 0.3333333333333335 0.3333333333333335 0.333333333333333 0.3333333333333335 0.3333333333333335 0.333333333333333 0.3333333333333335 0.3333333333333335 0.333333333333333 0.3333333333333335 0.3333333333333335 0.333333333333333 0.3333333333333335 0.3333333333333335 0.333333333333333 0.3333333333333335 0.3333333333333335 0.333333333333333 0.3333333333333335 0.3333333333333335 0.333333333333333 0.3333333333333335 0.3333333333333335 0.333333333333333 0.3333333333333335 0.3333333333333335 0.333333333333333 0.3333333333333335 0.3333333333333335 0.333333333333333 0.3333333333333335 0.3333333333333335 0.333333333333333 0.3333333333333335 0.3333333333333335 0.333333333333333 0.3333333333333335 0.3333333333333335 0.333333333333333 0.3333333333333335 0.3333333333333335 0.333333333333333 0.3333333333333335 0.3333333333333335 0.333333333333333 0.3333333333333335 0.3333333333333335 0.333333333333333 0.3333333333333335 0.3333333333333335 0.333333333333333 0.3333333333333335 0.3333333333333335 0.333333333333333 0.3333333333333335 0.3333333333333335 0.333333333333333 0.3333333333333335 0.3333333333333335 0.333333333333333 0.3333333333333335 0.3333333333333335 0.333333333333333 0.3333333333333335 0.3333333333333335 0.333333333333333 0.3333333333333335 0.3333333333333335 0.333333333333333 0.3333333333333335 0.3333333333333335 0.333333333333333 0.3333333333333335 0.3333333333333335 0.333333333333333 0.3333333333333335 0.3333333333333335 0.333333333333333 0.3333333333333335 0.3333333333333335 0.333333333333333 0.3333333333333335 0.3333333333333335 0.333333333333333 0.3333333333333335 0.3333333333333335 0.333333333333333 0.3333333333333335 0.3333333333333335 0.333333333333333 0.3333333333333335 0.3333333333333335 0.333333333333333 0.3333333333333335 0.3333333333333335 0.333333333333333 0.3333333333333335 0.3333333333333335 0.333333333333333 0.3333333333333335 0.3333333333333335 0.333333333333333 0.3333333333333335 0.3333333333333335 0.333333333333333 0.3333333333333335 0.3333333333333335 0.333333333333333 0.3333333333333335 0.3333333333333335 0.333333333333333 0.3333333333333335 0.3333333333333335 0.333333333333333 0.3333333333333335 0.3333333333333335 0.333333333333333 0.3333333333333335 0.3333333333333335 0.333333333333333 0.3333333333333335 0.3333333333333335 0.333333333333333 0.3333333333333335 0.3333333333333335 0.333333333333333 0.3333333333333335 0.3333333333333335 0.333333333333333 0.3333333333333335 0.3333333333333335 0.333333333333333 0.3333333333333335 0.3333333333333335 0.333333333333333 0.3333333333333335 0.3333333333333335 0.333333333333333 0.3333333333333335 0.3333333333333335 0.333333333333333 0.3333333333333335 0.3333333333333335 0.333333333333333 0.3333333333333335 0.3333333333333335 0.333333333333333 0.3333333333333335 0.3333333333333335 0.333333333333333 0.3333333333333335 0.3333333333333335 0.333333333333333 0.3333333333333335 0.3333333333333335 0.333333333333333 0.3333333333333335 0.3333333333333335 0.333333333333333 0.3333333333333335 0.3333333333333335 0.333333333333333 0.3333333333333335 0.3333333333333335 0.333333333333333 0.3333333333333335 0.3333333333333335 0.333333333333333 0.3333333333333335 0.3333333333333335 0.333333333333333 0.3333333333333335 0.3333333333333335 0.333333333333333 0.3333333333333335 0.3333333333333335 0.333333333333333 0.3333333333333335 0.3333333333333335 0.333333333333333 0.3333333333333335 0.3333333333333335 0.333333333333333 0.3333333333333335 0.3333333333333335 0.333333333333333 0.3333333333333335 0.3333333333333335 0.333333333333333 0.3333333333333335 0.3333333333333335 0.333333333333333 0.3333333333333335 0.3333333333333335 0.333333333333333 0.3333333333333335 0.3333333333333335 0.333333333333333 0.3333333333333335 0.3333333333333335 0.333333333333333 0.3333333333333335 0.3333333333333335 0.333333333333333 0.3333333333333335 0.3333333333333335 0.333333333333333 0.3333333333333335 0.3333333333333335 0.333333333333333 0.3333333333333335 0.3333333333333335 0.333333333333333 0.3333333333333335 0.3333333333333335 0.333333333333333 0.3333333333333335 0.3333333333333335 0.333333333333333 0.3333333333333335 0.3333333333333335 0.333333333333333 0.3333333333333335 0.3333333333333335 0.333333333333333 0.3333333333333335 0.3333333333333335 0.333333333333333 0.3333333333333335 0.3333333333333335 0.333333333333333 0.3333333333333335 0.3333333333333335 0.333333333333333 0.3333333333333335 0.3333333333333335 0.333333333333333 0.3333333333333335 0.3333333333333335 0.333333333333333 0.3333333333333335 0.3333333333333335 0.333333333333333 0.3333333333333335 0.3333333333333335 0.333333333333333 0.3333333333333335 0.3333333333333335 0.333333333333333 0.3333333333333335 0.3333333333333335 0.333333333333333 0.3333333333333335 0.3333333333333335 0.333333333333333 0.3333333333333335 0.3333333333333335 0.333333333333333 0.3333333333333335 0.3333333333333335 0.333333333333333 0.3333333333333335 0.3333333333333335 0.333333333333333 0.3333333333333335 0.3333333333333335 0.333333333333333 0.3333333333333335 0.3333333333333335 0.333333333333333 0.3333333333333335 0.3333333333333335 0.333333333333333 0.3333333333333335 0.3333333333333335 0.333333333333333 0.3333333333333335 0.3333333333333335 0.333333333333333 0.3333333333333335 0.3333333333333335 0.333333333333333 0.3333333333333335 0.3333333333333335 0.333333333333333 0.3333333333333335 0.3333333333333335 0.333333333333333 0.3333333333333335 0.3333333333333335 0.333333333333333 0.3333333333333335 0.3333333333333335 0.333333333333333 0.3333333333333335 0.3333333333333335 0.333333333333333 0.3333333333333335 0.3333333333333335 0.333333333333333 0.3333333333333335 0.3333333333333335 0.333333333333333 0.3333333333333335 0.3333333333333335 0.333333333333333 0.3333333333333335 0.3333333333333335 0.333333333333333 0.3333333333333335 0.3333333333333335 0.333333333333333 0.3333333333333335 0.3333333333333335 0.333333333333333 0.3333333333333335 0.3333333333333335 0.333333333333333 0.3333333333333335 0.3333333333333335 0.333333333333333 0.3333333333333335 0.3333333333333335 0.333333333333333 0.3333333333333335 0.3333333333333335 0.333333333333333 0.3333333333333335 0.3333333333333335 0.333333333333333 0.3333333333333335 0.3333333333333335 0.333333333333333 0.3333333333333335 0.3333333333333335 0.333333333333333 0.3333333333333335 0.3333333333333335 0.333333333333333 0.3333333333333335 0.3333333333333335 0.333333333333333 0.3333333333333335 0.3333333333333335 0.333333333333333 0.3333333333333335 0.3333333333333335 0.333333333333333 0.3333333333333335 0.3333333333333335 0.333333333333333 0.3333333333333335 0.3333333333333335 0.333333333333333 0.3333333333333335 0.3333333333333335 0.333333333333333 0.3333333333333335 0.3333333333333335 0.333333333333333 0.3333333333333335 0.3333333333333335 0.333333333333333 0.3333333333333335 0.3333333333333335 0.333333333333333 0.3333333333333335 0.3333333333333335 0.333333333333333 0.3333333333333335 0.3333333333333335 0.333333333333333 0.3333333333333335 0.3333333333333335 0.333333333333333 0.3333333333333335 0.3333333333333335 0.333333333333333 0.3333333333333335 0.3333333333333335 0.333333333333333 0.3333333333333335 0.3333333333333335 0.333333333333333 0.3333333333333335 0.3333333333333335 0.333333333333333 0.3333333333333335 0.3333333333333335 0.333333333333333 0.3333333333333335 0.3333333333333335 0.333333333333333 0.3333333333333335 0.3333333333333335 0.333333333333333 0.3333333333333335 0.3333333333333335 0.333333333333333 0.3333333333333335 0.3333333333333335 0.333333333333333 0.3333333333333335 0.3333333333333335 0.333333333333333 0.3333333333333335 0.3333333333333335 0.333333333333333 0.3333333333333335 0.3333333333333335 0.333333333333333 0.3333333333333335 0.3333333333333335 0.333333333333333 0.3333333333333335 0.3333333333333335 0.333333333333333 0.3333333333333335 0.3333333333333335 0.333333333333333 0.3333333333333335 0.3333333333333335 0.333333333333333 0.3333333333333335 0.3333333333333335 0.333333333333333 0.3333333333333335 0.3333333333333335 0.333333333333333 0.3333333333333335 0.3333333333333335 0.333333333333333 0.3333333333333335 0.3333333333333335 0.333333333333333 0.3333333333333335 0.3333333333333335 0.333333333333333 0.3333333333333335 0.3333333333333335 0.333333333333333 0.3333333333333335 0.3333333333333335 0.333333333333333 0.3333333333333335 0.3333333333333335 0.333333333333333 0.3333333333333335 0.3333333333333335 0.333333333333333 0.3333333333333335 0.3333333333333335 0.333333333333333 0.3333333333333335 0.3333333333333335 0.333333333333333 0.3333333333333335 0.3333333333333335 0.333333333333333 0.3333333333333335 0.3333333333333335 0.333333333333333 0.3333333333333335 0.3333333333333335 0.333333333333333 0.3333333333333335 0.3333333333333335 0.333333333333333 0.3333333333333335 0.3333333333333335 0.333333333333333 0.3333333333333335 0.3333333333333335 0.333333333333333 0.3333333333333335 0.3333333333333335 0.333333333333333 0.3333333333333335 0.3333333333333335 0.333333333333333 0.3333333333333335 0.3333333333333335 0.333333333333333 0.3333333333333335 0.3333333333333335 0.333333333333333 0.3333333333333335 0.3333333333333335 0.333333333333333 0.3333333333333335 0.3333333333333335 0.333333333333333 0.3333333333333335 0.3333333333333335 0.333333333333333 0.3333333333333335 0.3333333333333335 0.333333333333333 0.3333333333333335 0.3333333333333335 0.333333333333333 0.3333333333333335 0.3333333333333335 0.333333333333333 0.3333333333333335 0.3333333333333335 0.333333333333333 0.3333333333333335 0.3333333333333335 0.333333333333333 0.3333333333333335 0.3333333333333335 0.333333333333333 0.3333333333333335 0.3333333333333335 0.333333333333333 0.3333333333333335 0.3333333333333335 0.333333333333333 0.3333333333333335 0.3333333333333335 0.333333333333333 0.3333333333333335 0.3333333333333335 0.333333333333333 0.3333333333333335 0.3333333333333335 0.333333333333333 0.3333333333333335 0.3333333333333335 0.333333333333333 0.3333333333333335 0.3333333333333335 0.333333333333333 0.3333333333333335 0.3333333333333335 0.333333333333333 0.3333333333333335 0.3333333333333335 0.333333333333333 0.3333333333333335 0.3333333333333335 0.333333333333333 0.3333333333333335 0.3333333333333335 0.333333333333333 0.3333333333333335 0.3333333333333335 0.333333333333333 0.3333333333333335 0.3333333333333335 0.333333333333333 0.3333333333333335 0.3333333333333335 0.333333333333333 0.3333333333333335 0.3333333333333335 0.333333333333333 0.3333333333333335 0.3333333333333335 0.333333333333333 0.3333333333333335 0.3333333333333335 0.333333333333333 0.3333333333333335 0.3333333333333335 0.333333333333333 0.3333333333333335 0.3333333333333335 0.333333333333333 0.3333333333333335 0.3333333333333335 0.333333333333333 0.3333333333333335 0.3333333333333335 0.333333333333333 0.3333333333333335 0.3333333333333335 0.333333333333333 0.3333333333333335 0.3333333333333335 0.333333333333333 0.3333333333333335 0.3333333333333335 0.333333333333333 0.3333333333333335 0.3333333333333335 0.333333333333333 0.3333333333333335 0.3333333333333335 0.333333333333333 0.3333333333333335 0.3333333333333335 0.333333333333333 0.3333333333333335 0.3333333333333335 0.333333333333333 0.3333333333333335 0.3333333333333335 0.333333333333333 0.3333333333333335 0.3333333333333335 0.333333333333333 0.3333333333333335 0.3333333333333335 0.333333333333333 0.3333333333333335 0.3333333333333335 0.333333333333333 0.3333333333333335 0.3333333333333335 0.333333333333333 0.3333333333333335 0.3333333333333335 0.333333333333333 0.3333333333333335 0.3333333333333335 0.333333333333333 0.3333333333333335 0.3333333333333335 0.333333333333333 0.3333333333333335 0.3333333333333335 0.333333333333333 0.3333333333333335 0.3333333333333335 0.333333333333333 0.3333333333333335 0.3333333333333335 0.333333333333333 0.3333333333333335 0.3333333333333335 0.333333333333333 0.3333333333333335 0.3333333333333335 0.333333333333333 0.3333333333333335 0.3333333333333335 0.333333333333333 0.3333333333333335 0.3333333333333335 0.333333333333333 0.3333333333333335 0.3333333333333335 0.333333333333333 0.3333333333333335 0.3333333333333335 0.333333333333333 0.3333333333333335 0.3333333333333335 0.333333333333333 0.3333333333333335 0.3333333333333335 0.333333333333333 0.3333333333333335 0.3333333333333335 0.333333333333333 0.3333333333333335 0.3333333333333335 0.333333333333333 0.3333333333333335 0.3333333333333335 0.333333333333333 0.3333333333333335 0.3333333333333335 0.333333333333333 0.3333333333333335 0.3333333333333335 0.333333333333333 0.3333333333333335 0.3333333333333335 0.333333333333333 0.3333333333333335 0.3333333333333335 0.333333333333333 0.3333333333333335 0.3333333333333335 0.333333333333333 0.3333333333333335 0.3333333333333335 0.333333333333333 0.3333333333333335 0.3333333333333335 0.333333333333333 0.3333333333333335 0.3333333333333335 0.333333333333333 0.3333333333333335 0.3333333333333335 0.333333333333333 0.3333333333333335 0.3333333333333335 0.333333333333333 0.3333333333333335 0.3333333333333335 0.333333333333333 0.3333333333333335 0.3333333333333335 0.333333333333333 0.3333333333333335 0.3333333333333335 0.333333333333333 0.3333333333333335 0.3333333333333335 0.333333333333333 0.3333333333333335 0.3333333333333335 0.333333333333333 0.3333333333333335 0.3333333333333335 0.333333333333333 0.3333333333333335 0.3333333333333335 0.333333333333333 0.3333333333333335 0.3333333333333335 0.333333333333333 0.3333333333333335 0.3333333333333335 0.333333333333333 0.3333333333333335 0.3333333333333335 0.333333333333333 0.3333333333333335 0.3333333333333335 0.333333333333333 0.3333333333333335 0.3333333333333335 0.333333333333333 0.3333333333333335 0.3333333333333335 0.333333333333333 0.3333333333333335 0.3333333333333335 0.333333333333333 0.3333333333333335 0.3333333333333335 0.333333333333333 0.3333333333333335 0.3333333333333335 0.333333333333333 0.3333333333333335 0.3333333333333335 0.333333333333333 0.3333333333333335 0.3333333333333335 0.333333333333333 0.3333333333333335 0.3333333333333335 0.333333333333333 0.3333333333333335 0.3333333333333335 0.333333333333333 0.3333333333333335 0.3333333333333335 0.333333333333333 0.3333333333333335 0.3333333333333335 0.333333333333333 0.3333333333333335 0.3333333333333335 0.333333333333333 0.3333333333333335 0.3333333333333335 0.333333333333333 0.3333333333333335 0.3333333333333335 0.333333333333333 0.3333333333333335 0.3333333333333335 0.333333333333333 0.3333333333333335 0.3333333333333335 0.333333333333333 0.3333333333333335 0.3333333333333335 0.333333333333333 0.3333333333333335 0.3333333333333335 0.333333333333333 0.3333333333333335 0.3333333333333335 0.333333333333333 0.3333333333333335 0.3333333333333335 0.333333333333333 0.3333333333333335 0.3333333333333335 0.333333333333333 0.3333333333333335 0.3333333333333335 0.333333333333333 0.3333333333333335 0.3333333333333335 0.333333333333333 0.3333333333333335 0.3333333333333335 0.333333333333333 0.3333333333333335 0.3333333333333335 0.333333333333333 0.3333333333333335 0.3333333333333335 0.333333333333333 0.3333333333333335 0.3333333333333335 0.333333333333333 0.3333333333333335 0.3333333333333335 0.333333333333333 0.3333333333333335 0.3333333333333335 0.333333333333333 0.3333333333333335 0.3333333333333335 0.333333333333333 0.3333333333333335 0.3333333333333335 0.333333333333333 0.3333333333333335 0.3333333333333335 0.333333333333333 0.3333333333333335 0.3333333333333335 0.333333333333333 0.3333333333333335 0.3333333333333335 0.333333333333333 0.3333333333333335 0.3333333333333335 0.333333333333333 0.3333333333333335 0.3333333333333335 0.333333333333333 0.3333333333333335 0.3333333333333335 0.333333333333333 0.3333333333333335 0.3333333333333335 0.333333333333333 0.3333333333333335 0.3333333333333335 0.333333333333333 0.3333333333333335 0.3333333333333335 0.333333333333333 0.3333333333333335 0.3333333333333335 0.333333333333333 0.3333333333333335 0.3333333333333335 0.333333333333333 0.3333333333333335 0.3333333333333335 0.333333333333333 0.3333333333333335 0.3333333333333335 0.333333333333333 0.3333333333333335 0.3333333333333335 0.333333333333333 0.3333333333333335 0.3333333333333335 0.333333333333333 0.3333333333333335 0.3333333333333335 0.333333333333333 0.3333333333333335 0.3333333333333335 0.333333333333333 0.3333333333333335 0.3333333333333335 0.333333333333333 0.3333333333333335 0.3333333333333335 0.333333333333333 0.3333333333333335 0.3333333333333335 0.333333333333333 0.3333333333333335 0.3333333333333335 0.333333333333333 0.3333333333333335 0.3333333333333335 0.333333333333333 0.3333333333333335 0.3333333333333335 0.333333333333333 0.3333333333333335 0.3333333333333335 0.333333333333333 0.3333333333333335 0.3333333333333335 0.333333333333333 0.3333333333333335 0.3333333333333335 0.333333333333333 0.3333333333333335 0.3333333333333335 0.333333333333333 0.3333333333333335 0.3333333333333335 0.333333333333333 0.3333333333333335 0.3333333333333335 0.333333333333333 0.3333333333333335 0.3333333333333335 0.333333333333333 0.3333333333333335 0.3333333333333335 0.333333333333333 0.3333333333333335 0.3333333333333335 0.333333333333333 0.3333333333333335 0.3333333333333335 0.333333333333333 0.3333333333333335 0.3333333333333335 0.333333333333333 0.3333333333333335 0.3333333333333335 0.333333333333333 0.3333333333333335 0.3333333333333335 0.333333333333333 0.3333333333333335 0.3333333333333335 0.333333333333333 0.3333333333333335 0.3333333333333335 0.333333333333333 0.3333333333333335 0.3333333333333335 0.333333333333333 0.3333333333333335 0.3333333333333335 0.333333333333333 0.3333333333333335 0.3333333333333335 0.333333333333333 0.3333333333333335 0.3333333333333335 0.333333333333333 0.3333333333333335 0.3333333333333335 0.333333333333333 0.3333333333333335 0.3333333333333335 0.333333333333333 0.3333333333333335 0.3333333333333335 0.333333333333333 0.3333333333333335 0.3333333333333335 0.333333333333333 0.3333333333333335 0.3333333333333335 0.333333333333333 0.3333333333333335 0.3333333333333335 0.333333333333333 0.3333333333333335 0.3333333333333335 0.333333333333333 0.3333333333333335 0.3333333333333335 0.333333333333333 0.3333333333333335 0.3333333333333335 0.333333333333333 0.3333333333333335 0.3333333333333335 0.333333333333333 0.3333333333333335 0.3333333333333335 0.333333333333333 0.3333333333333335 0.3333333333333335 0.333333333333333 0.3333333333333335 0.3333333333333335 0.333333333333333 0.3333333333333335 0.3333333333333335 0.333333333333333 0.3333333333333335 0.3333333333333335 0.333333333333333 0.3333333333333335 0.3333333333333335 0.333333333333333 0.3333333333333335 0.3333333333333335 0.333333333333333 0.3333333333333335 0.3333333333333335 0.333333333333333 0.3333333333333335 0.3333333333333335 0.333333333333333 0.3333333333333335 0.3333333333333335 0.333333333333333 0.3333333333333335 0.3333333333333335 0.333333333333333 0.3333333333333335 0.3333333333333335 0.333333333333333 0.3333333333333335 0.3333333333333335 0.333333333333333 0.3333333333333335 0.3333333333333335 0.333333333333333 0.3333333333333335 0.3333333333333335 0.333333333333333 0.3333333333333335 0.3333333333333335 0.333333333333333 0.3333333333333335 0.3333333333333335 0.333333333333333 0.3333333333333335 0.3333333333333335 0.333333333333333 0.3333333333333335 0.3333333333333335 0.333333333333333 0.3333333333333335 0.3333333333333335 0.333333333333333 0.3333333333333335 0.3333333333333335 0.333333333333333 0.3333333333333335 0.3333333333333335 0.333333333333333 0.3333333333333335 0.3333333333333335 0.333333333333333 0.3333333333333335 0.3333333333333335 0.333333333333333 0.3333333333333335 0.3333333333333335 0.333333333333333 0.3333333333333335 0.3333333333333335 0.333333333333333 0.3333333333333335 0.3333333333333335 0.333333333333333 0.3333333333333335 0.3333333333333335 0.333333333333333 0.3333333333333335 0.3333333333333335 0.333333333333333 0.3333333333333335 0.3333333333333335 0.333333333333333 0.3333333333333335 0.3333333333333335 0.333333333333333 0.3333333333333335 0.3333333333333335 0.333333333333333 0.3333333333333335 0.3333333333333335 0.333333333333333 0.3333333333333335 0.3333333333333335 0.333333333333333 0.3333333333333335 0.3333333333333335 0.333333333333333 0.3333333333333335 0.3333333333333335 0.333333333333333 0.3333333333333335 0.3333333333333335 0.333333333333333 0.3333333333333335 0.3333333333333335 0.333333333333333 0.3333333333333335 0.3333333333333335 0.333333333333333 0.3333333333333335 0.3333333333333335 0.333333333333333 0.3333333333333335 0.3333333333333335 0.333333333333333 0.3333333333333335 0.3333333333333335 0.333333333333333 0.3333333333333335 0.3333333333333335 0.333333333333333 0.3333333333333335 0.3333333333333335 0.333333333333333 0.3333333333333335 0.3333333333333335 0.333333333333333 0.3333333333333335 0.3333333333333335 0.333333333333333 0.3333333333333335 0.3333333333333335 0.333333333333333 0.3333333333333335 0.3333333333333335 0.333333333333333 0.3333333333333335 0.3333333333333335 0.333333333333333 0.3333333333333335 0.3333333333333335 0.333333333333333 0.3333333333333335 0.3333333333333335 0.333333333333333 0.3333333333333335 0.3333333333333335 0.333333333333333 0.3333333333333335 0.3333333333333335 0.333333333333333 0.3333333333333335 0.3333333333333335 0.333333333333333 0.3333333333333335 0.3333333333333335 0.333333333333333 0.3333333333333335 0.3333333333333335 0.333333333333333 0.3333333333333335 0.3333333333333335 0.333333333333333 0.3333333333333335 0.3333333333333335 0.333333333333333 0.3333333333333335 0.3333333333333335 0.333333333333333 0.3333333333333335 0.3333333333333335 0.333333333333333 0.3333333333333335 0.3333333333333335 0.333333333333333 0.3333333333333335 0.3333333333333335 0.333333333333333 0.3333333333333335 0.3333333333333335 0.333333333333333 0.3333333333333335 0.3333333333333335 0.333333333333333 0.3333333333333335 0.3333333333333335 0.333333333333333 0.3333333333333335 0.3333333333333335 0.333333333333333 0.3333333333333335 0.3333333333333335 0.333333333333333 0.3333333333333335 0.3333333333333335 0.333333333333333 0.3333333333333335 0.3333333333333335 0.333333333333333 0.3333333333333335 0.3333333333333335 0.333333333333333 0.3333333333333335 0.3333333333333335 0.333333333333333 0.3333333333333335 0.3333333333333335 0.333333333333333 0.3333333333333335 0.3333333333333335 0.333333333333333 0.3333333333333335 0.3333333333333335 0.333333333333333 0.3333333333333335 0.3333333333333335 0.333333333333333 0.3333333333333335 0.3333333333333335 0.333333333333333 0.3333333333333335 0.3333333333333335 0.333333333333333 0.3333333333333335 0.3333333333333335 0.333333333333333 0.3333333333333335 0.3333333333333335 0.333333333333333 0.3333333333333335 0.3333333333333335 0.333333333333333 0.3333333333333335 0.3333333333333335 0.333333333333333 0.3333333333333335 0.3333333333333335 0.333333333333333 0.3333333333333335 0.3333333333333335 0.333333333333333 0.3333333333333335 0.3333333333333335 0.333333333333333 0.3333333333333335 0.3333333333333335 0.333333333333333 0.3333333333333335 0.3333333333333335 0.333333333333333 0.3333333333333335 0.3333333333333335 0.333333333333333 0.3333333333333335 0.3333333333333335 0.333333333333333 0.3333333333333335 0.3333333333333335 0.333333333333333 0.3333333333333335 0.3333333333333335 0.333333333333333 0.3333333333333335 0.3333333333333335 0.333333333333333 0.3333333333333335 0.3333333333333335 0.333333333333333 0.3333333333333335 0.3333333333333335 0.333333333333333 0.3333333333333335 0.3333333333333335 0.333333333333333 0.3333333333333335 0.3333333333333335 0.333333333333333 0.3333333333333335 0.3333333333333335 0.333333333333333 0.3333333333333335 0.3333333333333335 0.333333333333333 0.3333333333333335 0.3333333333333335 0.333333333333333 0.3333333333333335 0.3333333333333335 0.333333333333333 0.3333333333333335 0.3333333333333335 0.333333333333333 0.3333333333333335 0.3333333333333335 0.333333333333333 0.3333333333333335 0.3333333333333335 0.333333333333333 0.3333333333333335 0.3333333333333335 0.333333333333333 0.3333333333333335 0.3333333333333335 0.333333333333333 0.3333333333333335 0.3333333333333335 0.333333333333333 0.3333333333333335 0.3333333333333335 0.333333333333333 0.3333333333333335 0.3333333333333335 0.333333333333333 0.3333333333333335 0.3333333333333335 0.333333333333333 0.3333333333333335 0.3333333333333335 0.333333333333333 0.3333333333333335 0.3333333333333335 0.333333333333333 0.3333333333333335 0.3333333333333335 0.333333333333333 0.3333333333333335 0.3333333333333335 0.333333333333333 0.3333333333333335 0.3333333333333335 0.333333333333333 0.3333333333333335 0.3333333333333335 0.333333333333333 0.3333333333333335 0.3333333333333335 0.333333333333333 0.3333333333333335 0.3333333333333335 0.333333333333333 0.3333333333333335 0.3333333333333335 0.333333333333333 0.3333333333333335 0.3333333333333335 0.333333333333333 0.3333333333333335 0.3333333333333335 0.333333333333333 0.3333333333333335 0.3333333333333335 0.333333333333333 0.3333333333333335 0.3333333333333335 0.333333333333333 0.3333333333333335 0.3333333333333335 0.333333333333333 0.3333333333333335 0.3333333333333335 0.333333333333333 0.3333333333333335 0.3333333333333335 0.333333333333333 0.3333333333333335 0.3333333333333335 0.333333333333333 0.3333333333333335 0.3333333333333335 0.333333333333333 0.3333333333333335 0.3333333333333335 0.333333333333333 0.3333333333333335 0.3333333333333335 0.333333333333333 0.3333333333333335 0.3333333333333335 0.333333333333333 0.3333333333333335 0.3333333333333335 0.333333333333333 0.3333333333333335 0.3333333333333335 0.333333333333333 0.3333333333333335 0.3333333333333335 0.333333333333333 0.3333333333333335 0.3333333333333335 0.333333333333333 0.3333333333333335 0.3333333333333335 0.333333333333333 0.3333333333333335 0.3333333333333335 0.333333333333333 0.3333333333333335 0.3333333333333335 0.333333333333333 0.3333333333333335 0.3333333333333335 0.333333333333333 0.3333333333333335 0.3333333333333335 0.333333333333333 0.3333333333333335 0.3333333333333335 0.333333333333333 0.3333333333333335 0.3333333333333335 0.333333333333333 0.3333333333333335 0.3333333333333335 0.333333333333333 0.3333333333333335 0.3333333333333335 0.333333333333333 0.3333333333333335 0.3333333333333335 0.333333333333333 0.3333333333333335 0.3333333333333335 0.333333333333333 0.3333333333333335 0.3333333333333335 0.333333333333333 0.3333333333333335 0.3333333333333335 0.333333333333333 0.3333333333333335 0.3333333333333335 0.333333333333333 0.3333333333333335 0.3333333333333335 0.333333333333333 0.3333333333333335 0.3333333333333335 0.333333333333333 0.3333333333333335 0.3333333333333335 0.333333333333333 0.3333333333333335 0.3333333333333335 0.333333333333333 0.3333333333333335 0.3333333333333335 0.333333333333333 0.3333333333333335 0.3333333333333335 0.333333333333333 0.3333333333333335 0.3333333333333335 0.333333333333333 0.3333333333333335 0.3333333333333335 0.333333333333333 0.3333333333333335 0.3333333333333335 0.333333333333333 0.3333333333333335 0.3333333333333335 0.333333333333333 0.3333333333333335 0.3333333333333335 0.333333333333333 0.3333333333333335 0.3333333333333335 0.333333333333333 0.3333333333333335 0.3333333333333335 0.333333333333333 0.3333333333333335 0.3333333333333335 0.333333333333333 0.3333333333333335 0.3333333333333335 0.333333333333333 0.3333333333333335 0.3333333333333335 0.333333333333333 0.3333333333333335 0.3333333333333335 0.333333333333333 0.3333333333333335 0.3333333333333335 0.333333333333333 0.3333333333333335 0.3333333333333335 0.333333333333333 0.3333333333333335 0.3333333333333335 0.333333333333333 0.3333333333333335 0.3333333333333335 0.333333333333333 0.3333333333333335 0.3333333333333335 0.333333333333333 0.3333333333333335 0.3333333333333335 0.333333333333333 0.3333333333333335 0.3333333333333335 0.333333333333333 0.3333333333333335 0.3333333333333335 0.333333333333333 0.3333333333333335 0.3333333333333335 0.333333333333333 0.3333333333333335 0.3333333333333335 0.333333333333333 0.3333333333333335 0.3333333333333335 0.333333333333333 0.3333333333333335 0.3333333333333335 0.333333333333333 0.3333333333333335 0.3333333333333335 0.333333333333333 0.3333333333333335 0.3333333333333335 0.333333333333333 0.3333333333333335 0.3333333333333335 0.333333333333333 0.3333333333333335 0.3333333333333335 0.333333333333333 0.3333333333333335 0.3333333333333335 0.333333333333333 0.3333333333333335 0.3333333333333335 0.333333333333333 0.3333333333333335 0.3333333333333335 0.333333333333333 0.3333333333333335 0.3333333333333335 0.333333333333333 0.3333333333333335 0.3333333333333335 0.333333333333333 0.3333333333333335 0.3333333333333335 0.333333333333333 0.3333333333333335 0.3333333333333335 0.333333333333333 0.3333333333333335 0.3333333333333335 0.333333333333333 0.3333333333333335 0.3333333333333335 0.333333333333333 0.3333333333333335 0.3333333333333335 0.333333333333333 0.3333333333333335 0.3333333333333335 0.333333333333333 0.3333333333333335 0.3333333333333335 0.333333333333333 0.3333333333333335 0.3333333333333335 0.333333333333333 0.3333333333333335 0.3333333333333335 0.333333333333333 0.3333333333333335 0.3333333333333335 0.333333333333333 0.3333333333333335 0.3333333333333335 0.333333333333333 0.3333333333333335 0.3333333333333335 0.333333333333333 0.3333333333333335 0.3333333333333335 0.333333333333333 0.3333333333333335 0.3333333333333335 0.333333333333333 0.3333333333333335 0.3333333333333335 0.333333333333333 0.3333333333333335 0.3333333333333335 0.333333333333333 0.3333333333333335 0.3333333333333335 0.333333333333333 0.3333333333333335 0.3333333333333335 0.333333333333333 0.3333333333333335 0.3333333333333335 0.333333333333333 0.3333333333333335 0.3333333333333335 0.333333333333333 0.3333333333333335 0.3333333333333335 0.333333333333333 0.3333333333333335 0.3333333333333335 0.333333333333333 0.3333333333333335 0.3333333333333335 0.333333333333333 0.3333333333333335 0.3333333333333335 0.333333333333333 0.3333333333333335 0.3333333333333335 0.333333333333333 0.3333333333333335 0.3333333333333335 0.333333333333333 0.3333333333333335 0.3333333333333335 0.333333333333333 0.3333333333333335 0.3333333333333335 0.333333333333333 0.3333333333333335 0.3333333333333335 0.333333333333333 0.3333333333333335 0.3333333333333335 0.333333333333333 0.3333333333333335 0.3333333333333335 0.333333333333333 0.3333333333333335 0.3333333333333335 0.333333333333333 0.3333333333333335 0.3333333333333335 0.333333333333333 0.3333333333333335 0.3333333333333335 0.333333333333333 0.3333333333333335 0.3333333333333335 0.333333333333333 0.3333333333333335 0.3333333333333335 0.333333333333333 0.3333333333333335 0.3333333333333335 0.333333333333333 0.3333333333333335 0.3333333333333335 0.333333333333333 0.3333333333333335 0.3333333333333335 0.333333333333333 0.3333333333333335 0.3333333333333335 0.333333333333333 0.3333333333333335 0.3333333333333335 0.333333333333333 0.3333333333333335 0.3333333333333335 0.333333333333333 0.3333333333333335 0.3333333333333335 0.333333333333333 0.3333333333333335 0.3333333333333335 0.333333333333333 0.3333333333333335 0.3333333333333335 0.333333333333333 0.3333333333333335 0.3333333333333335 0.333333333333333 0.3333333333333335 0.3333333333333335 0.333333333333333 0.3333333333333335 0.3333333333333335 0.333333333333333 0.3333333333333335 0.3333333333333335 0.333333333333333 0.3333333333333335 0.3333333333333335 0.333333333333333 0.3333333333333335 0.3333333333333335 0.333333333333333 0.3333333333333335 0.3333333333333335 0.333333333333333 0.3333333333333335 0.3333333333333335 0.333333333333333 0.3333333333333335 0.3333333333333335 0.333333333333333 0.3333333333333335 0.3333333333333335 0.333333333333333 0.3333333333333335 0.3333333333333335 0.333333333333333 0.3333333333333335 0.3333333333333335 0.333333333333333 0.3333333333333335 0.3333333333333335 0.333333333333333 0.3333333333333335 0.3333333333333335 0.333333333333333 0.3333333333333335 0.3333333333333335 0.333333333333333 0.3333333333333335 0.3333333333333335 0.333333333333333 0.3333333333333335 0.3333333333333335 0.333333333333333 0.3333333333333335 0.3333333333333335 0.333333333333333 0.3333333333333335 0.3333333333333335 0.333333333333333 0.3333333333333335 0.3333333333333335 0.333333333333333 0.3333333333333335 0.3333333333333335 0.333333333333333 0.3333333333333335 0.3333333333333335 0.333333333333333 0.3333333333333335 0.3333333333333335 0.333333333333333 0.3333333333333335 0.3333333333333335 0.333333333333333 0.3333333333333335 0.3333333333333335 0.333333333333333 0.3333333333333335 0.3333333333333335 0.333333333333333 0.3333333333333335 0.3333333333333335 0.333333333333333 0.3333333333333335 0.3333333333333335 0.333333333333333 0.3333333333333335 0.3333333333333335 0.333333333333333 0.3333333333333335 0.3333333333333335 0.333333333333333 0.3333333333333335 0.3333333333333335 0.333333333333333 0.3333333333333335 0.3333333333333335 0.333333333333333 0.3333333333333335 0.3333333333333335 0.333333333333333 0.3333333333333335 0.3333333333333335 0.333333333333333 0.3333333333333335 0.3333333333333335 0.333333333333333 0.3333333333333335 0.3333333333333335 0.333333333333333 0.3333333333333335 0.3333333333333335 0.333333333333333 0.3333333333333335 0.3333333333333335 0.333333333333333 0.3333333333333335 0.3333333333333335 0.333333333333333 0.3333333333333335 0.3333333333333335 0.333333333333333 0.3333333333333335 0.3333333333333335 0.333333333333333 0.3333333333333335 0.3333333333333335 0.333333333333333 0.3333333333333335 0.3333333333333335 0.333333333333333 0.3333333333333335 0.3333333333333335 0.333333333333333 0.3333333333333335 0.3333333333333335 0.333333333333333 0.3333333333333335 0.3333333333333335 0.333333333333333 0.3333333333333335 0.3333333333333335 0.333333333333333 0.3333333333333335 0.3333333333333335 0.333333333333333 0.3333333333333335 0.3333333333333335 0.333333333333333 0.3333333333333335 0.3333333333333335 0.333333333333333 0.3333333333333335 0.3333333333333335 0.333333333333333 0.3333333333333335 0.3333333333333335 0.333333333333333 0.3333333333333335 0.3333333333333335 0.333333333333333 0.3333333333333335 0.3333333333333335 0.333333333333333 0.3333333333333335 0.3333333333333335 0.333333333333333 0.3333333333333335 0.3333333333333335 0.333333333333333 0.3333333333333335 0.3333333333333335 0.333333333333333 0.3333333333333335 0.3333333333333335 0.333333333333333 0.3333333333333335 0.3333333333333335 0.333333333333333 0.3333333333333335 0.3333333333333335 0.333333333333333 0.3333333333333335 0.3333333333333335 0.333333333333333 0.3333333333333335 0.3333333333333335 0.333333333333333 0.3333333333333335 0.3333333333333335 0.333333333333333 0.3333333333333335 0.3333333333333335 0.333333333333333 0.3333333333333335 0.3333333333333335 0.333333333333333 0.3333333333333335 0.3333333333333335 0.333333333333333 0.3333333333333335 0.3333333333333335 0.333333333333333 0.3333333333333335 0.3333333333333335 0.333333333333333 0.3333333333333335 0.3333333333333335 0.333333333333333 0.3333333333333335 0.3333333333333335 0.333333333333333 0.3333333333333335 0.3333333333333335 0.333333333333333 0.3333333333333335 0.3333333333333335 0.333333333333333 0.3333333333333335 0.3333333333333335 0.333333333333333 0.3333333333333335 0.3333333333333335 0.333333333333333 0.3333333333333335 0.3333333333333335 0.333333333333333 0.3333333333333335 0.3333333333333335 0.333333333333333 0.3333333333333335 0.3333333333333335 0.333333333333333 0.3333333333333335 0.3333333333333335 0.333333333333333 0.3333333333333335 0.3333333333333335 0.333333333333333 0.3333333333333335 0.3333333333333335 0.333333333333333 0.3333333333333335 0.3333333333333335 0.333333333333333 0.3333333333333335 0.3333333333333335 0.333333333333333 0.3333333333333335 0.3333333333333335 0.333333333333333 0.3333333333333335 0.3333333333333335 0.333333333333333 0.3333333333333335 0.3333333333333335 0.333333333333333 0.3333333333333335 0.3333333333333335 0.333333333333333 0.3333333333333335 0.3333333333333335 0.333333333333333 0.3333333333333335 0.3333333333333335 0.333333333333333 0.3333333333333335 0.3333333333333335 0.333333333333333 0.3333333333333335 0.3333333333333335 0.333333333333333 0.3333333333333335 0.3333333333333335 0.333333333333333 0.3333333333333335 0.3333333333333335 0.333333333333333 0.3333333333333335 0.3333333333333335 0.333333333333333 0.3333333333333335 0.3333333333333335 0.333333333333333 0.3333333333333335 0.3333333333333335 0.333333333333333 0.3333333333333335 0.3333333333333335 0.333333333333333 0.3333333333333335 0.3333333333333335 0.333333333333333 0.3333333333333335 0.3333333333333335 0.333333333333333 0.3333333333333335 0.3333333333333335 0.333333333333333 0.3333333333333335 0.3333333333333335 0.333333333333333 0.3333333333333335 0.3333333333333335 0.333333333333333 0.3333333333333335 0.3333333333333335 0.333333333333333 0.3333333333333335 0.3333333333333335 0.333333333333333 0.3333333333333335 0.3333333333333335 0.333333333333333 0.3333333333333335 0.3333333333333335 0.333333333333333 0.3333333333333335 0.3333333333333335 0.333333333333333 0.3333333333333335 0.3333333333333335 0.333333333333333 0.3333333333333335 0.3333333333333335 0.333333333333333 0.3333333333333335 0.3333333333333335 0.333333333333333 0.3333333333333335 0.3333333333333335 0.333333333333333 0.3333333333333335 0.3333333333333335 0.333333333333333 0.3333333333333335 0.3333333333333335 0.333333333333333 0.3333333333333335 0.3333333333333335 0.333333333333333 0.3333333333333335 0.3333333333333335 0.333333333333333 0.3333333333333335 0.3333333333333335 0.333333333333333 0.3333333333333335 0.3333333333333335 0.333333333333333 0.3333333333333335 0.3333333333333335 0.333333333333333 0.3333333333333335 0.3333333333333335 0.333333333333333 0.3333333333333335 0.3333333333333335 0.333333333333333 0.3333333333333335 0.3333333333333335 0.333333333333333 0.3333333333333335 0.3333333333333335 0.333333333333333 0.3333333333333335 0.3333333333333335 0.333333333333333 0.3333333333333335 0.3333333333333335 0.333333333333333 0.3333333333333335 0.3333333333333335 0.333333333333333 0.3333333333333335 0.3333333333333335 0.333333333333333 0.3333333333333335 0.3333333333333335 0.333333333333333 0.3333333333333335 0.3333333333333335 0.333333333333333 0.3333333333333335 0.3333333333333335 0.333333333333333 0.3333333333333335 0.3333333333333335 0.333333333333333 0.3333333333333335 0.3333333333333335 0.333333333333333 0.3333333333333335 0.3333333333333335 0.333333333333333 0.3333333333333335 0.3333333333333335 0.333333333333333 0.3333333333333335 0.3333333333333335 0.333333333333333 0.3333333333333335 0.3333333333333335 0.333333333333333 0.3333333333333335 0.3333333333333335 0.333333333333333 0.3333333333333335 0.3333333333333335 0.333333333333333 0.3333333333333335 0.3333333333333335 0.333333333333333 0.3333333333333335 0.3333333333333335 0.333333333333333 0.3333333333333335 0.3333333333333335 0.333333333333333 0.3333333333333335 0.3333333333333335 0.333333333333333 0.3333333333333335 0.3333333333333335 0.333333333333333 0.3333333333333335 0.3333333333333335 0.333333333333333 0.3333333333333335 0.3333333333333335 0.333333333333333 0.3333333333333335 0.3333333333333335 0.333333333333333 0.3333333333333335 0.3333333333333335 0.333333333333333 0.3333333333333335 0.3333333333333335 0.333333333333333 0.3333333333333335 0.3333333333333335 0.333333333333333 0.3333333333333335 0.3333333333333335 0.333333333333333 0.3333333333333335 0.3333333333333335 0.333333333333333 0.3333333333333335 0.3333333333333335 0.333333333333333 0.3333333333333335 0.3333333333333335 0.333333333333333 0.3333333333333335 0.3333333333333335 0.333333333333333 0.3333333333333335 0.3333333333333335 0.333333333333333 0.3333333333333335 0.3333333333333335 0.333333333333333 0.3333333333333335 0.3333333333333335 0.333333333333333 0.3333333333333335 0.3333333333333335 0.333333333333333 0.3333333333333335 0.3333333333333335 0.333333333333333 0.3333333333333335 0.3333333333333335 0.333333333333333 0.3333333333333335 0.3333333333333335 0.333333333333333 0.3333333333333335 0.3333333333333335 0.333333333333333 0.3333333333333335 0.3333333333333335 0.333333333333333 0.3333333333333335 0.3333333333333335 0.333333333333333 0.3333333333333335 0.3333333333333335 0.333333333333333 0.3333333333333335 0.3333333333333335 0.333333333333333 0.3333333333333335 0.3333333333333335 0.333333333333333 0.3333333333333335 0.3333333333333335 0.333333333333333 0.3333333333333335 0.3333333333333335 0.333333333333333 0.3333333333333335 0.3333333333333335 0.333333333333333 0.3333333333333335 0.3333333333333335 0.333333333333333 0.3333333333333335 0.3333333333333335 0.333333333333333 0.3333333333333335 0.3333333333333335 0.333333333333333 0.3333333333333335 0.3333333333333335 0.333333333333333 0.3333333333333335 0.3333333333333335 0.333333333333333 0.3333333333333335 0.3333333333333335 0.333333333333333 0.3333333333333335 0.3333333333333335 0.333333333333333 0.3333333333333335 0.3333333333333335 0.333333333333333 0.3333333333333335 0.3333333333333335 0.333333333333333 0.3333333333333335 0.3333333333333335 0.333333333333333 0.3333333333333335 0.3333333333333335 0.333333333333333 0.3333333333333335 0.3333333333333335 0.333333333333333 0.3333333333333335 0.3333333333333335 0.333333333333333 0.3333333333333335 0.3333333333333335 0.333333333333333 0.3333333333333335 0.3333333333333335 0.333333333333333 0.3333333333333335 0.3333333333333335 0.333333333333333 0.3333333333333335 0.3333333333333335 0.333333333333333 0.3333333333333335 0.3333333333333335 0.333333333333333 0.3333333333333335 0.3333333333333335 0.333333333333333 0.3333333333333335 0.3333333333333335 0.333333333333333 0.3333333333333335 0.3333333333333335 0.333333333333333 0.3333333333333335 0.3333333333333335 0.333333333333333 0.3333333333333335 0.3333333333333335 0.333333333333333 0.3333333333333335 0.3333333333333335 0.333333333333333 0.3333333333333335 0.3333333333333335 0.333333333333333 0.3333333333333335 0.3333333333333335 0.333333333333333 0.3333333333333335 0.3333333333333335 0.333333333333333 0.3333333333333335 0.3333333333333335 0.333333333333333 0.3333333333333335 0.3333333333333335 0.333333333333333 0.3333333333333335 0.3333333333333335 0.333333333333333 0.3333333333333335 0.3333333333333335 0.333333333333333 0.3333333333333335 0.3333333333333335 0.333333333333333 0.3333333333333335 0.3333333333333335 0.333333333333333 0.3333333333333335 0.3333333333333335 0.333333333333333 0.3333333333333335 0.3333333333333335 0.333333333333333 0.3333333333333335 0.3333333333333335 0.333333333333333 0.3333333333333335 0.3333333333333335 0.333333333333333 0.3333333333333335 0.3333333333333335 0.333333333333333 0.3333333333333335 0.3333333333333335 0.333333333333333 0.3333333333333335 0.3333333333333335 0.333333333333333 0.3333333333333335 0.3333333333333335 0.333333333333333 0.3333333333333335 0.3333333333333335 0.333333333333333 0.3333333333333335 0.3333333333333335 0.333333333333333 0.3333333333333335 0.3333333333333335 0.333333333333333 0.3333333333333335 0.3333333333333335 0.333333333333333 0.3333333333333335 0.3333333333333335 0.333333333333333 0.3333333333333335 0.3333333333333335 0.333333333333333 0.3333333333333335 0.3333333333333335 0.333333333333333 0.3333333333333335 0.3333333333333335 0.333333333333333 0.3333333333333335 0.3333333333333335 0.333333333333333 0.3333333333333335 0.3333333333333335 0.333333333333333 0.3333333333333335 0.3333333333333335 0.333333333333333 0.3333333333333335 0.3333333333333335 0.333333333333333 0.3333333333333335 0.3333333333333335 0.333333333333333 0.3333333333333335 0.3333333333333335 0.333333333333333 0.3333333333333335 0.3333333333333335 0.333333333333333 0.3333333333333335 0.3333333333333335 0.333333333333333 0.3333333333333335 0.3333333333333335 0.333333333333333 0.3333333333333335 0.3333333333333335 0.333333333333333 0.3333333333333335 0.3333333333333335 0.333333333333333 0.3333333333333335 0.3333333333333335 0.333333333333333 0.3333333333333335 0.3333333333333335 0.333333333333333 0.3333333333333335 0.3333333333333335 0.333333333333333 0.3333333333333335 0.3333333333333335 0.333333333333333 0.3333333333333335 0.3333333333333335 0.333333333333333 0.3333333333333335 0.3333333333333335 0.333333333333333 0.3333333333333335 0.3333333333333335 0.333333333333333 0.3333333333333335 0.3333333333333335 0.333333333333333 0.3333333333333335 0.3333333333333335 0.333333333333333 0.3333333333333335 0.3333333333333335 0.333333333333333 0.3333333333333335 0.3333333333333335 0.333333333333333 0.3333333333333335 0.3333333333333335 0.333333333333333 0.3333333333333335 0.3333333333333335 0.333333333333333 0.3333333333333335 0.3333333333333335 0.333333333333333 0.3333333333333335 0.3333333333333335 0.333333333333333 0.3333333333333335 0.3333333333333335 0.333333333333333 0.3333333333333335 0.3333333333333335 0.333333333333333 0.3333333333333335 0.3333333333333335 0.333333333333333 0.3333333333333335 0.3333333333333335 0.333333333333333 0.3333333333333335 0.3333333333333335 0.333333333333333 0.3333333333333335 0.3333333333333335 0.333333333333333 0.3333333333333335 0.3333333333333335 0.333333333333333 0.3333333333333335 0.3333333333333335 0.333333333333333 0.3333333333333335 0.3333333333333335 0.333333333333333 0.3333333333333335 0.3333333333333335 0.333333333333333 0.3333333333333335 0.3333333333333335 0.333333333333333 0.3333333333333335 0.3333333333333335 0.333333333333333 0.3333333333333335 0.3333333333333335 0.333333333333333 0.3333333333333335 0.3333333333333335 0.333333333333333 0.3333333333333335 0.3333333333333335 0.333333333333333 0.3333333333333335 0.3333333333333335 0.333333333333333 0.3333333333333335 0.3333333333333335 0.333333333333333 0.3333333333333335 0.3333333333333335 0.333333333333333 0.3333333333333335 0.3333333333333335 0.333333333333333 0.3333333333333335 0.3333333333333335 0.333333333333333 0.3333333333333335 0.3333333333333335 0.333333333333333 0.3333333333333335 0.3333333333333335 0.333333333333333 0.3333333333333335 0.3333333333333335 0.333333333333333 0.3333333333333335 0.3333333333333335 0.333333333333333 0.3333333333333335 0.3333333333333335 0.333333333333333 0.3333333333333335 0.3333333333333335 0.333333333333333 0.3333333333333335 0.3333333333333335 0.333333333333333 0.3333333333333335 0.3333333333333335 0.333333333333333 0.3333333333333335 0.3333333333333335 0.333333333333333 0.3333333333333335 0.3333333333333335 0.333333333333333 0.3333333333333335 0.3333333333333335 0.333333333333333 0.3333333333333335 0.3333333333333335 0.333333333333333 0.3333333333333335 0.3333333333333335 0.333333333333333 0.3333333333333335 0.3333333333333335 0.333333333333333 0.3333333333333335 0.3333333333333335 0.333333333333333 0.3333333333333335 0.3333333333333335 0.333333333333333 0.3333333333333335 0.3333333333333335 0.333333333333333 0.3333333333333335 0.3333333333333335 0.333333333333333 0.3333333333333335 0.3333333333333335 0.333333333333333 0.3333333333333335 0.3333333333333335 0.333333333333333 0.3333333333333335 0.3333333333333335 0.333333333333333 0.3333333333333335 0.3333333333333335 0.333333333333333 0.3333333333333335 0.3333333333333335 0.333333333333333 0.3333333333333335 0.3333333333333335 0.333333333333333 0.3333333333333335 0.3333333333333335 0.333333333333333 0.3333333333333335 0.3333333333333335 0.333333333333333 0.3333333333333335 0.3333333333333335 0.333333333333333 0.3333333333333335 0.3333333333333335 0.333333333333333 0.3333333333333335 0.3333333333333335 0.333333333333333 0.3333333333333335 0.3333333333333335 0.333333333333333 0.3333333333333335 0.3333333333333335 0.333333333333333 0.3333333333333335 0.3333333333333335 0.333333333333333 0.3333333333333335 0.3333333333333335 0.333333333333333 0.3333333333333335 0.3333333333333335 0.333333333333333 0.3333333333333335 0.3333333333333335 0.333333333333333 0.3333333333333335 0.3333333333333335 0.333333333333333 0.3333333333333335 0.3333333333333335 0.333333333333333 0.3333333333333335 0.3333333333333335 0.333333333333333 0.3333333333333335 0.3333333333333335 0.333333333333333 0.3333333333333335 0.3333333333333335 0.333333333333333 0.3333333333333335 0.3333333333333335 0.333333333333333 0.3333333333333335 0.3333333333333335 0.333333333333333 0.3333333333333335 0.3333333333333335 0.333333333333333 0.3333333333333335 0.3333333333333335 0.333333333333333 0.3333333333333335 0.3333333333333335 0.333333333333333 0.3333333333333335 0.3333333333333335 0.333333333333333 0.3333333333333335 0.3333333333333335 0.333333333333333 0.3333333333333335 0.3333333333333335 0.333333333333333 0.3333333333333335 0.3333333333333335 0.333333333333333 0.3333333333333335 0.3333333333333335 0.333333333333333 0.3333333333333335 0.3333333333333335 0.333333333333333 0.3333333333333335 0.3333333333333335 0.333333333333333 0.3333333333333335 0.3333333333333335 0.333333333333333 0.3333333333333335 0.3333333333333335 0.333333333333333 0.3333333333333335 0.3333333333333335 0.333333333333333 0.3333333333333335 0.3333333333333335 0.333333333333333 0.3333333333333335 0.3333333333333335 0.333333333333333 0.3333333333333335 0.3333333333333335 0.333333333333333 0.3333333333333335 0.3333333333333335 0.333333333333333 0.3333333333333335 0.3333333333333335 0.333333333333333 0.3333333333333335 0.3333333333333335 0.333333333333333 0.3333333333333335 0.3333333333333335 0.333333333333333 0.3333333333333335 0.3333333333333335 0.333333333333333 0.3333333333333335 0.3333333333333335 0.333333333333333 0.3333333333333335 0.3333333333333335 0.333333333333333 0.3333333333333335 0.3333333333333335 0.333333333333333 0.3333333333333335 0.3333333333333335 0.333333333333333 0.3333333333333335 0.3333333333333335 0.333333333333333 0.3333333333333335 0.3333333333333335 0.333333333333333 0.3333333333333335 0.3333333333333335 0.333333333333333 0.3333333333333335 0.3333333333333335 0.333333333333333 0.3333333333333335 0.3333333333333335 0.333333333333333 0.3333333333333335 0.3333333333333335 0.333333333333333 0.3333333333333335 0.3333333333333335 0.333333333333333 0.3333333333333335 0.3333333333333335 0.333333333333333 0.3333333333333335 0.3333333333333335 0.333333333333333 0.3333333333333335 0.3333333333333335 0.333333333333333 0.3333333333333335 0.3333333333333335 0.333333333333333 0.3333333333333335 0.3333333333333335 0.333333333333333 0.3333333333333335 0.3333333333333335 0.333333333333333 0.3333333333333335 0.3333333333333335 0.333333333333333 0.3333333333333335 0.3333333333333335 0.333333333333333 0.3333333333333335 0.3333333333333335 0.333333333333333 0.3333333333333335 0.3333333333333335 0.333333333333333 0.3333333333333335 0.3333333333333335 0.333333333333333 0.3333333333333335 0.3333333333333335 0.333333333333333 0.3333333333333335 0.3333333333333335 0.333333333333333 0.3333333333333335 0.3333333333333335 0.333333333333333 0.3333333333333335 0.3333333333333335 0.333333333333333 0.3333333333333335 0.3333333333333335 0.333333333333333 0.3333333333333335 0.3333333333333335 0.333333333333333 0.3333333333333335 0.3333333333333335 0.333333333333333 0.3333333333333335 0.3333333333333335 0.333333333333333 0.3333333333333335 0.3333333333333335 0.333333333333333 0.3333333333333335 0.3333333333333335 0.333333333333333 0.3333333333333335 0.3333333333333335 0.333333333333333 0.3333333333333335 0.3333333333333335 0.333333333333333 0.3333333333333335 0.3333333333333335 0.333333333333333 0.3333333333333335 0.3333333333333335 0.333333333333333 0.3333333333333335 0.3333333333333335 0.333333333333333 0.3333333333333335 0.3333333333333335 0.333333333333333 0.3333333333333335 0.3333333333333335 0.333333333333333 0.3333333333333335 0.3333333333333335 0.333333333333333 0.3333333333333335 0.3333333333333335 0.333333333333333 0.3333333333333335 0.3333333333333335 0.333333333333333 0.3333333333333335 0.3333333333333335 0.333333333333333 0.3333333333333335 0.3333333333333335 0.333333333333333 0.3333333333333335 0.3333333333333335 0.333333333333333 0.3333333333333335 0.3333333333333335 0.333333333333333 0.3333333333333335 0.3333333333333335 0.333333333333333 0.3333333333333335 0.3333333333333335 0.333333333333333 0.3333333333333335 0.3333333333333335 0.333333333333333 0.3333333333333335 0.3333333333333335 0.333333333333333 0.3333333333333335 0.3333333333333335 0.333333333333333 0.3333333333333335 0.3333333333333335 0.333333333333333 0.3333333333333335 0.3333333333333335 0.333333333333333 0.3333333333333335 0.3333333333333335 0.333333333333333 0.3333333333333335 0.3333333333333335 0.333333333333333 0.3333333333333335 0.3333333333333335 0.333333333333333 0.3333333333333335 0.3333333333333335 0.333333333333333 0.3333333333333335 0.3333333333333335 0.333333333333333 0.3333333333333335 0.3333333333333335 0.333333333333333 0.3333333333333335 0.3333333333333335 0.333333333333333 0.3333333333333335 0.3333333333333335 0.333333333333333 0.3333333333333335 0.3333333333333335 0.333333333333333 0.3333333333333335 0.3333333333333335 0.333333333333333 0.3333333333333335 0.3333333333333335 0.333333333333333 0.3333333333333335 0.3333333333333335 0.333333333333333 0.3333333333333335 0.3333333333333335 0.333333333333333 0.3333333333333335 0.3333333333333335 0.333333333333333 0.3333333333333335 0.3333333333333335 0.333333333333333 0.3333333333333335 0.3333333333333335 0.333333333333333 0.3333333333333335 0.3333333333333335 0.333333333333333 0.3333333333333335 0.3333333333333335 0.333333333333333 0.3333333333333335 0.3333333333333335 0.333333333333333 0.3333333333333335 0.3333333333333335 0.333333333333333 0.3333333333333335 0.3333333333333335 0.333333333333333 0.3333333333333335 0.3333333333333335 0.333333333333333 0.3333333333333335 0.3333333333333335 0.333333333333333 0.3333333333333335 0.3333333333333335 0.333333333333333 0.3333333333333335 