<?xml version="1.0" encoding="ISO-8859-1"?>
<smile version="1.0" id="Network1" numsamples="1000" discsamples="10000">
	<nodes>
		<cpt id="attentionContext">
			<state id="Neutral" />
			<state id="Concentrating" />
			<state id="Sleepy" />
			<state id="Social" />
			<probabilities>0.9821428571428571 0.005952380952380952 0.005952380952380952 0.005952380952380952</probabilities>
		</cpt>
		<cpt id="audioNoise">
			<state id="None" />
			<state id="Low" />
			<state id="Medium" />
			<state id="High" />
			<probabilities>0.005952380952380952 0.9821428571428571 0.005952380952380952 0.005952380952380952</probabilities>
		</cpt>
		<cpt id="robotMotionSpeed">
			<state id="Low" />
			<state id="Medium" />
			<state id="High" />
			<probabilities>0.9841269841269841 0.007936507936507934 0.007936507936507938</probabilities>
		</cpt>
		<cpt id="robotPose">
			<state id="Far" />
			<state id="Medium" />
			<state id="Close" />
			<probabilities>0.9841269841269841 0.007936507936507934 0.007936507936507938</probabilities>
		</cpt>
		<cpt id="robotSoundVolume">
			<state id="Low" />
			<state id="Medium" />
			<state id="High" />
			<parents>audioNoise</parents>
			<probabilities>0.3333333333333333 0.3333333333333333 0.3333333333333334 0.9841269841269841 0.007936507936507934 0.007936507936507938 0.3333333333333333 0.3333333333333333 0.3333333333333334 0.3333333333333333 0.3333333333333333 0.3333333333333334</probabilities>
		</cpt>
		<cpt id="attentionLevel">
			<state id="Neglect" />
			<state id="Contingency" />
			<state id="AttentionHigh" />
			<parents>attentionContext audioNoise robotMotionSpeed robotPose robotSoundVolume</parents>
			<probabilities>0.3333333333333335 0.3333333333333335 0.333333333333333 0.3333333333333335 0.3333333333333335 0.333333333333333 0.3333333333333335 0.3333333333333335 0.333333333333333 0.3333333333333335 0.3333333333333335 0.333333333333333 0.3333333333333335 0.3333333333333335 0.333333333333333 0.3333333333333335 0.3333333333333335 0.333333333333333 0.3333333333333335 0.3333333333333335 0.333333333333333 0.3333333333333335 0.3333333333333335 0.333333333333333 0.3333333333333335 0.3333333333333335 0.333333333333333 0.3333333333333335 0.3333333333333335 0.333333333333333 0.3333333333333335 0.3333333333333335 0.333333333333333 0.3333333333333335 0.3333333333333335 0.333333333333333 0.3333333333333335 0.3333333333333335 0.333333333333333 0.3333333333333335 0.3333333333333335 0.333333333333333 0.3333333333333335 0.3333333333333335 0.333333333333333 0.3333333333333335 0.3333333333333335 0.333333333333333 0.3333333333333335 0.3333333333333335 0.333333333333333 0.3333333333333335 0.3333333333333335 0.333333333333333 0.3333333333333335 0.3333333333333335 0.333333333333333 0.3333333333333335 0.3333333333333335 0.333333333333333 0.3333333333333335 0.3333333333333335 0.333333333333333 0.3333333333333335 0.3333333333333335 0.333333333333333 0.3333333333333335 0.3333333333333335 0.333333333333333 0.3333333333333335 0.3333333333333335 0.333333333333333 0.3333333333333335 0.3333333333333335 0.333333333333333 0.3333333333333335 0.3333333333333335 0.333333333333333 0.3333333333333335 0.3333333333333335 0.333333333333333 0.9841269841269841 0.00793650793650794 0.007936507936507927 0.3333333333333335 0.3333333333333335 0.333333333333333 0.3333333333333335 0.3333333333333335 0.333333333333333 0.3333333333333335 0.3333333333333335 0.333333333333333 0.3333333333333335 0.3333333333333335 0.333333333333333 0.3333333333333335 0.3333333333333335 0.333333333333333 0.3333333333333335 0.3333333333333335 0.333333333333333 0.3333333333333335 0.3333333333333335 0.333333333333333 0.3333333333333335 0.3333333333333335 0.333333333333333 0.3333333333333335 0.3333333333333335 0.333333333333333 0.3333333333333335 0.3333333333333335 0.333333333333333 0.3333333333333335 0.3333333333333335 0.333333333333333 0.3333333333333335 0.3333333333333335 0.333333333333333 0.3333333333333335 0.3333333333333335 0.333333333333333 0.3333333333333335 0.3333333333333335 0.333333333333333 0.3333333333333335 0.3333333333333335 0.333333333333333 0.3333333333333335 0.3333333333333335 0.333333333333333 0.3333333333333335 0.3333333333333335 0.333333333333333 0.3333333333333335 0.3333333333333335 0.333333333333333 0.3333333333333335 0.3333333333333335 0.333333333333333 0.3333333333333335 0.3333333333333335 0.333333333333333 0.3333333333333335 0.3333333333333335 0.333333333333333 0.3333333333333335 0.3333333333333335 0.333333333333333 0.3333333333333335 0.3333333333333335 0.333333333333333 0.3333333333333335 0.3333333333333335 0.333333333333333 0.3333333333333335 0.3333333333333335 0.333333333333333 0.3333333333333335 0.3333333333333335 0.333333333333333 0.3333333333333335 0.3333333333333335 0.333333333333333 0.3333333333333335 0.3333333333333335 0.333333333333333 0.3333333333333335 0.3333333333333335 0.333333333333333 0.3333333333333335 0.3333333333333335 0.333333333333333 0.3333333333333335 0.3333333333333335 0.333333333333333 0.3333333333333335 0.3333333333333335 0.333333333333333 0.3333333333333335 0.3333333333333335 0.333333333333333 0.3333333333333335 0.3333333333333335 0.333333333333333 0.3333333333333335 0.3333333333333335 0.333333333333333 0.3333333333333335 0.3333333333333335 0.333333333333333 0.3333333333333335 0.3333333333333335 0.333333333333333 0.3333333333333335 0.3333333333333335 0.333333333333333 0.3333333333333335 0.3333333333333335 0.333333333333333 0.3333333333333335 0.3333333333333335 0.333333333333333 0.3333333333333335 0.3333333333333335 0.333333333333333 0.3333333333333335 0.3333333333333335 0.333333333333333 0.3333333333333335 0.3333333333333335 0.333333333333333 0.3333333333333335 0.3333333333333335 0.333333333333333 0.3333333333333335 0.3333333333333335 0.333333333333333 0.3333333333333335 0.3333333333333335 0.333333333333333 0.3333333333333335 0.3333333333333335 0.333333333333333 0.3333333333333335 0.3333333333333335 0.333333333333333 0.3333333333333335 0.3333333333333335 0.333333333333333 0.3333333333333335 0.3333333333333335 0.333333333333333 0.3333333333333335 0.3333333333333335 0.333333333333333 0.3333333333333335 0.3333333333333335 0.333333333333333 0.3333333333333335 0.3333333333333335 0.333333333333333 0.3333333333333335 0.3333333333333335 0.333333333333333 0.3333333333333335 0.3333333333333335 0.333333333333333 0.3333333333333335 0.3333333333333335 0.333333333333333 0.3333333333333335 0.3333333333333335 0.333333333333333 0.3333333333333335 0.3333333333333335 0.333333333333333 0.3333333333333335 0.3333333333333335 0.333333333333333 0.3333333333333335 0.3333333333333335 0.333333333333333 0.3333333333333335 0.3333333333333335 0.333333333333333 0.3333333333333335 0.3333333333333335 0.333333333333333 0.3333333333333335 0.3333333333333335 0.333333333333333 0.3333333333333335 0.3333333333333335 0.333333333333333 0.3333333333333335 0.3333333333333335 0.333333333333333 0.3333333333333335 0.3333333333333335 0.333333333333333 0.3333333333333335 0.3333333333333335 0.333333333333333 0.3333333333333335 0.3333333333333335 0.333333333333333 0.3333333333333335 0.3333333333333335 0.333333333333333 0.3333333333333335 0.3333333333333335 0.333333333333333 0.3333333333333335 0.3333333333333335 0.333333333333333 0.3333333333333335 0.3333333333333335 0.333333333333333 0.3333333333333335 0.3333333333333335 0.333333333333333 0.3333333333333335 0.3333333333333335 0.333333333333333 0.3333333333333335 0.3333333333333335 0.333333333333333 0.3333333333333335 0.3333333333333335 0.333333333333333 0.3333333333333335 0.3333333333333335 0.333333333333333 0.3333333333333335 0.3333333333333335 0.333333333333333 0.3333333333333335 0.3333333333333335 0.333333333333333 0.3333333333333335 0.3333333333333335 0.333333333333333 0.3333333333333335 0.3333333333333335 0.333333333333333 0.3333333333333335 0.3333333333333335 0.333333333333333 0.3333333333333335 0.3333333333333335 0.333333333333333 0.3333333333333335 0.3333333333333335 0.333333333333333 0.3333333333333335 0.3333333333333335 0.333333333333333 0.3333333333333335 0.3333333333333335 0.333333333333333 0.3333333333333335 0.3333333333333335 0.333333333333333 0.3333333333333335 0.3333333333333335 0.333333333333333 0.3333333333333335 0.3333333333333335 0.333333333333333 0.3333333333333335 0.3333333333333335 0.333333333333333 0.3333333333333335 0.3333333333333335 0.333333333333333 0.3333333333333335 0.3333333333333335 0.333333333333333 0.3333333333333335 0.3333333333333335 0.333333333333333 0.3333333333333335 0.3333333333333335 0.333333333333333 0.3333333333333335 0.3333333333333335 0.333333333333333 0.3333333333333335 0.3333333333333335 0.333333333333333 0.3333333333333335 0.3333333333333335 0.333333333333333 0.3333333333333335 0.3333333333333335 0.333333333333333 0.3333333333333335 0.3333333333333335 0.333333333333333 0.3333333333333335 0.3333333333333335 0.333333333333333 0.3333333333333335 0.3333333333333335 0.333333333333333 0.3333333333333335 0.3333333333333335 0.333333333333333 0.3333333333333335 0.3333333333333335 0.333333333333333 0.3333333333333335 0.3333333333333335 0.333333333333333 0.3333333333333335 0.3333333333333335 0.333333333333333 0.3333333333333335 0.3333333333333335 0.333333333333333 0.3333333333333335 0.3333333333333335 0.333333333333333 0.3333333333333335 0.3333333333333335 0.333333333333333 0.3333333333333335 0.3333333333333335 0.333333333333333 0.3333333333333335 0.3333333333333335 0.333333333333333 0.3333333333333335 0.3333333333333335 0.333333333333333 0.3333333333333335 0.3333333333333335 0.333333333333333 0.3333333333333335 0.3333333333333335 0.333333333333333 0.3333333333333335 0.3333333333333335 0.333333333333333 0.3333333333333335 0.3333333333333335 0.333333333333333 0.3333333333333335 0.3333333333333335 0.333333333333333 0.3333333333333335 0.3333333333333335 0.333333333333333 0.3333333333333335 0.3333333333333335 0.333333333333333 0.3333333333333335 0.3333333333333335 0.333333333333333 0.3333333333333335 0.3333333333333335 0.333333333333333 0.3333333333333335 0.3333333333333335 0.333333333333333 0.3333333333333335 0.3333333333333335 0.333333333333333 0.3333333333333335 0.3333333333333335 0.333333333333333 0.3333333333333335 0.3333333333333335 0.333333333333333 0.3333333333333335 0.3333333333333335 0.333333333333333 0.3333333333333335 0.3333333333333335 0.333333333333333 0.3333333333333335 0.3333333333333335 0.333333333333333 0.3333333333333335 0.3333333333333335 0.333333333333333 0.3333333333333335 0.3333333333333335 0.333333333333333 0.3333333333333335 0.3333333333333335 0.333333333333333 0.3333333333333335 0.3333333333333335 0.333333333333333 0.3333333333333335 0.3333333333333335 0.333333333333333 0.3333333333333335 0.3333333333333335 0.333333333333333 0.3333333333333335 0.3333333333333335 0.333333333333333 0.3333333333333335 0.3333333333333335 0.333333333333333 0.3333333333333335 0.3333333333333335 0.333333333333333 0.3333333333333335 0.3333333333333335 0.333333333333333 0.3333333333333335 0.3333333333333335 0.333333333333333 0.3333333333333335 0.3333333333333335 0.333333333333333 0.3333333333333335 0.3333333333333335 0.333333333333333 0.3333333333333335 0.3333333333333335 0.333333333333333 0.3333333333333335 0.3333333333333335 0.333333333333333 0.3333333333333335 0.3333333333333335 0.333333333333333 0.3333333333333335 0.3333333333333335 0.333333333333333 0.3333333333333335 0.3333333333333335 0.333333333333333 0.3333333333333335 0.3333333333333335 0.333333333333333 0.3333333333333335 0.3333333333333335 0.333333333333333 0.3333333333333335 0.3333333333333335 0.333333333333333 0.3333333333333335 0.3333333333333335 0.333333333333333 0.3333333333333335 0.3333333333333335 0.333333333333333 0.3333333333333335 0.3333333333333335 0.333333333333333 0.3333333333333335 0.3333333333333335 0.333333333333333 0.3333333333333335 0.3333333333333335 0.333333333333333 0.3333333333333335 0.3333333333333335 0.333333333333333 0.3333333333333335 0.3333333333333335 0.333333333333333 0.3333333333333335 0.3333333333333335 0.333333333333333 0.3333333333333335 0.3333333333333335 0.333333333333333 0.3333333333333335 0.3333333333333335 0.333333333333333 0.3333333333333335 0.3333333333333335 0.333333333333333 0.3333333333333335 0.3333333333333335 0.333333333333333 0.3333333333333335 0.3333333333333335 0.333333333333333 0.3333333333333335 0.3333333333333335 0.333333333333333 0.3333333333333335 0.3333333333333335 0.333333333333333 0.3333333333333335 0.3333333333333335 0.333333333333333 0.3333333333333335 0.3333333333333335 0.333333333333333 0.3333333333333335 0.3333333333333335 0.333333333333333 0.3333333333333335 0.3333333333333335 0.333333333333333 0.3333333333333335 0.3333333333333335 0.333333333333333 0.3333333333333335 0.3333333333333335 0.333333333333333 0.3333333333333335 0.3333333333333335 0.333333333333333 0.3333333333333335 0.3333333333333335 0.333333333333333 0.3333333333333335 0.3333333333333335 0.333333333333333 0.3333333333333335 0.3333333333333335 0.333333333333333 0.3333333333333335 0.3333333333333335 0.333333333333333 0.3333333333333335 0.3333333333333335 0.333333333333333 0.3333333333333335 0.3333333333333335 0.333333333333333 0.3333333333333335 0.3333333333333335 0.333333333333333 0.3333333333333335 0.3333333333333335 0.333333333333333 0.3333333333333335 0.3333333333333335 0.333333333333333 0.3333333333333335 0.3333333333333335 0.333333333333333 0.3333333333333335 0.3333333333333335 0.333333333333333 0.3333333333333335 0.3333333333333335 0.333333333333333 0.3333333333333335 0.3333333333333335 0.333333333333333 0.3333333333333335 0.3333333333333335 0.333333333333333 0.3333333333333335 0.3333333333333335 0.333333333333333 0.3333333333333335 0.3333333333333335 0.333333333333333 0.3333333333333335 0.3333333333333335 0.333333333333333 0.3333333333333335 0.3333333333333335 0.333333333333333 0.3333333333333335 0.3333333333333335 0.333333333333333 0.3333333333333335 0.3333333333333335 0.333333333333333 0.3333333333333335 0.3333333333333335 0.333333333333333 0.3333333333333335 0.3333333333333335 0.333333333333333 0.3333333333333335 0.3333333333333335 0.333333333333333 0.3333333333333335 0.3333333333333335 0.333333333333333 0.3333333333333335 0.3333333333333335 0.333333333333333 0.3333333333333335 0.3333333333333335 0.333333333333333 0.3333333333333335 0.3333333333333335 0.333333333333333 0.3333333333333335 0.3333333333333335 0.333333333333333 0.3333333333333335 0.3333333333333335 0.333333333333333 0.3333333333333335 0.3333333333333335 0.333333333333333 0.3333333333333335 0.3333333333333335 0.333333333333333 0.3333333333333335 0.3333333333333335 0.333333333333333 0.3333333333333335 0.3333333333333335 0.333333333333333 0.3333333333333335 0.3333333333333335 0.333333333333333 0.3333333333333335 0.3333333333333335 0.333333333333333 0.3333333333333335 0.3333333333333335 0.333333333333333 0.3333333333333335 0.3333333333333335 0.333333333333333 0.3333333333333335 0.3333333333333335 0.333333333333333 0.3333333333333335 0.3333333333333335 0.333333333333333 0.3333333333333335 0.3333333333333335 0.333333333333333 0.3333333333333335 0.3333333333333335 0.333333333333333 0.3333333333333335 0.3333333333333335 0.333333333333333 0.3333333333333335 0.3333333333333335 0.333333333333333 0.3333333333333335 0.3333333333333335 0.333333333333333 0.3333333333333335 0.3333333333333335 0.333333333333333 0.3333333333333335 0.3333333333333335 0.333333333333333 0.3333333333333335 0.3333333333333335 0.333333333333333 0.3333333333333335 0.3333333333333335 0.333333333333333 0.3333333333333335 0.3333333333333335 0.333333333333333 0.3333333333333335 0.3333333333333335 0.333333333333333 0.3333333333333335 0.3333333333333335 0.333333333333333 0.3333333333333335 0.3333333333333335 0.333333333333333 0.3333333333333335 0.3333333333333335 0.333333333333333 0.3333333333333335 0.3333333333333335 0.333333333333333 0.3333333333333335 0.3333333333333335 0.333333333333333 0.3333333333333335 0.3333333333333335 0.333333333333333 0.3333333333333335 0.3333333333333335 0.333333333333333 0.3333333333333335 0.3333333333333335 0.333333333333333 0.3333333333333335 0.3333333333333335 0.333333333333333 0.3333333333333335 0.3333333333333335 0.333333333333333 0.3333333333333335 0.3333333333333335 0.333333333333333 0.3333333333333335 0.3333333333333335 0.333333333333333 0.3333333333333335 0.3333333333333335 0.333333333333333 0.3333333333333335 0.3333333333333335 0.333333333333333 0.3333333333333335 0.3333333333333335 0.333333333333333 0.3333333333333335 0.3333333333333335 0.333333333333333 0.3333333333333335 0.3333333333333335 0.333333333333333 0.3333333333333335 0.3333333333333335 0.333333333333333 0.3333333333333335 0.3333333333333335 0.333333333333333 0.3333333333333335 0.3333333333333335 0.333333333333333 0.3333333333333335 0.3333333333333335 0.333333333333333 0.3333333333333335 0.3333333333333335 0.333333333333333 0.3333333333333335 0.3333333333333335 0.333333333333333 0.3333333333333335 0.3333333333333335 0.333333333333333 0.3333333333333335 0.3333333333333335 0.333333333333333 0.3333333333333335 0.3333333333333335 0.333333333333333 0.3333333333333335 0.3333333333333335 0.333333333333333 0.3333333333333335 0.3333333333333335 0.333333333333333 0.3333333333333335 0.3333333333333335 0.333333333333333 0.3333333333333335 0.3333333333333335 0.333333333333333 0.3333333333333335 0.3333333333333335 0.333333333333333 0.3333333333333335 0.3333333333333335 0.333333333333333 0.3333333333333335 0.3333333333333335 0.333333333333333 0.3333333333333335 0.3333333333333335 0.333333333333333 0.3333333333333335 0.3333333333333335 0.333333333333333 0.3333333333333335 0.3333333333333335 0.333333333333333 0.3333333333333335 0.3333333333333335 0.333333333333333 0.3333333333333335 0.3333333333333335 0.333333333333333 0.3333333333333335 0.3333333333333335 0.333333333333333 0.3333333333333335 0.3333333333333335 0.333333333333333 0.3333333333333335 0.3333333333333335 0.333333333333333 0.3333333333333335 0.3333333333333335 0.333333333333333 0.3333333333333335 0.3333333333333335 0.333333333333333 0.3333333333333335 0.3333333333333335 0.333333333333333 0.3333333333333335 0.3333333333333335 0.333333333333333 0.3333333333333335 0.3333333333333335 0.333333333333333 0.3333333333333335 0.3333333333333335 0.333333333333333 0.3333333333333335 0.3333333333333335 0.333333333333333 0.3333333333333335 0.3333333333333335 0.333333333333333 0.3333333333333335 0.3333333333333335 0.333333333333333 0.3333333333333335 0.3333333333333335 0.333333333333333 0.3333333333333335 0.3333333333333335 0.333333333333333 0.3333333333333335 0.3333333333333335 0.333333333333333 0.3333333333333335 0.3333333333333335 0.333333333333333 0.3333333333333335 0.3333333333333335 0.333333333333333 0.3333333333333335 0.3333333333333335 0.333333333333333 0.3333333333333335 0.3333333333333335 0.333333333333333 0.3333333333333335 0.3333333333333335 0.333333333333333 0.3333333333333335 0.3333333333333335 0.333333333333333 0.3333333333333335 0.3333333333333335 0.333333333333333 0.3333333333333335 0.3333333333333335 0.333333333333333 0.3333333333333335 0.3333333333333335 0.333333333333333 0.3333333333333335 0.3333333333333335 0.333333333333333 0.3333333333333335 0.3333333333333335 0.333333333333333 0.3333333333333335 0.3333333333333335 0.333333333333333 0.3333333333333335 0.3333333333333335 0.333333333333333 0.3333333333333335 0.3333333333333335 0.333333333333333 0.3333333333333335 0.3333333333333335 0.333333333333333 0.3333333333333335 0.3333333333333335 0.333333333333333 0.3333333333333335 0.3333333333333335 0.333333333333333 0.3333333333333335 0.3333333333333335 0.333333333333333 0.3333333333333335 0.3333333333333335 0.333333333333333 0.3333333333333335 0.3333333333333335 0.333333333333333 0.3333333333333335 0.3333333333333335 0.333333333333333 0.3333333333333335 0.3333333333333335 0.333333333333333 0.3333333333333335 0.3333333333333335 0.333333333333333 0.3333333333333335 0.3333333333333335 0.333333333333333 0.3333333333333335 0.3333333333333335 0.333333333333333 0.3333333333333335 0.3333333333333335 0.333333333333333 0.3333333333333335 0.3333333333333335 0.333333333333333 0.3333333333333335 0.3333333333333335 0.333333333333333 0.3333333333333335 0.3333333333333335 0.333333333333333 0.3333333333333335 0.3333333333333335 0.333333333333333 0.3333333333333335 0.3333333333333335 0.333333333333333 0.3333333333333335 0.3333333333333335 0.333333333333333 0.3333333333333335 0.3333333333333335 0.333333333333333 0.3333333333333335 0.3333333333333335 0.333333333333333 0.3333333333333335 0.3333333333333335 0.333333333333333 0.3333333333333335 0.3333333333333335 0.333333333333333 0.3333333333333335 0.3333333333333335 0.333333333333333 0.3333333333333335 0.3333333333333335 0.333333333333333 0.3333333333333335 0.3333333333333335 0.333333333333333 0.3333333333333335 0.3333333333333335 0.333333333333333 0.3333333333333335 0.3333333333333335 0.333333333333333 0.3333333333333335 0.3333333333333335 0.333333333333333 0.3333333333333335 0.3333333333333335 0.333333333333333 0.3333333333333335 0.3333333333333335 0.333333333333333 0.3333333333333335 0.3333333333333335 0.333333333333333 0.3333333333333335 0.3333333333333335 0.333333333333333 0.3333333333333335 0.3333333333333335 0.333333333333333 0.3333333333333335 0.3333333333333335 0.333333333333333 0.3333333333333335 0.3333333333333335 0.333333333333333 0.3333333333333335 0.3333333333333335 0.333333333333333 0.3333333333333335 0.3333333333333335 0.333333333333333 0.3333333333333335 0.3333333333333335 0.333333333333333 0.3333333333333335 0.3333333333333335 0.333333333333333 0.3333333333333335 0.3333333333333335 0.333333333333333 0.3333333333333335 0.3333333333333335 0.333333333333333 0.3333333333333335 0.3333333333333335 0.333333333333333 0.3333333333333335 0.3333333333333335 0.333333333333333 0.3333333333333335 0.3333333333333335 0.333333333333333 0.3333333333333335 0.3333333333333335 0.333333333333333 0.3333333333333335 0.3333333333333335 0.333333333333333 0.3333333333333335 0.3333333333333335 0.333333333333333 0.3333333333333335 0.3333333333333335 0.333333333333333 0.3333333333333335 0.3333333333333335 0.333333333333333 0.3333333333333335 0.3333333333333335 0.333333333333333 0.3333333333333335 0.3333333333333335 0.333333333333333 0.3333333333333335 0.3333333333333335 0.333333333333333 0.3333333333333335 0.3333333333333335 0.333333333333333 0.3333333333333335 0.3333333333333335 0.333333333333333 0.3333333333333335 0.3333333333333335 0.333333333333333 0.3333333333333335 0.3333333333333335 0.333333333333333 0.3333333333333335 0.3333333333333335 0.333333333333333 0.3333333333333335 0.3333333333333335 0.333333333333333 0.3333333333333335 0.3333333333333335 0.333333333333333 0.3333333333333335 0.3333333333333335 0.333333333333333 0.3333333333333335 0.3333333333333335 0.333333333333333 0.3333333333333335 0.3333333333333335 0.333333333333333 0.3333333333333335 0.3333333333333335 0.333333333333333 0.3333333333333335 0.3333333333333335 0.333333333333333 0.3333333333333335 0.3333333333333335 0.333333333333333 0.3333333333333335 0.3333333333333335 0.333333333333333 0.3333333333333335 0.3333333333333335 0.333333333333333 0.3333333333333335 0.3333333333333335 0.333333333333333 0.3333333333333335 0.3333333333333335 0.333333333333333 0.3333333333333335 0.3333333333333335 0.333333333333333 0.3333333333333335 0.3333333333333335 0.333333333333333 0.3333333333333335 0.3333333333333335 0.333333333333333 0.3333333333333335 0.3333333333333335 0.333333333333333 0.3333333333333335 0.3333333333333335 0.333333333333333 0.3333333333333335 0.3333333333333335 0.333333333333333 0.3333333333333335 0.3333333333333335 0.333333333333333 0.3333333333333335 0.3333333333333335 0.333333333333333 0.3333333333333335 0.3333333333333335 0.333333333333333 0.3333333333333335 0.3333333333333335 0.333333333333333 0.3333333333333335 0.3333333333333335 0.333333333333333 0.3333333333333335 0.3333333333333335 0.333333333333333 0.3333333333333335 0.3333333333333335 0.333333333333333 0.3333333333333335 0.3333333333333335 0.333333333333333 0.3333333333333335 0.3333333333333335 0.333333333333333 0.3333333333333335 0.3333333333333335 0.333333333333333 0.3333333333333335 0.3333333333333335 0.333333333333333 0.3333333333333335 0.3333333333333335 0.333333333333333 0.3333333333333335 0.3333333333333335 0.333333333333333 0.3333333333333335 0.3333333333333335 0.333333333333333 0.3333333333333335 0.3333333333333335 0.333333333333333 0.3333333333333335 0.3333333333333335 0.333333333333333 0.3333333333333335 0.3333333333333335 0.333333333333333 0.3333333333333335 0.3333333333333335 0.333333333333333 0.3333333333333335 0.3333333333333335 0.333333333333333 0.3333333333333335 0.3333333333333335 0.333333333333333 0.3333333333333335 0.3333333333333335 0.333333333333333 0.3333333333333335 0.3333333333333335 0.333333333333333 0.3333333333333335 0.3333333333333335 0.333333333333333 0.3333333333333335 0.3333333333333335 0.333333333333333 0.3333333333333335 0.3333333333333335 0.333333333333333 0.3333333333333335 0.3333333333333335 0.333333333333333 0.3333333333333335 0.3333333333333335 0.333333333333333 0.3333333333333335 0.3333333333333335 0.333333333333333 0.3333333333333335 0.3333333333333335 0.333333333333333 0.3333333333333335 0.3333333333333335 0.333333333333333 0.3333333333333335 0.3333333333333335 0.333333333333333 0.3333333333333335 0.3333333333333335 0.333333333333333 0.3333333333333335 0.3333333333333335 0.333333333333333 0.3333333333333335 0.3333333333333335 0.333333333333333 0.3333333333333335 0.3333333333333335 0.333333333333333 0.3333333333333335 0.3333333333333335 0.333333333333333 0.3333333333333335 0.3333333333333335 0.333333333333333 0.3333333333333335 0.3333333333333335 0.333333333333333 0.3333333333333335 0.3333333333333335 0.333333333333333 0.3333333333333335 0.3333333333333335 0.333333333333333 0.3333333333333335 0.3333333333333335 0.333333333333333 0.3333333333333335 0.3333333333333335 0.333333333333333</probabilities>
		</cpt>
		<cpt id="faceDirection">
			<state id="None_HAE_Face" />
			<state id="Far_Center_Face" />
			<state id="Center_Face" />
			<parents>attentionLevel</parents>
			<probabilities>0.9946236559139786 0.002688172043010753 0.002688172043010754 0.3333333333333333 0.3333333333333333 0.3333333333333334 0.3333333333333333 0.3333333333333333 0.3333333333333334</probabilities>
		</cpt>
		<cpt id="bodyDirection">
			<state id="None_HAE_Body" />
			<state id="Far_Center_Body" />
			<state id="Near_Center_Body" />
			<state id="Center_Body" />
			<parents>attentionLevel</parents>
			<probabilities>0.9939516129032258 0.002016129032258065 0.002016129032258065 0.002016129032258064 0.25 0.25 0.2500000000000001 0.2499999999999999 0.25 0.25 0.2500000000000001 0.2499999999999999</probabilities>
		</cpt>
		<cpt id="audioInput">
			<state id="None" />
			<state id="Low" />
			<state id="Medium" />
			<state id="High" />
			<parents>attentionLevel audioNoise</parents>
			<probabilities>0.25 0.25 0.25 0.25 0.01008064516129032 0.9616935483870968 0.002016129032258065 0.02620967741935484 0.25 0.25 0.25 0.25 0.25 0.25 0.25 0.25 0.25 0.25 0.25 0.25 0.25 0.25 0.25 0.25 0.25 0.25 0.25 0.25 0.25 0.25 0.25 0.25 0.25 0.25 0.25 0.25 0.25 0.25 0.25 0.25 0.25 0.25 0.25 0.25 0.25 0.25 0.25 0.25</probabilities>
		</cpt>
		<cpt id="robotMotionSpeed_1">
			<state id="Low" />
			<state id="Medium" />
			<state id="High" />
			<parents>robotMotionSpeed</parents>
			<probabilities>0.9919678714859439 0.004016064257028113 0.004016064257028115 0.3333333333333333 0.3333333333333333 0.3333333333333334 0.3333333333333333 0.3333333333333333 0.3333333333333334</probabilities>
		</cpt>
		<cpt id="robotPose_1">
			<state id="Far" />
			<state id="Medium" />
			<state id="Close" />
			<parents>robotPose</parents>
			<probabilities>0.9919678714859439 0.004016064257028113 0.004016064257028115 0.3333333333333333 0.3333333333333333 0.3333333333333334 0.3333333333333333 0.3333333333333333 0.3333333333333334</probabilities>
		</cpt>
		<cpt id="robotSoundVolume_1">
			<state id="Low" />
			<state id="Medium" />
			<state id="High" />
			<parents>audioNoise robotSoundVolume</parents>
			<probabilities>0.3333333333333333 0.3333333333333333 0.3333333333333334 0.3333333333333333 0.3333333333333333 0.3333333333333334 0.3333333333333333 0.3333333333333333 0.3333333333333334 0.9919678714859439 0.004016064257028113 0.004016064257028115 0.3333333333333333 0.3333333333333333 0.3333333333333334 0.3333333333333333 0.3333333333333333 0.3333333333333334 0.3333333333333333 0.3333333333333333 0.3333333333333334 0.3333333333333333 0.3333333333333333 0.3333333333333334 0.3333333333333333 0.3333333333333333 0.3333333333333334 0.3333333333333333 0.3333333333333333 0.3333333333333334 0.3333333333333333 0.3333333333333333 0.3333333333333334 0.3333333333333333 0.3333333333333333 0.3333333333333334</probabilities>
		</cpt>
		<cpt id="attentionLevel_1">
			<state id="Neglect" />
			<state id="Contingency" />
			<state id="AttentionHigh" />
			<parents>attentionContext audioNoise robotMotionSpeed_1 robotPose_1 robotSoundVolume_1 attentionLevel</parents>
			<probabilities>0.3333333333333335 0.3333333333333335 0.333333333333333 0.3333333333333335 0.3333333333333335 0.333333333333333 0.3333333333333335 0.3333333333333335 0.333333333333333 0.3333333333333335 0.3333333333333335 0.333333333333333 0.3333333333333335 0.3333333333333335 0.333333333333333 0.3333333333333335 0.3333333333333335 0.333333333333333 0.3333333333333335 0.3333333333333335 0.333333333333333 0.3333333333333335 0.3333333333333335 0.333333333333333 0.3333333333333335 0.3333333333333335 0.333333333333333 0.3333333333333335 0.3333333333333335 0.333333333333333 0.3333333333333335 0.3333333333333335 0.333333333333333 0.3333333333333335 0.3333333333333335 0.333333333333333 0.3333333333333335 0.3333333333333335 0.333333333333333 0.3333333333333335 0.3333333333333335 0.333333333333333 0.3333333333333335 0.3333333333333335 0.333333333333333 0.3333333333333335 0.3333333333333335 0.333333333333333 0.3333333333333335 0.3333333333333335 0.333333333333333 0.3333333333333335 0.3333333333333335 0.333333333333333 0.3333333333333335 0.3333333333333335 0.333333333333333 0.3333333333333335 0.3333333333333335 0.333333333333333 0.3333333333333335 0.3333333333333335 0.333333333333333 0.3333333333333335 0.3333333333333335 0.333333333333333 0.3333333333333335 0.3333333333333335 0.333333333333333 0.3333333333333335 0.3333333333333335 0.333333333333333 0.3333333333333335 0.3333333333333335 0.333333333333333 0.3333333333333335 0.3333333333333335 0.333333333333333 0.3333333333333335 0.3333333333333335 0.333333333333333 0.3333333333333335 0.3333333333333335 0.333333333333333 0.3333333333333335 0.3333333333333335 0.333333333333333 0.3333333333333335 0.3333333333333335 0.333333333333333 0.3333333333333335 0.3333333333333335 0.333333333333333 0.3333333333333335 0.3333333333333335 0.333333333333333 0.3333333333333335 0.3333333333333335 0.333333333333333 0.3333333333333335 0.3333333333333335 0.333333333333333 0.3333333333333335 0.3333333333333335 0.333333333333333 0.3333333333333335 0.3333333333333335 0.333333333333333 0.3333333333333335 0.3333333333333335 0.333333333333333 0.3333333333333335 0.3333333333333335 0.333333333333333 0.3333333333333335 0.3333333333333335 0.333333333333333 0.3333333333333335 0.3333333333333335 0.333333333333333 0.3333333333333335 0.3333333333333335 0.333333333333333 0.3333333333333335 0.3333333333333335 0.333333333333333 0.3333333333333335 0.3333333333333335 0.333333333333333 0.3333333333333335 0.3333333333333335 0.333333333333333 0.3333333333333335 0.3333333333333335 0.333333333333333 0.3333333333333335 0.3333333333333335 0.333333333333333 0.3333333333333335 0.3333333333333335 0.333333333333333 0.3333333333333335 0.3333333333333335 0.333333333333333 0.3333333333333335 0.3333333333333335 0.333333333333333 0.3333333333333335 0.3333333333333335 0.333333333333333 0.3333333333333335 0.3333333333333335 0.333333333333333 0.3333333333333335 0.3333333333333335 0.333333333333333 0.3333333333333335 0.3333333333333335 0.333333333333333 0.3333333333333335 0.3333333333333335 0.333333333333333 0.3333333333333335 0.3333333333333335 0.333333333333333 0.3333333333333335 0.3333333333333335 0.333333333333333 0.3333333333333335 0.3333333333333335 0.333333333333333 0.3333333333333335 0.3333333333333335 0.333333333333333 0.3333333333333335 0.3333333333333335 0.333333333333333 0.3333333333333335 0.3333333333333335 0.333333333333333 0.3333333333333335 0.3333333333333335 0.333333333333333 0.3333333333333335 0.3333333333333335 0.333333333333333 0.3333333333333335 0.3333333333333335 0.333333333333333 0.3333333333333335 0.3333333333333335 0.333333333333333 0.3333333333333335 0.3333333333333335 0.333333333333333 0.3333333333333335 0.3333333333333335 0.333333333333333 0.3333333333333335 0.3333333333333335 0.333333333333333 0.3333333333333335 0.3333333333333335 0.333333333333333 0.3333333333333335 0.3333333333333335 0.333333333333333 0.3333333333333335 0.3333333333333335 0.333333333333333 0.3333333333333335 0.3333333333333335 0.333333333333333 0.3333333333333335 0.3333333333333335 0.333333333333333 0.3333333333333335 0.3333333333333335 0.333333333333333 0.3333333333333335 0.3333333333333335 0.333333333333333 0.3333333333333335 0.3333333333333335 0.333333333333333 0.3333333333333335 0.3333333333333335 0.333333333333333 0.3333333333333335 0.3333333333333335 0.333333333333333 0.3333333333333335 0.3333333333333335 0.333333333333333 0.3333333333333335 0.3333333333333335 0.333333333333333 0.3333333333333335 0.3333333333333335 0.333333333333333 0.3333333333333335 0.3333333333333335 0.333333333333333 0.9919678714859439 0.004016064257028115 0.004016064257028109 0.3333333333333335 0.3333333333333335 0.333333333333333 0.3333333333333335 0.3333333333333335 0.333333333333333 0.3333333333333335 0.3333333333333335 0.333333333333333 0.3333333333333335 0.3333333333333335 0.333333333333333 0.3333333333333335 0.3333333333333335 0.333333333333333 0.3333333333333335 0.3333333333333335 0.333333333333333 0.3333333333333335 0.3333333333333335 0.333333333333333 0.3333333333333335 0.3333333333333335 0.333333333333333 0.3333333333333335 0.3333333333333335 0.333333333333333 0.3333333333333335 0.3333333333333335 0.333333333333333 0.3333333333333335 0.3333333333333335 0.333333333333333 0.3333333333333335 0.3333333333333335 0.333333333333333 0.3333333333333335 0.3333333333333335 0.333333333333333 0.3333333333333335 0.3333333333333335 0.333333333333333 0.3333333333333335 0.3333333333333335 0.333333333333333 0.3333333333333335 0.3333333333333335 0.333333333333333 0.3333333333333335 0.3333333333333335 0.333333333333333 0.3333333333333335 0.3333333333333335 0.333333333333333 0.3333333333333335 0.3333333333333335 0.333333333333333 0.3333333333333335 0.3333333333333335 0.333333333333333 0.3333333333333335 0.3333333333333335 0.333333333333333 0.3333333333333335 0.3333333333333335 0.333333333333333 0.3333333333333335 0.3333333333333335 0.333333333333333 0.3333333333333335 0.3333333333333335 0.333333333333333 0.3333333333333335 0.3333333333333335 0.333333333333333 0.3333333333333335 0.3333333333333335 0.333333333333333 0.3333333333333335 0.3333333333333335 0.333333333333333 0.3333333333333335 0.3333333333333335 0.333333333333333 0.3333333333333335 0.3333333333333335 0.333333333333333 0.3333333333333335 0.3333333333333335 0.333333333333333 0.3333333333333335 0.3333333333333335 0.333333333333333 0.3333333333333335 0.3333333333333335 0.333333333333333 0.3333333333333335 0.3333333333333335 0.333333333333333 0.3333333333333335 0.3333333333333335 0.333333333333333 0.3333333333333335 0.3333333333333335 0.333333333333333 0.3333333333333335 0.3333333333333335 0.333333333333333 0.3333333333333335 0.3333333333333335 0.333333333333333 0.3333333333333335 0.3333333333333335 0.333333333333333 0.3333333333333335 0.3333333333333335 0.333333333333333 0.3333333333333335 0.3333333333333335 0.333333333333333 0.3333333333333335 0.3333333333333335 0.333333333333333 0.3333333333333335 0.3333333333333335 0.333333333333333 0.3333333333333335 0.3333333333333335 0.333333333333333 0.3333333333333335 0.3333333333333335 0.333333333333333 0.3333333333333335 0.3333333333333335 0.333333333333333 0.3333333333333335 0.3333333333333335 0.333333333333333 0.3333333333333335 0.3333333333333335 0.333333333333333 0.3333333333333335 0.3333333333333335 0.333333333333333 0.3333333333333335 0.3333333333333335 0.333333333333333 0.3333333333333335 0.3333333333333335 0.333333333333333 0.3333333333333335 0.3333333333333335 0.333333333333333 0.3333333333333335 0.3333333333333335 0.333333333333333 0.3333333333333335 0.3333333333333335 0.333333333333333 0.3333333333333335 0.3333333333333335 0.333333333333333 0.3333333333333335 0.3333333333333335 0.333333333333333 0.3333333333333335 0.3333333333333335 0.333333333333333 0.3333333333333335 0.3333333333333335 0.333333333333333 0.3333333333333335 0.3333333333333335 0.333333333333333 0.3333333333333335 0.3333333333333335 0.333333333333333 0.3333333333333335 0.3333333333333335 0.333333333333333 0.3333333333333335 0.3333333333333335 0.333333333333333 0.3333333333333335 0.3333333333333335 0.333333333333333 0.3333333333333335 0.3333333333333335 0.333333333333333 0.3333333333333335 0.3333333333333335 0.333333333333333 0.3333333333333335 0.3333333333333335 0.333333333333333 0.3333333333333335 0.3333333333333335 0.333333333333333 0.3333333333333335 0.3333333333333335 0.333333333333333 0.3333333333333335 0.3333333333333335 0.333333333333333 0.3333333333333335 0.3333333333333335 0.333333333333333 0.3333333333333335 0.3333333333333335 0.333333333333333 0.3333333333333335 0.3333333333333335 0.333333333333333 0.3333333333333335 0.3333333333333335 0.333333333333333 0.3333333333333335 0.3333333333333335 0.333333333333333 0.3333333333333335 0.3333333333333335 0.333333333333333 0.3333333333333335 0.3333333333333335 0.333333333333333 0.3333333333333335 0.3333333333333335 0.333333333333333 0.3333333333333335 0.3333333333333335 0.333333333333333 0.3333333333333335 0.3333333333333335 0.333333333333333 0.3333333333333335 0.3333333333333335 0.333333333333333 0.3333333333333335 0.3333333333333335 0.333333333333333 0.3333333333333335 0.3333333333333335 0.333333333333333 0.3333333333333335 0.3333333333333335 0.333333333333333 0.3333333333333335 0.3333333333333335 0.333333333333333 0.3333333333333335 0.3333333333333335 0.333333333333333 0.3333333333333335 0.3333333333333335 0.333333333333333 0.3333333333333335 0.3333333333333335 0.333333333333333 0.3333333333333335 0.3333333333333335 0.333333333333333 0.3333333333333335 0.3333333333333335 0.333333333333333 0.3333333333333335 0.3333333333333335 0.333333333333333 0.3333333333333335 0.3333333333333335 0.333333333333333 0.3333333333333335 0.3333333333333335 0.333333333333333 0.3333333333333335 0.3333333333333335 0.333333333333333 0.3333333333333335 0.3333333333333335 0.333333333333333 0.3333333333333335 0.3333333333333335 0.333333333333333 0.3333333333333335 0.3333333333333335 0.333333333333333 0.3333333333333335 0.3333333333333335 0.333333333333333 0.3333333333333335 0.3333333333333335 0.333333333333333 0.3333333333333335 0.3333333333333335 0.333333333333333 0.3333333333333335 0.3333333333333335 0.333333333333333 0.3333333333333335 0.3333333333333335 0.333333333333333 0.3333333333333335 0.3333333333333335 0.333333333333333 0.3333333333333335 0.3333333333333335 0.333333333333333 0.3333333333333335 0.3333333333333335 0.333333333333333 0.3333333333333335 0.3333333333333335 0.333333333333333 0.3333333333333335 0.3333333333333335 0.333333333333333 0.3333333333333335 0.3333333333333335 0.333333333333333 0.3333333333333335 0.3333333333333335 0.333333333333333 0.3333333333333335 0.3333333333333335 0.333333333333333 0.3333333333333335 0.3333333333333335 0.333333333333333 0.3333333333333335 0.3333333333333335 0.333333333333333 0.3333333333333335 0.3333333333333335 0.333333333333333 0.3333333333333335 0.3333333333333335 0.333333333333333 0.3333333333333335 0.3333333333333335 0.333333333333333 0.3333333333333335 0.3333333333333335 0.333333333333333 0.3333333333333335 0.3333333333333335 0.333333333333333 0.3333333333333335 0.3333333333333335 0.333333333333333 0.3333333333333335 0.3333333333333335 0.333333333333333 0.3333333333333335 0.3333333333333335 0.333333333333333 0.3333333333333335 0.3333333333333335 0.333333333333333 0.3333333333333335 0.3333333333333335 0.333333333333333 0.3333333333333335 0.3333333333333335 0.333333333333333 0.3333333333333335 0.3333333333333335 0.333333333333333 0.3333333333333335 0.3333333333333335 0.333333333333333 0.3333333333333335 0.3333333333333335 0.333333333333333 0.3333333333333335 0.3333333333333335 0.333333333333333 0.3333333333333335 0.3333333333333335 0.333333333333333 0.3333333333333335 0.3333333333333335 0.333333333333333 0.3333333333333335 0.3333333333333335 0.333333333333333 0.3333333333333335 0.3333333333333335 0.333333333333333 0.3333333333333335 0.3333333333333335 0.333333333333333 0.3333333333333335 0.3333333333333335 0.333333333333333 0.3333333333333335 0.3333333333333335 0.333333333333333 0.3333333333333335 0.3333333333333335 0.333333333333333 0.3333333333333335 0.3333333333333335 0.333333333333333 0.3333333333333335 0.3333333333333335 0.333333333333333 0.3333333333333335 0.3333333333333335 0.333333333333333 0.3333333333333335 0.3333333333333335 0.333333333333333 0.3333333333333335 0.3333333333333335 0.333333333333333 0.3333333333333335 0.3333333333333335 0.333333333333333 0.3333333333333335 0.3333333333333335 0.333333333333333 0.3333333333333335 0.3333333333333335 0.333333333333333 0.3333333333333335 0.3333333333333335 0.333333333333333 0.3333333333333335 0.3333333333333335 0.333333333333333 0.3333333333333335 0.3333333333333335 0.333333333333333 0.3333333333333335 0.3333333333333335 0.333333333333333 0.3333333333333335 0.3333333333333335 0.333333333333333 0.3333333333333335 0.3333333333333335 0.333333333333333 0.3333333333333335 0.3333333333333335 0.333333333333333 0.3333333333333335 0.3333333333333335 0.333333333333333 0.3333333333333335 0.3333333333333335 0.333333333333333 0.3333333333333335 0.3333333333333335 0.333333333333333 0.3333333333333335 0.3333333333333335 0.333333333333333 0.3333333333333335 0.3333333333333335 0.333333333333333 0.3333333333333335 0.3333333333333335 0.333333333333333 0.3333333333333335 0.3333333333333335 0.333333333333333 0.3333333333333335 0.3333333333333335 0.333333333333333 0.3333333333333335 0.3333333333333335 0.333333333333333 0.3333333333333335 0.3333333333333335 0.333333333333333 0.3333333333333335 0.3333333333333335 0.333333333333333 0.3333333333333335 0.3333333333333335 0.333333333333333 0.3333333333333335 0.3333333333333335 0.333333333333333 0.3333333333333335 0.3333333333333335 0.333333333333333 0.3333333333333335 0.3333333333333335 0.333333333333333 0.3333333333333335 0.3333333333333335 0.333333333333333 0.3333333333333335 0.3333333333333335 0.333333333333333 0.3333333333333335 0.3333333333333335 0.333333333333333 0.3333333333333335 0.3333333333333335 0.333333333333333 0.3333333333333335 0.3333333333333335 0.333333333333333 0.3333333333333335 0.3333333333333335 0.333333333333333 0.3333333333333335 0.3333333333333335 0.333333333333333 0.3333333333333335 0.3333333333333335 0.333333333333333 0.3333333333333335 0.3333333333333335 0.333333333333333 0.3333333333333335 0.3333333333333335 0.333333333333333 0.3333333333333335 0.3333333333333335 0.333333333333333 0.3333333333333335 0.3333333333333335 0.333333333333333 0.3333333333333335 0.3333333333333335 0.333333333333333 0.3333333333333335 0.3333333333333335 0.333333333333333 0.3333333333333335 0.3333333333333335 0.333333333333333 0.3333333333333335 0.3333333333333335 0.333333333333333 0.3333333333333335 0.3333333333333335 0.333333333333333 0.3333333333333335 0.3333333333333335 0.333333333333333 0.3333333333333335 0.3333333333333335 0.333333333333333 0.3333333333333335 0.3333333333333335 0.333333333333333 0.3333333333333335 0.3333333333333335 0.333333333333333 0.3333333333333335 0.3333333333333335 0.333333333333333 0.3333333333333335 0.3333333333333335 0.333333333333333 0.3333333333333335 0.3333333333333335 0.333333333333333 0.3333333333333335 0.3333333333333335 0.333333333333333 0.3333333333333335 0.3333333333333335 0.333333333333333 0.3333333333333335 0.3333333333333335 0.333333333333333 0.3333333333333335 0.3333333333333335 0.333333333333333 0.3333333333333335 0.3333333333333335 0.333333333333333 0.3333333333333335 0.3333333333333335 0.333333333333333 0.3333333333333335 0.3333333333333335 0.333333333333333 0.3333333333333335 0.3333333333333335 0.333333333333333 0.3333333333333335 0.3333333333333335 0.333333333333333 0.3333333333333335 0.3333333333333335 0.333333333333333 0.3333333333333335 0.3333333333333335 0.333333333333333 0.3333333333333335 0.3333333333333335 0.333333333333333 0.3333333333333335 0.3333333333333335 0.333333333333333 0.3333333333333335 0.3333333333333335 0.333333333333333 0.3333333333333335 0.3333333333333335 0.333333333333333 0.3333333333333335 0.3333333333333335 0.333333333333333 0.3333333333333335 0.3333333333333335 0.333333333333333 0.3333333333333335 0.3333333333333335 0.333333333333333 0.3333333333333335 0.3333333333333335 0.333333333333333 0.3333333333333335 0.3333333333333335 0.333333333333333 0.3333333333333335 0.3333333333333335 0.333333333333333 0.3333333333333335 0.3333333333333335 0.333333333333333 0.3333333333333335 0.3333333333333335 0.333333333333333 0.3333333333333335 0.3333333333333335 0.333333333333333 0.3333333333333335 0.3333333333333335 0.333333333333333 0.3333333333333335 0.3333333333333335 0.333333333333333 0.3333333333333335 0.3333333333333335 0.333333333333333 0.3333333333333335 0.3333333333333335 0.333333333333333 0.3333333333333335 0.3333333333333335 0.333333333333333 0.3333333333333335 0.3333333333333335 0.333333333333333 0.3333333333333335 0.3333333333333335 0.333333333333333 0.3333333333333335 0.3333333333333335 0.333333333333333 0.3333333333333335 0.3333333333333335 0.333333333333333 0.3333333333333335 0.3333333333333335 0.333333333333333 0.3333333333333335 0.3333333333333335 0.333333333333333 0.3333333333333335 0.3333333333333335 0.333333333333333 0.3333333333333335 0.3333333333333335 0.333333333333333 0.3333333333333335 0.3333333333333335 0.333333333333333 0.3333333333333335 0.3333333333333335 0.333333333333333 0.3333333333333335 0.3333333333333335 0.333333333333333 0.3333333333333335 0.3333333333333335 0.333333333333333 0.3333333333333335 0.3333333333333335 0.333333333333333 0.3333333333333335 0.3333333333333335 0.333333333333333 0.3333333333333335 0.3333333333333335 0.333333333333333 0.3333333333333335 0.3333333333333335 0.333333333333333 0.3333333333333335 0.3333333333333335 0.333333333333333 0.3333333333333335 0.3333333333333335 0.333333333333333 0.3333333333333335 0.3333333333333335 0.333333333333333 0.3333333333333335 0.3333333333333335 0.333333333333333 0.3333333333333335 0.3333333333333335 0.333333333333333 0.3333333333333335 0.3333333333333335 0.333333333333333 0.3333333333333335 0.3333333333333335 0.333333333333333 0.3333333333333335 0.3333333333333335 0.333333333333333 0.3333333333333335 0.3333333333333335 0.333333333333333 0.3333333333333335 0.3333333333333335 0.333333333333333 0.3333333333333335 0.3333333333333335 0.333333333333333 0.3333333333333335 0.3333333333333335 0.333333333333333 0.3333333333333335 0.3333333333333335 0.333333333333333 0.3333333333333335 0.3333333333333335 0.333333333333333 0.3333333333333335 0.3333333333333335 0.333333333333333 0.3333333333333335 0.3333333333333335 0.333333333333333 0.3333333333333335 0.3333333333333335 0.333333333333333 0.3333333333333335 0.3333333333333335 0.333333333333333 0.3333333333333335 0.3333333333333335 0.333333333333333 0.3333333333333335 0.3333333333333335 0.333333333333333 0.3333333333333335 0.3333333333333335 0.333333333333333 0.3333333333333335 0.3333333333333335 0.333333333333333 0.3333333333333335 0.3333333333333335 0.333333333333333 0.3333333333333335 0.3333333333333335 0.333333333333333 0.3333333333333335 0.3333333333333335 0.333333333333333 0.3333333333333335 0.3333333333333335 0.333333333333333 0.3333333333333335 0.3333333333333335 0.333333333333333 0.3333333333333335 0.3333333333333335 0.333333333333333 0.3333333333333335 0.3333333333333335 0.333333333333333 0.3333333333333335 0.3333333333333335 0.333333333333333 0.3333333333333335 0.3333333333333335 0.333333333333333 0.3333333333333335 0.3333333333333335 0.333333333333333 0.3333333333333335 0.3333333333333335 0.333333333333333 0.3333333333333335 0.3333333333333335 0.333333333333333 0.3333333333333335 0.3333333333333335 0.333333333333333 0.3333333333333335 0.3333333333333335 0.333333333333333 0.3333333333333335 0.3333333333333335 0.333333333333333 0.3333333333333335 0.3333333333333335 0.333333333333333 0.3333333333333335 0.3333333333333335 0.333333333333333 0.3333333333333335 0.3333333333333335 0.333333333333333 0.3333333333333335 0.3333333333333335 0.333333333333333 0.3333333333333335 0.3333333333333335 0.333333333333333 0.3333333333333335 0.3333333333333335 0.333333333333333 0.3333333333333335 0.3333333333333335 0.333333333333333 0.3333333333333335 0.3333333333333335 0.333333333333333 0.3333333333333335 0.3333333333333335 0.333333333333333 0.3333333333333335 0.3333333333333335 0.333333333333333 0.3333333333333335 0.3333333333333335 0.333333333333333 0.3333333333333335 0.3333333333333335 0.333333333333333 0.3333333333333335 0.3333333333333335 0.333333333333333 0.3333333333333335 0.3333333333333335 0.333333333333333 0.3333333333333335 0.3333333333333335 0.333333333333333 0.3333333333333335 0.3333333333333335 0.333333333333333 0.3333333333333335 0.3333333333333335 0.333333333333333 0.3333333333333335 0.3333333333333335 0.333333333333333 0.3333333333333335 0.3333333333333335 0.333333333333333 0.3333333333333335 0.3333333333333335 0.333333333333333 0.3333333333333335 0.3333333333333335 0.333333333333333 0.3333333333333335 0.3333333333333335 0.333333333333333 0.3333333333333335 0.3333333333333335 0.333333333333333 0.3333333333333335 0.3333333333333335 0.333333333333333 0.3333333333333335 0.3333333333333335 0.333333333333333 0.3333333333333335 0.3333333333333335 0.333333333333333 0.3333333333333335 0.3333333333333335 0.333333333333333 0.3333333333333335 0.3333333333333335 0.333333333333333 0.3333333333333335 0.3333333333333335 0.333333333333333 0.3333333333333335 0.3333333333333335 0.333333333333333 0.3333333333333335 0.3333333333333335 0.333333333333333 0.3333333333333335 0.3333333333333335 0.333333333333333 0.3333333333333335 0.3333333333333335 0.333333333333333 0.3333333333333335 0.3333333333333335 0.333333333333333 0.3333333333333335 0.3333333333333335 0.333333333333333 0.3333333333333335 0.3333333333333335 0.333333333333333 0.3333333333333335 0.3333333333333335 0.333333333333333 0.3333333333333335 0.3333333333333335 0.333333333333333 0.3333333333333335 0.3333333333333335 0.333333333333333 0.3333333333333335 0.3333333333333335 0.333333333333333 0.3333333333333335 0.3333333333333335 0.333333333333333 0.3333333333333335 0.3333333333333335 0.333333333333333 0.3333333333333335 0.3333333333333335 0.333333333333333 0.3333333333333335 0.3333333333333335 0.333333333333333 0.3333333333333335 0.3333333333333335 0.333333333333333 0.3333333333333335 0.3333333333333335 0.333333333333333 0.3333333333333335 0.3333333333333335 0.333333333333333 0.3333333333333335 0.3333333333333335 0.333333333333333 0.3333333333333335 0.3333333333333335 0.333333333333333 0.3333333333333335 0.3333333333333335 0.333333333333333 0.3333333333333335 0.3333333333333335 0.333333333333333 0.3333333333333335 0.3333333333333335 0.333333333333333 0.3333333333333335 0.3333333333333335 0.333333333333333 0.3333333333333335 0.3333333333333335 0.333333333333333 0.3333333333333335 0.3333333333333335 0.333333333333333 0.3333333333333335 0.3333333333333335 0.333333333333333 0.3333333333333335 0.3333333333333335 0.333333333333333 0.3333333333333335 0.3333333333333335 0.333333333333333 0.3333333333333335 0.3333333333333335 0.333333333333333 0.3333333333333335 0.3333333333333335 0.333333333333333 0.3333333333333335 0.3333333333333335 0.333333333333333 0.3333333333333335 0.3333333333333335 0.333333333333333 0.3333333333333335 0.3333333333333335 0.333333333333333 0.3333333333333335 0.3333333333333335 0.333333333333333 0.3333333333333335 0.3333333333333335 0.333333333333333 0.3333333333333335 0.3333333333333335 0.333333333333333 0.3333333333333335 0.3333333333333335 0.333333333333333 0.3333333333333335 0.3333333333333335 0.333333333333333 0.3333333333333335 0.3333333333333335 0.333333333333333 0.3333333333333335 0.3333333333333335 0.333333333333333 0.3333333333333335 0.3333333333333335 0.333333333333333 0.3333333333333335 0.3333333333333335 0.333333333333333 0.3333333333333335 0.3333333333333335 0.333333333333333 0.3333333333333335 0.3333333333333335 0.333333333333333 0.3333333333333335 0.3333333333333335 0.333333333333333 0.3333333333333335 0.3333333333333335 0.333333333333333 0.3333333333333335 0.3333333333333335 0.333333333333333 0.3333333333333335 0.3333333333333335 0.333333333333333 0.3333333333333335 0.3333333333333335 0.333333333333333 0.3333333333333335 0.3333333333333335 0.333333333333333 0.3333333333333335 0.3333333333333335 0.333333333333333 0.3333333333333335 0.3333333333333335 0.333333333333333 0.3333333333333335 0.3333333333333335 0.333333333333333 0.3333333333333335 0.3333333333333335 0.333333333333333 0.3333333333333335 0.3333333333333335 0.333333333333333 0.3333333333333335 0.3333333333333335 0.333333333333333 0.3333333333333335 0.3333333333333335 0.333333333333333 0.3333333333333335 0.3333333333333335 0.333333333333333 0.3333333333333335 0.3333333333333335 0.333333333333333 0.3333333333333335 0.3333333333333335 0.333333333333333 0.3333333333333335 0.3333333333333335 0.333333333333333 0.3333333333333335 0.3333333333333335 0.333333333333333 0.3333333333333335 0.3333333333333335 0.333333333333333 0.3333333333333335 0.3333333333333335 0.333333333333333 0.3333333333333335 0.3333333333333335 0.333333333333333 0.3333333333333335 0.3333333333333335 0.333333333333333 0.3333333333333335 0.3333333333333335 0.333333333333333 0.3333333333333335 0.3333333333333335 0.333333333333333 0.3333333333333335 0.3333333333333335 0.333333333333333 0.3333333333333335 0.3333333333333335 0.333333333333333 0.3333333333333335 0.3333333333333335 0.333333333333333 0.3333333333333335 0.3333333333333335 0.333333333333333 0.3333333333333335 0.3333333333333335 0.333333333333333 0.3333333333333335 0.3333333333333335 0.333333333333333 0.3333333333333335 0.3333333333333335 0.333333333333333 0.3333333333333335 0.3333333333333335 0.333333333333333 0.3333333333333335 0.3333333333333335 0.333333333333333 0.3333333333333335 0.3333333333333335 0.333333333333333 0.3333333333333335 0.3333333333333335 0.333333333333333 0.3333333333333335 0.3333333333333335 0.333333333333333 0.3333333333333335 0.3333333333333335 0.333333333333333 0.3333333333333335 0.3333333333333335 0.333333333333333 0.3333333333333335 0.3333333333333335 0.333333333333333 0.3333333333333335 0.3333333333333335 0.333333333333333 0.3333333333333335 0.3333333333333335 0.333333333333333 0.3333333333333335 0.3333333333333335 0.333333333333333 0.3333333333333335 0.3333333333333335 0.333333333333333 0.3333333333333335 0.3333333333333335 0.333333333333333 0.3333333333333335 0.3333333333333335 0.333333333333333 0.3333333333333335 0.3333333333333335 0.333333333333333 0.3333333333333335 0.3333333333333335 0.333333333333333 0.3333333333333335 0.3333333333333335 0.333333333333333 0.3333333333333335 0.3333333333333335 0.333333333333333 0.3333333333333335 0.3333333333333335 0.333333333333333 0.3333333333333335 0.3333333333333335 0.333333333333333 0.3333333333333335 0.3333333333333335 0.333333333333333 0.3333333333333335 0.3333333333333335 0.333333333333333 0.3333333333333335 0.3333333333333335 0.333333333333333 0.3333333333333335 0.3333333333333335 0.333333333333333 0.3333333333333335 0.3333333333333335 0.333333333333333 0.3333333333333335 0.3333333333333335 0.333333333333333 0.3333333333333335 0.3333333333333335 0.333333333333333 0.3333333333333335 0.3333333333333335 0.333333333333333 0.3333333333333335 0.3333333333333335 0.333333333333333 0.3333333333333335 0.3333333333333335 0.333333333333333 0.3333333333333335 0.3333333333333335 0.333333333333333 0.3333333333333335 0.3333333333333335 0.333333333333333 0.3333333333333335 0.3333333333333335 0.333333333333333 0.3333333333333335 0.3333333333333335 0.333333333333333 0.3333333333333335 0.3333333333333335 0.333333333333333 0.3333333333333335 0.3333333333333335 0.333333333333333 0.3333333333333335 0.3333333333333335 0.333333333333333 0.3333333333333335 0.3333333333333335 0.333333333333333 0.3333333333333335 0.3333333333333335 0.333333333333333 0.3333333333333335 0.3333333333333335 0.333333333333333 0.3333333333333335 0.3333333333333335 0.333333333333333 0.3333333333333335 0.3333333333333335 0.333333333333333 0.3333333333333335 0.3333333333333335 0.333333333333333 0.3333333333333335 0.3333333333333335 0.333333333333333 0.3333333333333335 0.3333333333333335 0.333333333333333 0.3333333333333335 0.3333333333333335 0.333333333333333 0.3333333333333335 0.3333333333333335 0.333333333333333 0.3333333333333335 0.3333333333333335 0.333333333333333 0.3333333333333335 0.3333333333333335 0.333333333333333 0.3333333333333335 0.3333333333333335 0.333333333333333 0.3333333333333335 0.3333333333333335 0.333333333333333 0.3333333333333335 0.3333333333333335 0.333333333333333 0.3333333333333335 0.3333333333333335 0.333333333333333 0.3333333333333335 0.3333333333333335 0.333333333333333 0.3333333333333335 0.3333333333333335 0.333333333333333 0.3333333333333335 0.3333333333333335 0.333333333333333 0.3333333333333335 0.3333333333333335 0.333333333333333 0.3333333333333335 0.3333333333333335 0.333333333333333 0.3333333333333335 0.3333333333333335 0.333333333333333 0.3333333333333335 0.3333333333333335 0.333333333333333 0.3333333333333335 0.3333333333333335 0.333333333333333 0.3333333333333335 0.3333333333333335 0.333333333333333 0.3333333333333335 0.3333333333333335 0.333333333333333 0.3333333333333335 0.3333333333333335 0.333333333333333 0.3333333333333335 0.3333333333333335 0.333333333333333 0.3333333333333335 0.3333333333333335 0.333333333333333 0.3333333333333335 0.3333333333333335 0.333333333333333 0.3333333333333335 0.3333333333333335 0.333333333333333 0.3333333333333335 0.3333333333333335 0.333333333333333 0.3333333333333335 0.3333333333333335 0.333333333333333 0.3333333333333335 0.3333333333333335 0.333333333333333 0.3333333333333335 0.3333333333333335 0.333333333333333 0.3333333333333335 0.3333333333333335 0.333333333333333 0.3333333333333335 0.3333333333333335 0.333333333333333 0.3333333333333335 0.3333333333333335 0.333333333333333 0.3333333333333335 0.3333333333333335 0.333333333333333 0.3333333333333335 0.3333333333333335 0.333333333333333 0.3333333333333335 0.3333333333333335 0.333333333333333 0.3333333333333335 0.3333333333333335 0.333333333333333 0.3333333333333335 0.3333333333333335 0.333333333333333 0.3333333333333335 0.3333333333333335 0.333333333333333 0.3333333333333335 0.3333333333333335 0.333333333333333 0.3333333333333335 0.3333333333333335 0.333333333333333 0.3333333333333335 0.3333333333333335 0.333333333333333 0.3333333333333335 0.3333333333333335 0.333333333333333 0.3333333333333335 0.3333333333333335 0.333333333333333 0.3333333333333335 0.3333333333333335 0.333333333333333 0.3333333333333335 0.3333333333333335 0.333333333333333 0.3333333333333335 0.3333333333333335 0.333333333333333 0.3333333333333335 0.3333333333333335 0.333333333333333 0.3333333333333335 0.3333333333333335 0.333333333333333 0.3333333333333335 0.3333333333333335 0.333333333333333 0.3333333333333335 0.3333333333333335 0.333333333333333 0.3333333333333335 0.3333333333333335 0.333333333333333 0.3333333333333335 0.3333333333333335 0.333333333333333 0.3333333333333335 0.3333333333333335 0.333333333333333 0.3333333333333335 0.3333333333333335 0.333333333333333 0.3333333333333335 0.3333333333333335 0.333333333333333 0.3333333333333335 0.3333333333333335 0.333333333333333 0.3333333333333335 0.3333333333333335 0.333333333333333 0.3333333333333335 0.3333333333333335 0.333333333333333 0.3333333333333335 0.3333333333333335 0.333333333333333 0.3333333333333335 0.3333333333333335 0.333333333333333 0.3333333333333335 0.3333333333333335 0.333333333333333 0.3333333333333335 0.3333333333333335 0.333333333333333 0.3333333333333335 0.3333333333333335 0.333333333333333 0.3333333333333335 0.3333333333333335 0.333333333333333 0.3333333333333335 0.3333333333333335 0.333333333333333 0.3333333333333335 0.3333333333333335 0.333333333333333 0.3333333333333335 0.3333333333333335 0.333333333333333 0.3333333333333335 0.3333333333333335 0.333333333333333 0.3333333333333335 0.3333333333333335 0.333333333333333 0.3333333333333335 0.3333333333333335 0.333333333333333 0.3333333333333335 0.3333333333333335 0.333333333333333 0.3333333333333335 0.3333333333333335 0.333333333333333 0.3333333333333335 0.3333333333333335 0.333333333333333 0.3333333333333335 0.3333333333333335 0.333333333333333 0.3333333333333335 0.3333333333333335 0.333333333333333 0.3333333333333335 0.3333333333333335 0.333333333333333 0.3333333333333335 0.3333333333333335 0.333333333333333 0.3333333333333335 0.3333333333333335 0.333333333333333 0.3333333333333335 0.3333333333333335 0.333333333333333 0.3333333333333335 0.3333333333333335 0.333333333333333 0.3333333333333335 0.3333333333333335 0.333333333333333 0.3333333333333335 0.3333333333333335 0.333333333333333 0.3333333333333335 0.3333333333333335 0.333333333333333 0.3333333333333335 0.3333333333333335 0.333333333333333 0.3333333333333335 0.3333333333333335 0.333333333333333 0.3333333333333335 0.3333333333333335 0.333333333333333 0.3333333333333335 0.3333333333333335 0.333333333333333 0.3333333333333335 0.3333333333333335 0.333333333333333 0.3333333333333335 0.3333333333333335 0.333333333333333 0.3333333333333335 0.3333333333333335 0.333333333333333 0.3333333333333335 0.3333333333333335 0.333333333333333 0.3333333333333335 0.3333333333333335 0.333333333333333 0.3333333333333335 0.3333333333333335 0.333333333333333 0.3333333333333335 0.3333333333333335 0.333333333333333 0.3333333333333335 0.3333333333333335 0.333333333333333 0.3333333333333335 0.3333333333333335 0.333333333333333 0.3333333333333335 0.3333333333333335 0.333333333333333 0.3333333333333335 0.3333333333333335 0.333333333333333 0.3333333333333335 0.3333333333333335 0.333333333333333 0.3333333333333335 0.3333333333333335 0.333333333333333 0.3333333333333335 0.3333333333333335 0.333333333333333 0.3333333333333335 0.3333333333333335 0.333333333333333 0.3333333333333335 0.3333333333333335 0.333333333333333 0.3333333333333335 0.3333333333333335 0.333333333333333 0.3333333333333335 0.3333333333333335 0.333333333333333 0.3333333333333335 0.3333333333333335 0.333333333333333 0.3333333333333335 0.3333333333333335 0.333333333333333 0.3333333333333335 0.3333333333333335 0.333333333333333 0.3333333333333335 0.3333333333333335 0.333333333333333 0.3333333333333335 0.3333333333333335 0.333333333333333 0.3333333333333335 0.3333333333333335 0.333333333333333 0.3333333333333335 0.3333333333333335 0.333333333333333 0.3333333333333335 0.3333333333333335 0.333333333333333 0.3333333333333335 0.3333333333333335 0.333333333333333 0.3333333333333335 0.3333333333333335 0.333333333333333 0.3333333333333335 0.3333333333333335 0.333333333333333 0.3333333333333335 0.3333333333333335 0.333333333333333 0.3333333333333335 0.3333333333333335 0.333333333333333 0.3333333333333335 0.3333333333333335 0.333333333333333 0.3333333333333335 0.3333333333333335 0.333333333333333 0.3333333333333335 0.3333333333333335 0.333333333333333 0.3333333333333335 0.3333333333333335 0.333333333333333 0.3333333333333335 0.3333333333333335 0.333333333333333 0.3333333333333335 0.3333333333333335 0.333333333333333 0.3333333333333335 0.3333333333333335 0.333333333333333 0.3333333333333335 0.3333333333333335 0.333333333333333 0.3333333333333335 0.3333333333333335 0.333333333333333 0.3333333333333335 0.3333333333333335 0.333333333333333 0.3333333333333335 0.3333333333333335 0.333333333333333 0.3333333333333335 0.3333333333333335 0.333333333333333 0.3333333333333335 0.3333333333333335 0.333333333333333 0.3333333333333335 0.3333333333333335 0.333333333333333 0.3333333333333335 0.3333333333333335 0.333333333333333 0.3333333333333335 0.3333333333333335 0.333333333333333 0.3333333333333335 0.3333333333333335 0.333333333333333 0.3333333333333335 0.3333333333333335 0.333333333333333 0.3333333333333335 0.3333333333333335 0.333333333333333 0.3333333333333335 0.3333333333333335 0.333333333333333 0.3333333333333335 0.3333333333333335 0.333333333333333 0.3333333333333335 0.3333333333333335 0.333333333333333 0.3333333333333335 0.3333333333333335 0.333333333333333 0.3333333333333335 0.3333333333333335 0.333333333333333 0.3333333333333335 0.3333333333333335 0.333333333333333 0.3333333333333335 0.3333333333333335 0.333333333333333 0.3333333333333335 0.3333333333333335 0.333333333333333 0.3333333333333335 0.3333333333333335 0.333333333333333 0.3333333333333335 0.3333333333333335 0.333333333333333 0.3333333333333335 0.3333333333333335 0.333333333333333 0.3333333333333335 0.3333333333333335 0.333333333333333 0.3333333333333335 0.3333333333333335 0.333333333333333 0.3333333333333335 0.3333333333333335 0.333333333333333 0.3333333333333335 0.3333333333333335 0.333333333333333 0.3333333333333335 0.3333333333333335 0.333333333333333 0.3333333333333335 0.3333333333333335 0.333333333333333 0.3333333333333335 0.3333333333333335 0.333333333333333 0.3333333333333335 0.3333333333333335 0.333333333333333 0.3333333333333335 0.3333333333333335 0.333333333333333 0.3333333333333335 0.3333333333333335 0.333333333333333 0.3333333333333335 0.3333333333333335 0.333333333333333 0.3333333333333335 0.3333333333333335 0.333333333333333 0.3333333333333335 0.3333333333333335 0.333333333333333 0.3333333333333335 0.3333333333333335 0.333333333333333 0.3333333333333335 0.3333333333333335 0.333333333333333 0.3333333333333335 0.3333333333333335 0.333333333333333 0.3333333333333335 0.3333333333333335 0.333333333333333 0.3333333333333335 0.3333333333333335 0.333333333333333 0.3333333333333335 0.3333333333333335 0.333333333333333 0.3333333333333335 0.3333333333333335 0.333333333333333 0.3333333333333335 0.3333333333333335 0.333333333333333 0.3333333333333335 0.3333333333333335 0.333333333333333 0.3333333333333335 0.3333333333333335 0.333333333333333 0.3333333333333335 0.3333333333333335 0.333333333333333 0.3333333333333335 0.3333333333333335 0.333333333333333 0.3333333333333335 0.3333333333333335 0.333333333333333 0.3333333333333335 0.3333333333333335 0.333333333333333 0.3333333333333335 0.3333333333333335 0.333333333333333 0.3333333333333335 0.3333333333333335 0.333333333333333 0.3333333333333335 0.3333333333333335 0.333333333333333 0.3333333333333335 0.3333333333333335 0.333333333333333 0.3333333333333335 0.3333333333333335 0.333333333333333 0.3333333333333335 0.3333333333333335 0.333333333333333 0.3333333333333335 0.3333333333333335 0.333333333333333 0.3333333333333335 0.3333333333333335 0.333333333333333 0.3333333333333335 0.3333333333333335 0.333333333333333 0.3333333333333335 0.3333333333333335 0.333333333333333 0.3333333333333335 0.3333333333333335 0.333333333333333 0.3333333333333335 0.3333333333333335 0.333333333333333 0.3333333333333335 0.3333333333333335 0.333333333333333 0.3333333333333335 0.3333333333333335 0.333333333333333 0.3333333333333335 0.3333333333333335 0.333333333333333 0.3333333333333335 0.3333333333333335 0.333333333333333 0.3333333333333335 0.3333333333333335 0.333333333333333 0.3333333333333335 0.3333333333333335 0.333333333333333 0.3333333333333335 0.3333333333333335 0.333333333333333 0.3333333333333335 0.3333333333333335 0.333333333333333 0.3333333333333335 0.3333333333333335 0.333333333333333 0.3333333333333335 0.3333333333333335 0.333333333333333 0.3333333333333335 0.3333333333333335 0.333333333333333 0.3333333333333335 0.3333333333333335 0.333333333333333 0.3333333333333335 0.3333333333333335 0.333333333333333 0.3333333333333335 0.3333333333333335 0.333333333333333 0.3333333333333335 0.3333333333333335 0.333333333333333 0.3333333333333335 0.3333333333333335 0.333333333333333 0.3333333333333335 0.3333333333333335 0.333333333333333 0.3333333333333335 0.3333333333333335 0.333333333333333 0.3333333333333335 0.3333333333333335 0.333333333333333 0.3333333333333335 0.3333333333333335 0.333333333333333 0.3333333333333335 0.3333333333333335 0.333333333333333 0.3333333333333335 0.3333333333333335 0.333333333333333 0.3333333333333335 0.3333333333333335 0.333333333333333 0.3333333333333335 0.3333333333333335 0.333333333333333 0.3333333333333335 0.3333333333333335 0.333333333333333 0.3333333333333335 0.3333333333333335 0.333333333333333 0.3333333333333335 0.3333333333333335 0.333333333333333 0.3333333333333335 0.3333333333333335 0.333333333333333 0.3333333333333335 0.3333333333333335 0.333333333333333 0.3333333333333335 0.3333333333333335 0.333333333333333 0.3333333333333335 0.3333333333333335 0.333333333333333 0.3333333333333335 0.3333333333333335 0.333333333333333 0.3333333333333335 0.3333333333333335 0.333333333333333 0.3333333333333335 0.3333333333333335 0.333333333333333 0.3333333333333335 0.3333333333333335 0.333333333333333 0.3333333333333335 0.3333333333333335 0.333333333333333 0.3333333333333335 0.3333333333333335 0.333333333333333 0.3333333333333335 0.3333333333333335 0.333333333333333 0.3333333333333335 0.3333333333333335 0.333333333333333 0.3333333333333335 0.3333333333333335 0.333333333333333 0.3333333333333335 0.3333333333333335 0.333333333333333 0.3333333333333335 0.3333333333333335 0.333333333333333 0.3333333333333335 0.3333333333333335 0.333333333333333 0.3333333333333335 0.3333333333333335 0.333333333333333 0.3333333333333335 0.3333333333333335 0.333333333333333 0.3333333333333335 0.3333333333333335 0.333333333333333 0.3333333333333335 0.3333333333333335 0.333333333333333 0.3333333333333335 0.3333333333333335 0.333333333333333 0.3333333333333335 0.3333333333333335 0.333333333333333 0.3333333333333335 0.3333333333333335 0.333333333333333 0.3333333333333335 0.3333333333333335 0.333333333333333 0.3333333333333335 0.3333333333333335 0.333333333333333 0.3333333333333335 0.3333333333333335 0.333333333333333 0.3333333333333335 0.3333333333333335 0.333333333333333 0.3333333333333335 0.3333333333333335 0.333333333333333 0.3333333333333335 0.3333333333333335 0.333333333333333 0.3333333333333335 0.3333333333333335 0.333333333333333 0.3333333333333335 0.3333333333333335 0.333333333333333 0.3333333333333335 0.3333333333333335 0.333333333333333 0.3333333333333335 0.3333333333333335 0.333333333333333 0.3333333333333335 0.3333333333333335 0.333333333333333 0.3333333333333335 0.3333333333333335 0.333333333333333 0.3333333333333335 0.3333333333333335 0.333333333333333 0.3333333333333335 0.3333333333333335 0.333333333333333 0.3333333333333335 0.3333333333333335 0.333333333333333 0.3333333333333335 0.3333333333333335 0.333333333333333 0.3333333333333335 0.3333333333333335 0.333333333333333 0.3333333333333335 0.3333333333333335 0.333333333333333 0.3333333333333335 0.3333333333333335 0.333333333333333 0.3333333333333335 0.3333333333333335 0.333333333333333 0.3333333333333335 0.3333333333333335 0.333333333333333 0.3333333333333335 0.3333333333333335 0.333333333333333 0.3333333333333335 0.3333333333333335 0.333333333333333 0.3333333333333335 0.3333333333333335 0.333333333333333 0.3333333333333335 0.3333333333333335 0.333333333333333 0.3333333333333335 0.3333333333333335 0.333333333333333 0.3333333333333335 0.3333333333333335 0.333333333333333 0.3333333333333335 0.3333333333333335 0.333333333333333 0.3333333333333335 0.3333333333333335 0.333333333333333 0.3333333333333335 0.3333333333333335 0.333333333333333 0.3333333333333335 0.3333333333333335 0.333333333333333 0.3333333333333335 0.3333333333333335 0.333333333333333 0.3333333333333335 0.3333333333333335 0.333333333333333 0.3333333333333335 0.3333333333333335 0.333333333333333 0.3333333333333335 0.3333333333333335 0.333333333333333 0.3333333333333335 0.3333333333333335 0.333333333333333 0.3333333333333335 0.3333333333333335 0.333333333333333 0.3333333333333335 0.3333333333333335 0.333333333333333 0.3333333333333335 0.3333333333333335 0.333333333333333 0.3333333333333335 0.3333333333333335 0.333333333333333 0.3333333333333335 0.3333333333333335 0.333333333333333 0.3333333333333335 0.3333333333333335 0.333333333333333 0.3333333333333335 0.3333333333333335 0.333333333333333 0.3333333333333335 0.3333333333333335 0.333333333333333 0.3333333333333335 0.3333333333333335 0.333333333333333 0.3333333333333335 0.3333333333333335 0.333333333333333 0.3333333333333335 0.3333333333333335 0.333333333333333 0.3333333333333335 0.3333333333333335 0.333333333333333 0.3333333333333335 0.3333333333333335 0.333333333333333 0.3333333333333335 0.3333333333333335 0.333333333333333 0.3333333333333335 0.3333333333333335 0.333333333333333 0.3333333333333335 0.3333333333333335 0.333333333333333 0.3333333333333335 0.3333333333333335 0.333333333333333 0.3333333333333335 0.3333333333333335 0.333333333333333 0.3333333333333335 0.3333333333333335 0.333333333333333 0.3333333333333335 0.3333333333333335 0.333333333333333 0.3333333333333335 0.3333333333333335 0.333333333333333 0.3333333333333335 0.3333333333333335 0.333333333333333 0.3333333333333335 0.3333333333333335 0.333333333333333 0.3333333333333335 0.3333333333333335 0.333333333333333 0.3333333333333335 0.3333333333333335 0.333333333333333 0.3333333333333335 0.3333333333333335 0.333333333333333 0.3333333333333335 0.3333333333333335 0.333333333333333 0.3333333333333335 0.3333333333333335 0.333333333333333 0.3333333333333335 0.3333333333333335 0.333333333333333 0.3333333333333335 0.3333333333333335 0.333333333333333 0.3333333333333335 0.3333333333333335 0.333333333333333 0.3333333333333335 0.3333333333333335 0.333333333333333 0.3333333333333335 0.3333333333333335 0.333333333333333 0.3333333333333335 0.3333333333333335 0.333333333333333 0.3333333333333335 0.3333333333333335 0.333333333333333 0.3333333333333335 0.3333333333333335 0.333333333333333 0.3333333333333335 0.3333333333333335 0.333333333333333 0.3333333333333335 0.3333333333333335 0.333333333333333 0.3333333333333335 0.3333333333333335 0.333333333333333 0.3333333333333335 0.3333333333333335 0.333333333333333 0.3333333333333335 0.3333333333333335 0.333333333333333 0.3333333333333335 0.3333333333333335 0.333333333333333 0.3333333333333335 0.3333333333333335 0.333333333333333 0.3333333333333335 0.3333333333333335 0.333333333333333 0.3333333333333335 0.3333333333333335 0.333333333333333 0.3333333333333335 0.3333333333333335 0.333333333333333 0.3333333333333335 0.3333333333333335 0.333333333333333 0.3333333333333335 0.3333333333333335 0.333333333333333 0.3333333333333335 0.3333333333333335 0.333333333333333 0.3333333333333335 0.3333333333333335 0.333333333333333 0.3333333333333335 0.3333333333333335 0.333333333333333 0.3333333333333335 0.3333333333333335 0.333333333333333 0.3333333333333335 0.3333333333333335 0.333333333333333 0.3333333333333335 0.3333333333333335 0.333333333333333 0.3333333333333335 0.3333333333333335 0.333333333333333 0.3333333333333335 0.3333333333333335 0.333333333333333 0.3333333333333335 0.3333333333333335 0.333333333333333 0.3333333333333335 0.3333333333333335 0.333333333333333 0.3333333333333335 0.3333333333333335 0.333333333333333 0.3333333333333335 0.3333333333333335 0.333333333333333 0.3333333333333335 0.3333333333333335 0.333333333333333 0.3333333333333335 0.3333333333333335 0.333333333333333 0.3333333333333335 0.3333333333333335 0.333333333333333 0.3333333333333335 0.3333333333333335 0.333333333333333 0.3333333333333335 0.3333333333333335 0.333333333333333 0.3333333333333335 0.3333333333333335 0.333333333333333 0.3333333333333335 0.3333333333333335 0.333333333333333 0.3333333333333335 0.3333333333333335 0.333333333333333 0.3333333333333335 0.3333333333333335 0.333333333333333 0.3333333333333335 0.3333333333333335 0.333333333333333 0.3333333333333335 0.3333333333333335 0.333333333333333 0.3333333333333335 0.3333333333333335 0.333333333333333 0.3333333333333335 0.3333333333333335 0.333333333333333 0.3333333333333335 0.3333333333333335 0.333333333333333 0.3333333333333335 0.3333333333333335 0.333333333333333 0.3333333333333335 0.3333333333333335 0.333333333333333 0.3333333333333335 0.3333333333333335 0.333333333333333 0.3333333333333335 0.3333333333333335 0.333333333333333 0.3333333333333335 0.3333333333333335 0.333333333333333 0.3333333333333335 0.3333333333333335 0.333333333333333 0.3333333333333335 0.3333333333333335 0.333333333333333 0.3333333333333335 0.3333333333333335 0.333333333333333 0.3333333333333335 0.3333333333333335 0.333333333333333 0.3333333333333335 0.3333333333333335 0.333333333333333 0.3333333333333335 0.3333333333333335 0.333333333333333 0.3333333333333335 0.3333333333333335 0.333333333333333 0.3333333333333335 0.3333333333333335 0.333333333333333 0.3333333333333335 0.3333333333333335 0.333333333333333 0.3333333333333335 0.3333333333333335 0.333333333333333 0.3333333333333335 0.3333333333333335 0.333333333333333 0.3333333333333335 0.3333333333333335 0.333333333333333 0.3333333333333335 0.3333333333333335 0.333333333333333 0.3333333333333335 0.3333333333333335 0.333333333333333 0.3333333333333335 0.3333333333333335 0.333333333333333 0.3333333333333335 0.3333333333333335 0.333333333333333 0.3333333333333335 0.3333333333333335 0.333333333333333 0.3333333333333335 0.3333333333333335 0.333333333333333 0.3333333333333335 0.3333333333333335 0.333333333333333 0.3333333333333335 0.3333333333333335 0.333333333333333 0.3333333333333335 0.3333333333333335 0.333333333333333 0.3333333333333335 0.3333333333333335 0.333333333333333 0.3333333333333335 0.3333333333333335 0.333333333333333 0.3333333333333335 0.3333333333333335 0.333333333333333 0.3333333333333335 0.3333333333333335 0.333333333333333 0.3333333333333335 0.3333333333333335 0.333333333333333 0.3333333333333335 0.3333333333333335 0.333333333333333 0.3333333333333335 0.3333333333333335 0.333333333333333 0.3333333333333335 0.3333333333333335 0.333333333333333 0.3333333333333335 0.3333333333333335 0.333333333333333 0.3333333333333335 0.3333333333333335 0.333333333333333 0.3333333333333335 0.3333333333333335 0.333333333333333 0.3333333333333335 0.3333333333333335 0.333333333333333 0.3333333333333335 0.3333333333333335 0.333333333333333 0.3333333333333335 0.3333333333333335 0.333333333333333 0.3333333333333335 0.3333333333333335 0.333333333333333 0.3333333333333335 0.3333333333333335 0.333333333333333 0.3333333333333335 0.3333333333333335 0.333333333333333 0.3333333333333335 0.3333333333333335 0.333333333333333 0.3333333333333335 0.3333333333333335 0.333333333333333 0.3333333333333335 0.3333333333333335 0.333333333333333 0.3333333333333335 0.3333333333333335 0.333333333333333 0.3333333333333335 0.3333333333333335 0.333333333333333 0.3333333333333335 0.3333333333333335 0.333333333333333 0.3333333333333335 0.3333333333333335 0.333333333333333 0.3333333333333335 0.3333333333333335 0.333333333333333 0.3333333333333335 0.3333333333333335 0.333333333333333 0.3333333333333335 0.3333333333333335 0.333333333333333 0.3333333333333335 0.3333333333333335 0.333333333333333 0.3333333333333335 0.3333333333333335 0.333333333333333 0.3333333333333335 0.3333333333333335 0.333333333333333 0.3333333333333335 0.3333333333333335 0.333333333333333 0.3333333333333335 0.3333333333333335 0.333333333333333 0.3333333333333335 0.3333333333333335 0.333333333333333 0.3333333333333335 0.3333333333333335 0.333333333333333 0.3333333333333335 0.3333333333333335 0.333333333333333 0.3333333333333335 0.3333333333333335 0.333333333333333 0.3333333333333335 0.3333333333333335 0.333333333333333 0.3333333333333335 0.3333333333333335 0.333333333333333 0.3333333333333335 0.3333333333333335 0.333333333333333 0.3333333333333335 0.3333333333333335 0.333333333333333 0.3333333333333335 0.3333333333333335 0.333333333333333 0.3333333333333335 0.3333333333333335 0.333333333333333 0.3333333333333335 0.3333333333333335 0.333333333333333 0.3333333333333335 0.3333333333333335 0.333333333333333 0.3333333333333335 0.3333333333333335 0.333333333333333 0.3333333333333335 0.3333333333333335 0.333333333333333 0.3333333333333335 0.3333333333333335 0.333333333333333 0.3333333333333335 0.3333333333333335 0.333333333333333 0.3333333333333335 0.3333333333333335 0.333333333333333 0.3333333333333335 0.3333333333333335 0.333333333333333 0.3333333333333335 0.3333333333333335 0.333333333333333 0.3333333333333335 0.3333333333333335 0.333333333333333 0.3333333333333335 0.3333333333333335 0.333333333333333 0.3333333333333335 0.3333333333333335 0.333333333333333 0.3333333333333335 0.3333333333333335 0.333333333333333 0.3333333333333335 0.3333333333333335 0.333333333333333 0.3333333333333335 0.3333333333333335 0.333333333333333 0.3333333333333335 0.3333333333333335 0.333333333333333 0.3333333333333335 0.3333333333333335 0.333333333333333 0.3333333333333335 0.3333333333333335 0.333333333333333 0.3333333333333335 0.3333333333333335 0.333333333333333 0.3333333333333335 0.3333333333333335 0.333333333333333 0.3333333333333335 0.3333333333333335 0.333333333333333 0.3333333333333335 0.3333333333333335 0.333333333333333 0.3333333333333335 0.3333333333333335 0.333333333333333 0.3333333333333335 0.3333333333333335 0.333333333333333 0.3333333333333335 0.3333333333333335 0.333333333333333 0.3333333333333335 0.3333333333333335 0.333333333333333 0.3333333333333335 0.3333333333333335 0.333333333333333 0.3333333333333335 0.3333333333333335 0.333333333333333 0.3333333333333335 0.3333333333333335 0.333333333333333 0.3333333333333335 0.3333333333333335 0.333333333333333 0.3333333333333335 0.3333333333333335 0.333333333333333 0.3333333333333335 0.3333333333333335 0.333333333333333 0.3333333333333335 0.3333333333333335 0.333333333333333 0.3333333333333335 0.3333333333333335 0.333333333333333 0.3333333333333335 0.3333333333333335 0.333333333333333 0.3333333333333335 0.3333333333333335 0.333333333333333 0.3333333333333335 0.3333333333333335 0.333333333333333 0.3333333333333335 0.3333333333333335 0.333333333333333 0.3333333333333335 0.3333333333333335 0.333333333333333 0.3333333333333335 0.3333333333333335 0.333333333333333 0.3333333333333335 0.3333333333333335 0.333333333333333 0.3333333333333335 0.3333333333333335 0.333333333333333 0.3333333333333335 0.3333333333333335 0.333333333333333 0.3333333333333335 0.3333333333333335 0.333333333333333 0.3333333333333335 0.3333333333333335 0.333333333333333 0.3333333333333335 0.3333333333333335 0.333333333333333 0.3333333333333335 0.3333333333333335 0.333333333333333 0.3333333333333335 0.3333333333333335 0.333333333333333 0.3333333333333335 0.3333333333333335 0.333333333333333 0.3333333333333335 0.3333333333333335 0.333333333333333 0.3333333333333335 0.3333333333333335 0.333333333333333 0.3333333333333335 0.3333333333333335 0.333333333333333 0.3333333333333335 0.3333333333333335 0.333333333333333 0.3333333333333335 0.3333333333333335 0.333333333333333 0.3333333333333335 0.3333333333333335 0.333333333333333 0.3333333333333335 0.3333333333333335 0.333333333333333 0.3333333333333335 0.3333333333333335 0.333333333333333 0.3333333333333335 0.3333333333333335 0.333333333333333 0.3333333333333335 0.3333333333333335 0.333333333333333 0.3333333333333335 0.3333333333333335 0.333333333333333 0.3333333333333335 0.3333333333333335 0.333333333333333 0.3333333333333335 0.3333333333333335 0.333333333333333 0.3333333333333335 0.3333333333333335 0.333333333333333 0.3333333333333335 0.3333333333333335 0.333333333333333 0.3333333333333335 0.3333333333333335 0.333333333333333 0.3333333333333335 0.3333333333333335 0.333333333333333 0.3333333333333335 0.3333333333333335 0.333333333333333 0.3333333333333335 0.3333333333333335 0.333333333333333 0.3333333333333335 0.3333333333333335 0.333333333333333 0.3333333333333335 0.3333333333333335 0.333333333333333 0.3333333333333335 0.3333333333333335 0.333333333333333 0.3333333333333335 0.3333333333333335 0.333333333333333 0.3333333333333335 0.3333333333333335 0.333333333333333 0.3333333333333335 0.3333333333333335 0.333333333333333 0.3333333333333335 0.3333333333333335 0.333333333333333 0.3333333333333335 0.3333333333333335 0.333333333333333 0.3333333333333335 0.3333333333333335 0.333333333333333 0.3333333333333335 0.3333333333333335 0.333333333333333 0.3333333333333335 0.3333333333333335 0.333333333333333 0.3333333333333335 0.3333333333333335 0.333333333333333 0.3333333333333335 0.3333333333333335 0.333333333333333 0.3333333333333335 0.3333333333333335 0.333333333333333 0.3333333333333335 0.3333333333333335 0.333333333333333 0.3333333333333335 0.3333333333333335 0.333333333333333 0.3333333333333335 0.3333333333333335 0.333333333333333 0.3333333333333335 0.3333333333333335 0.333333333333333 0.3333333333333335 0.3333333333333335 0.333333333333333 0.3333333333333335 0.3333333333333335 0.333333333333333 0.3333333333333335 0.3333333333333335 0.333333333333333 0.3333333333333335 0.3333333333333335 0.333333333333333 0.3333333333333335 0.3333333333333335 0.333333333333333 0.3333333333333335 0.3333333333333335 0.333333333333333 0.3333333333333335 0.3333333333333335 0.333333333333333 0.3333333333333335 0.3333333333333335 0.333333333333333 0.3333333333333335 0.3333333333333335 0.333333333333333 0.3333333333333335 0.3333333333333335 0.333333333333333 0.3333333333333335 0.3333333333333335 0.333333333333333 0.3333333333333335 0.3333333333333335 0.333333333333333 0.3333333333333335 0.3333333333333335 0.333333333333333 0.3333333333333335 0.3333333333333335 0.333333333333333 0.3333333333333335 0.3333333333333335 0.333333333333333 0.3333333333333335 0.3333333333333335 0.333333333333333 0.3333333333333335 0.3333333333333335 0.333333333333333 0.3333333333333335 0.3333333333333335 0.333333333333333 0.3333333333333335 0.3333333333333335 0.333333333333333 0.3333333333333335 0.3333333333333335 0.333333333333333 0.3333333333333335 0.3333333333333335 0.333333333333333 0.3333333333333335 0.3333333333333335 0.333333333333333 0.3333333333333335 0.3333333333333335 0.333333333333333 0.3333333333333335 0.3333333333333335 0.333333333333333 0.3333333333333335 0.3333333333333335 0.333333333333333 0.3333333333333335 0.3333333333333335 0.333333333333333 0.3333333333333335 0.3333333333333335 0.333333333333333 0.3333333333333335 0.3333333333333335 0.333333333333333 0.3333333333333335 0.3333333333333335 0.333333333333333 0.3333333333333335 0.3333333333333335 0.333333333333333 0.3333333333333335 0.3333333333333335 0.333333333333333 0.3333333333333335 0.3333333333333335 0.333333333333333 0.3333333333333335 0.3333333333333335 0.333333333333333 0.3333333333333335 0.3333333333333335 0.333333333333333 0.3333333333333335 0.3333333333333335 0.333333333333333 0.3333333333333335 0.3333333333333335 0.333333333333333 0.3333333333333335 0.3333333333333335 0.333333333333333 0.3333333333333335 0.3333333333333335 0.333333333333333 0.3333333333333335 0.3333333333333335 0.333333333333333 0.3333333333333335 0.3333333333333335 0.333333333333333 0.3333333333333335 0.3333333333333335 0.333333333333333 0.3333333333333335 0.3333333333333335 0.333333333333333 0.3333333333333335 0.3333333333333335 0.333333333333333 0.3333333333333335 0.3333333333333335 0.333333333333333 0.3333333333333335 0.3333333333333335 0.333333333333333 0.3333333333333335 0.3333333333333335 0.333333333333333 0.3333333333333335 0.3333333333333335 0.333333333333333 0.3333333333333335 0.3333333333333335 0.333333333333333 0.3333333333333335 0.3333333333333335 0.333333333333333 0.3333333333333335 0.3333333333333335 0.333333333333333 0.3333333333333335 0.3333333333333335 0.333333333333333 0.3333333333333335 0.3333333333333335 0.333333333333333 0.3333333333333335 0.3333333333333335 0.333333333333333 0.3333333333333335 0.3333333333333335 0.333333333333333 0.3333333333333335 0.3333333333333335 0.333333333333333 0.3333333333333335 0.3333333333333335 0.333333333333333 0.3333333333333335 0.3333333333333335 0.333333333333333 0.3333333333333335 0.3333333333333335 0.333333333333333 0.3333333333333335 0.3333333333333335 0.333333333333333 0.3333333333333335 0.3333333333333335 0.333333333333333 0.3333333333333335 0.3333333333333335 0.333333333333333 0.3333333333333335 0.3333333333333335 0.333333333333333 0.3333333333333335 0.3333333333333335 0.333333333333333 0.3333333333333335 0.3333333333333335 0.333333333333333 0.3333333333333335 0.3333333333333335 0.333333333333333 0.3333333333333335 0.3333333333333335 0.333333333333333 0.3333333333333335 0.3333333333333335 0.333333333333333 0.3333333333333335 0.3333333333333335 0.333333333333333 0.3333333333333335 0.3333333333333335 0.333333333333333 0.3333333333333335 0.3333333333333335 0.333333333333333 0.3333333333333335 0.3333333333333335 0.333333333333333 0.3333333333333335 0.3333333333333335 0.333333333333333 0.3333333333333335 0.3333333333333335 0.333333333333333 0.3333333333333335 0.3333333333333335 0.333333333333333 0.3333333333333335 0.3333333333333335 0.333333333333333 0.3333333333333335 0.3333333333333335 0.333333333333333 0.3333333333333335 0.3333333333333335 0.333333333333333 0.3333333333333335 0.3333333333333335 0.333333333333333 0.3333333333333335 0.3333333333333335 0.333333333333333 0.3333333333333335 0.3333333333333335 0.333333333333333 0.3333333333333335 0.3333333333333335 0.333333333333333 0.3333333333333335 0.3333333333333335 0.333333333333333 0.3333333333333335 0.3333333333333335 0.333333333333333 0.3333333333333335 0.3333333333333335 0.333333333333333 0.3333333333333335 0.3333333333333335 0.333333333333333 0.3333333333333335 0.3333333333333335 0.333333333333333 0.3333333333333335 0.3333333333333335 0.333333333333333 0.3333333333333335 0.3333333333333335 0.333333333333333 0.3333333333333335 0.3333333333333335 0.333333333333333 0.3333333333333335 0.3333333333333335 0.333333333333333 0.3333333333333335 0.3333333333333335 0.333333333333333 0.3333333333333335 0.3333333333333335 0.333333333333333 0.3333333333333335 0.3333333333333335 0.333333333333333 0.3333333333333335 0.3333333333333335 0.333333333333333 0.3333333333333335 0.3333333333333335 0.333333333333333 0.3333333333333335 0.3333333333333335 0.333333333333333 0.3333333333333335 0.3333333333333335 0.333333333333333 0.3333333333333335 0.3333333333333335 0.333333333333333 0.3333333333333335 0.3333333333333335 0.333333333333333 0.3333333333333335 0.3333333333333335 0.333333333333333 0.3333333333333335 0.3333333333333335 0.333333333333333 0.3333333333333335 0.3333333333333335 0.333333333333333 0.3333333333333335 0.3333333333333335 0.333333333333333 0.3333333333333335 0.3333333333333335 0.333333333333333 0.3333333333333335 0.3333333333333335 0.333333333333333 0.3333333333333335 0.3333333333333335 0.333333333333333 0.3333333333333335 0.3333333333333335 0.333333333333333 0.3333333333333335 0.3333333333333335 0.333333333333333 0.3333333333333335 0.3333333333333335 0.333333333333333 0.3333333333333335 0.3333333333333335 0.333333333333333 0.3333333333333335 0.3333333333333335 0.333333333333333 0.3333333333333335 0.3333333333333335 0.333333333333333 0.3333333333333335 0.3333333333333335 0.333333333333333 0.3333333333333335 0.3333333333333335 0.333333333333333 0.3333333333333335 0.3333333333333335 0.333333333333333 0.3333333333333335 0.3333333333333335 0.333333333333333 0.3333333333333335 0.3333333333333335 0.333333333333333 0.3333333333333335 0.3333333333333335 0.333333333333333 0.3333333333333335 0.3333333333333335 0.333333333333333 0.3333333333333335 0.3333333333333335 0.333333333333333 0.3333333333333335 0.3333333333333335 0.333333333333333 0.3333333333333335 0.3333333333333335 0.333333333333333 0.3333333333333335 0.3333333333333335 0.333333333333333 0.3333333333333335 0.3333333333333335 0.333333333333333 0.3333333333333335 0.3333333333333335 0.333333333333333 0.3333333333333335 0.3333333333333335 0.333333333333333 0.3333333333333335 0.3333333333333335 0.333333333333333 0.3333333333333335 0.3333333333333335 0.333333333333333 0.3333333333333335 0.3333333333333335 0.333333333333333 0.3333333333333335 0.3333333333333335 0.333333333333333 0.3333333333333335 0.3333333333333335 0.333333333333333 0.3333333333333335 0.3333333333333335 0.333333333333333 0.3333333333333335 0.3333333333333335 0.333333333333333 0.3333333333333335 0.3333333333333335 0.333333333333333 0.3333333333333335 0.3333333333333335 0.333333333333333 0.3333333333333335 0.3333333333333335 0.333333333333333 0.3333333333333335 0.3333333333333335 0.333333333333333 0.3333333333333335 0.3333333333333335 0.333333333333333 0.3333333333333335 0.3333333333333335 0.333333333333333 0.3333333333333335 0.3333333333333335 0.333333333333333 0.3333333333333335 0.3333333333333335 0.333333333333333 0.3333333333333335 0.3333333333333335 0.333333333333333 0.3333333333333335 0.3333333333333335 0.333333333333333 0.3333333333333335 0.3333333333333335 0.333333333333333 0.3333333333333335 0.3333333333333335 0.333333333333333 0.3333333333333335 0.3333333333333335 0.333333333333333 0.3333333333333335 0.3333333333333335 0.333333333333333 0.3333333333333335 0.3333333333333335 0.333333333333333 0.3333333333333335 0.3333333333333335 0.333333333333333 0.3333333333333335 0.3333333333333335 0.333333333333333 0.3333333333333335 0.3333333333333335 0.333333333333333 0.3333333333333335 0.3333333333333335 0.333333333333333 0.3333333333333335 0.3333333333333335 0.333333333333333 0.3333333333333335 0.3333333333333335 0.333333333333333 0.3333333333333335 0.3333333333333335 0.333333333333333 0.3333333333333335 0.3333333333333335 0.333333333333333 0.3333333333333335 0.3333333333333335 0.333333333333333 0.3333333333333335 0.3333333333333335 0.333333333333333 0.3333333333333335 0.3333333333333335 0.333333333333333 0.3333333333333335 0.3333333333333335 0.333333333333333 0.3333333333333335 0.3333333333333335 0.333333333333333 0.3333333333333335 0.3333333333333335 0.333333333333333 0.3333333333333335 0.3333333333333335 0.333333333333333 0.3333333333333335 0.3333333333333335 0.333333333333333 0.3333333333333335 0.3333333333333335 0.333333333333333 0.3333333333333335 0.3333333333333335 0.333333333333333 0.3333333333333335 0.3333333333333335 0.333333333333333 0.3333333333333335 0.3333333333333335 0.333333333333333 0.3333333333333335 0.3333333333333335 0.333333333333333 0.3333333333333335 0.3333333333333335 0.333333333333333 0.3333333333333335 0.3333333333333335 0.333333333333333 0.3333333333333335 0.3333333333333335 0.333333333333333 0.3333333333333335 0.3333333333333335 0.333333333333333 0.3333333333333335 0.3333333333333335 0.333333333333333 0.3333333333333335 0.3333333333333335 0.333333333333333 0.3333333333333335 0.3333333333333335 0.333333333333333 0.3333333333333335 0.3333333333333335 0.333333333333333 0.3333333333333335 0.3333333333333335 0.333333333333333 0.3333333333333335 0.3333333333333335 0.333333333333333 0.3333333333333335 0.3333333333333335 0.333333333333333 0.3333333333333335 0.3333333333333335 0.333333333333333 0.3333333333333335 0.3333333333333335 0.333333333333333 0.3333333333333335 0.3333333333333335 0.333333333333333 0.3333333333333335 0.3333333333333335 0.333333333333333 0.3333333333333335 0.3333333333333335 0.333333333333333 0.3333333333333335 0.3333333333333335 0.333333333333333 0.3333333333333335 0.3333333333333335 0.333333333333333 0.3333333333333335 0.3333333333333335 0.333333333333333 0.3333333333333335 0.3333333333333335 0.333333333333333 0.3333333333333335 0.3333333333333335 0.333333333333333 0.3333333333333335 0.3333333333333335 0.333333333333333 0.3333333333333335 0.3333333333333335 0.333333333333333 0.3333333333333335 0.3333333333333335 0.333333333333333 0.3333333333333335 0.3333333333333335 0.333333333333333 0.3333333333333335 0.3333333333333335 0.333333333333333 0.3333333333333335 0.3333333333333335 0.333333333333333 0.3333333333333335 0.3333333333333335 0.333333333333333 0.3333333333333335 0.3333333333333335 0.333333333333333 0.3333333333333335 0.3333333333333335 0.333333333333333 0.3333333333333335 0.3333333333333335 0.333333333333333 0.3333333333333335 0.3333333333333335 0.333333333333333 0.3333333333333335 0.3333333333333335 0.333333333333333 0.3333333333333335 0.3333333333333335 0.333333333333333 0.3333333333333335 0.3333333333333335 0.333333333333333 0.3333333333333335 0.3333333333333335 0.333333333333333 0.3333333333333335 0.3333333333333335 0.333333333333333 0.3333333333333335 0.3333333333333335 0.333333333333333 0.3333333333333335 0.3333333333333335 0.333333333333333 0.3333333333333335 0.3333333333333335 0.333333333333333 0.3333333333333335 0.3333333333333335 0.333333333333333 0.3333333333333335 0.3333333333333335 0.333333333333333 0.3333333333333335 0.3333333333333335 0.333333333333333 0.3333333333333335 0.3333333333333335 0.333333333333333 0.3333333333333335 0.3333333333333335 0.333333333333333 0.3333333333333335 0.3333333333333335 0.333333333333333 0.3333333333333335 0.3333333333333335 0.333333333333333 0.3333333333333335 0.3333333333333335 0.333333333333333 0.3333333333333335 0.3333333333333335 0.333333333333333 0.3333333333333335 0.3333333333333335 0.333333333333333 0.3333333333333335 0.3333333333333335 0.333333333333333 0.3333333333333335 0.3333333333333335 0.333333333333333 0.3333333333333335 0.3333333333333335 0.333333333333333 0.3333333333333335 0.3333333333333335 0.333333333333333 0.3333333333333335 0.3333333333333335 0.333333333333333 0.3333333333333335 0.3333333333333335 0.333333333333333 0.3333333333333335 0.3333333333333335 0.333333333333333 0.3333333333333335 0.3333333333333335 0.333333333333333 0.3333333333333335 0.3333333333333335 0.333333333333333 0.3333333333333335 0.3333333333333335 0.333333333333333 0.3333333333333335 0.3333333333333335 0.333333333333333 0.3333333333333335 0.3333333333333335 0.333333333333333 0.3333333333333335 0.3333333333333335 0.333333333333333 0.3333333333333335 0.3333333333333335 0.333333333333333 0.3333333333333335 0.3333333333333335 0.333333333333333 0.3333333333333335 0.3333333333333335 0.333333333333333 0.3333333333333335 0.3333333333333335 0.333333333333333 0.3333333333333335 0.3333333333333335 0.333333333333333 0.3333333333333335 0.3333333333333335 0.333333333333333 0.3333333333333335 0.3333333333333335 0.333333333333333 0.3333333333333335 0.3333333333333335 0.333333333333333 0.3333333333333335 0.3333333333333335 0.333333333333333 0.3333333333333335 0.3333333333333335 0.333333333333333 0.3333333333333335 0.3333333333333335 0.333333333333333 0.3333333333333335 0.3333333333333335 0.333333333333333 0.3333333333333335 0.3333333333333335 0.333333333333333 0.3333333333333335 0.3333333333333335 0.333333333333333 0.3333333333333335 0.3333333333333335 0.333333333333333 0.3333333333333335 0.3333333333333335 0.333333333333333 0.3333333333333335 0.3333333333333335 0.333333333333333 0.3333333333333335 0.3333333333333335 0.333333333333333 0.3333333333333335 0.3333333333333335 0.333333333333333 0.3333333333333335 0.3333333333333335 0.333333333333333 0.3333333333333335 0.3333333333333335 0.333333333333333 0.3333333333333335 0.3333333333333335 0.333333333333333 0.3333333333333335 0.3333333333333335 0.333333333333333 0.3333333333333335 0.3333333333333335 0.333333333333333 0.3333333333333335 0.3333333333333335 0.333333333333333 0.3333333333333335 0.3333333333333335 0.333333333333333 0.3333333333333335 0.3333333333333335 0.333333333333333 0.3333333333333335 0.3333333333333335 0.333333333333333 0.3333333333333335 0.3333333333333335 0.333333333333333 0.3333333333333335 0.3333333333333335 0.333333333333333 0.3333333333333335 0.3333333333333335 0.333333333333333 0.3333333333333335 0.3333333333333335 0.333333333333333 0.3333333333333335 0.3333333333333335 0.333333333333333 0.3333333333333335 0.3333333333333335 0.333333333333333 0.3333333333333335 0.3333333333333335 0.333333333333333 